{"learner":{"attributes":{"scikit_learn":"{\"_estimator_type\": \"regressor\"}"},"feature_names":[],"feature_types":[],"gradient_booster":{"model":{"cats":{"enc":[],"feature_segments":[],"sorted_idx":[]},"gbtree_model_param":{"num_parallel_tree":"1","num_trees":"400"},"iteration_indptr":[0,1,2,3,4,5,6,7,8,9,10,11,12,13,14,15,16,17,18,19,20,21,22,23,24,25,26,27,28,29,30,31,32,33,34,35,36,37,38,39,40,41,42,43,44,45,46,47,48,49,50,51,52,53,54,55,56,57,58,59,60,61,62,63,64,65,66,67,68,69,70,71,72,73,74,75,76,77,78,79,80,81,82,83,84,85,86,87,88,89,90,91,92,93,94,95,96,97,98,99,100,101,102,103,104,105,106,107,108,109,110,111,112,113,114,115,116,117,118,119,120,121,122,123,124,125,126,127,128,129,130,131,132,133,134,135,136,137,138,139,140,141,142,143,144,145,146,147,148,149,150,151,152,153,154,155,156,157,158,159,160,161,162,163,164,165,166,167,168,169,170,171,172,173,174,175,176,177,178,179,180,181,182,183,184,185,186,187,188,189,190,191,192,193,194,195,196,197,198,199,200,201,202,203,204,205,206,207,208,209,210,211,212,213,214,215,216,217,218,219,220,221,222,223,224,225,226,227,228,229,230,231,232,233,234,235,236,237,238,239,240,241,242,243,244,245,246,247,248,249,250,251,252,253,254,255,256,257,258,259,260,261,262,263,264,265,266,267,268,269,270,271,272,273,274,275,276,277,278,279,280,281,282,283,284,285,286,287,288,289,290,291,292,293,294,295,296,297,298,299,300,301,302,303,304,305,306,307,308,309,310,311,312,313,314,315,316,317,318,319,320,321,322,323,324,325,326,327,328,329,330,331,332,333,334,335,336,337,338,339,340,341,342,343,344,345,346,347,348,349,350,351,352,353,354,355,356,357,358,359,360,361,362,363,364,365,366,367,368,369,370,371,372,373,374,375,376,377,378,379,380,381,382,383,384,385,386,387,388,389,390,391,392,393,394,395,396,397,398,399,400],"tree_info":[0,0,0,0,0,0,0,0,0,0,0,0,0,0,0,0,0,0,0,0,0,0,0,0,0,0,0,0,0,0,0,0,0,0,0,0,0,0,0,0,0,0,0,0,0,0,0,0,0,0,0,0,0,0,0,0,0,0,0,0,0,0,0,0,0,0,0,0,0,0,0,0,0,0,0,0,0,0,0,0,0,0,0,0,0,0,0,0,0,0,0,0,0,0,0,0,0,0,0,0,0,0,0,0,0,0,0,0,0,0,0,0,0,0,0,0,0,0,0,0,0,0,0,0,0,0,0,0,0,0,0,0,0,0,0,0,0,0,0,0,0,0,0,0,0,0,0,0,0,0,0,0,0,0,0,0,0,0,0,0,0,0,0,0,0,0,0,0,0,0,0,0,0,0,0,0,0,0,0,0,0,0,0,0,0,0,0,0,0,0,0,0,0,0,0,0,0,0,0,0,0,0,0,0,0,0,0,0,0,0,0,0,0,0,0,0,0,0,0,0,0,0,0,0,0,0,0,0,0,0,0,0,0,0,0,0,0,0,0,0,0,0,0,0,0,0,0,0,0,0,0,0,0,0,0,0,0,0,0,0,0,0,0,0,0,0,0,0,0,0,0,0,0,0,0,0,0,0,0,0,0,0,0,0,0,0,0,0,0,0,0,0,0,0,0,0,0,0,0,0,0,0,0,0,0,0,0,0,0,0,0,0,0,0,0,0,0,0,0,0,0,0,0,0,0,0,0,0,0,0,0,0,0,0,0,0,0,0,0,0,0,0,0,0,0,0,0,0,0,0,0,0,0,0,0,0,0,0,0,0,0,0,0,0,0,0,0,0,0,0,0,0,0,0,0,0,0,0,0,0,0,0,0,0,0,0,0,0,0,0,0,0,0,0,0,0,0,0,0,0],"trees":[{"base_weights":[1.9588736E-3,3.2902738E-1,-8.634975E-1,7.442133E-2,2.0795105E-1,-6.214792E-1,-1.1456493E0,-1.272343E-2,4.6386698E-1,-8.3137286E-1,9.910332E-2,-2.2564957E-2,-3.5902116E-2,1.2822049E-2,-5.4346723E-3,3.4364447E-2,9.555196E-3,-1.1611287E-2,-2.5917873E-2,-1.5584459E-2,6.5359557E-3],"categories":[],"categories_nodes":[],"categories_segments":[],"categories_sizes":[],"default_left":[0,0,0,0,0,0,0,0,0,0,0,0,0,0,0,0,0,0,0,0,0],"id":0,"left_children":[1,3,5,-1,7,9,11,13,15,17,19,-1,-1,-1,-1,-1,-1,-1,-1,-1,-1],"loss_changes":[1.8370929E2,1.2218812E2,1.1442902E1,0E0,2.5249828E1,1.4904469E1,7.281418E-1,1.7943066E1,2.0144672E1,7.6501465E-1,1.8028572E0,0E0,0E0,0E0,0E0,0E0,0E0,0E0,0E0,0E0,0E0],"parents":[2147483647,0,0,1,1,2,2,4,4,5,5,6,6,7,7,8,8,9,9,10,10],"right_children":[2,4,6,-1,8,10,12,14,16,18,20,-1,-1,-1,-1,-1,-1,-1,-1,-1,-1],"split_conditions":[3.4422395E-1,-1.5186597E0,8.764981E-1,7.442133E-2,-1.0114609E0,4.762744E-1,-1.0074822E0,-1.3914968E0,-4.944431E-1,-1.9405661E0,3.7904313E-1,-2.2564957E-2,-3.5902116E-2,1.2822049E-2,-5.4346723E-3,3.4364447E-2,9.555196E-3,-1.1611287E-2,-2.5917873E-2,-1.5584459E-2,6.5359557E-3],"split_indices":[0,0,0,0,0,1,1,0,0,1,0,0,0,0,0,0,0,0,0,0,0],"split_type":[0,0,0,0,0,0,0,0,0,0,0,0,0,0,0,0,0,0,0,0,0],"sum_hessian":[6.47E2,4.7E2,1.77E2,2.4E1,4.46E2,9.7E1,8E1,2.4E2,2.06E2,7.5E1,2.2E1,1.1E1,6.9E1,6.6E1,1.74E2,3.5E1,1.71E2,6E0,6.9E1,3E0,1.9E1],"tree_param":{"num_deleted":"0","num_feature":"3","num_nodes":"21","size_leaf_vector":"1"}},{"base_weights":[2.9200302E-2,3.5031754E-1,-9.0917957E-1,7.352349E-2,2.2113992E-1,-6.835068E-1,-1.1375583E0,1.4960676E-2,4.5005345E-1,-8.1906915E-1,2.2071682E-1,-2.5950186E-2,-3.6556043E-2,1.3319462E-2,-4.5549083E-3,3.445819E-2,9.143066E-3,-2.5213707E-2,-6.879673E-3,7.1907667E-3,1.7980926E-4],"categories":[],"categories_nodes":[],"categories_segments":[],"categories_sizes":[],"default_left":[0,0,0,0,0,0,0,0,0,0,0,0,0,0,0,0,0,0,0,0,0],"id":1,"left_children":[1,3,5,-1,7,9,11,13,15,17,19,-1,-1,-1,-1,-1,-1,-1,-1,-1,-1],"loss_changes":[1.9618297E2,1.3105461E2,7.7779236E0,0E0,2.1609596E1,1.0722546E1,7.3365784E-1,1.7384176E1,2.1673054E1,7.5326157E-1,4.745686E-2,0E0,0E0,0E0,0E0,0E0,0E0,0E0,0E0,0E0,0E0],"parents":[2147483647,0,0,1,1,2,2,4,4,5,5,6,6,7,7,8,8,9,9,10,10],"right_children":[2,4,6,-1,8,10,12,14,16,18,20,-1,-1,-1,-1,-1,-1,-1,-1,-1,-1],"split_conditions":[4.2827374E-1,-1.5186597E0,8.764981E-1,7.352349E-2,-1.0114609E0,4.762744E-1,-6.727578E-1,-1.3914968E0,-4.944431E-1,8.7485945E-1,8.511512E-1,-2.5950186E-2,-3.6556043E-2,1.3319462E-2,-4.5549083E-3,3.445819E-2,9.143066E-3,-2.5213707E-2,-6.879673E-3,7.1907667E-3,1.7980926E-4],"split_indices":[0,0,0,0,0,1,1,0,0,0,0,0,0,0,0,0,0,0,0,0,0],"split_type":[0,0,0,0,0,0,0,0,0,0,0,0,0,0,0,0,0,0,0,0,0],"sum_hessian":[6.49E2,4.84E2,1.65E2,2.7E1,4.57E2,8.5E1,8E1,2.41E2,2.16E2,7.4E1,1.1E1,2.1E1,5.9E1,6.7E1,1.74E2,3.6E1,1.8E2,7.1E1,3E0,1E1,1E0],"tree_param":{"num_deleted":"0","num_feature":"3","num_nodes":"21","size_leaf_vector":"1"}},{"base_weights":[-7.7184453E-3,3.005695E-1,-8.5455817E-1,6.95955E-2,1.8110828E-1,-5.908667E-1,-1.1580037E0,-3.704149E-2,4.2670485E-1,-8.1529886E-1,5.2200824E-2,-2.2625878E-2,-3.618888E-2,1.1257006E-2,-6.5344325E-3,3.1096397E-2,8.660673E-3,-2.5713598E-2,-1.1678188E-2,-1.83216E-2,6.2266006E-3],"categories":[],"categories_nodes":[],"categories_segments":[],"categories_sizes":[],"default_left":[0,0,0,0,0,0,0,0,0,0,0,0,0,0,0,0,0,0,0,0,0],"id":2,"left_children":[1,3,5,-1,7,9,11,13,15,17,19,-1,-1,-1,-1,-1,-1,-1,-1,-1,-1],"loss_changes":[1.6629768E2,1.12232285E2,1.2918503E1,0E0,2.3696766E1,1.346479E1,6.1128235E-1,1.7595848E1,1.7207653E1,8.9571E-1,2.7014177E0,0E0,0E0,0E0,0E0,0E0,0E0,0E0,0E0,0E0,0E0],"parents":[2147483647,0,0,1,1,2,2,4,4,5,5,6,6,7,7,8,8,9,9,10,10],"right_children":[2,4,6,-1,8,10,12,14,16,18,20,-1,-1,-1,-1,-1,-1,-1,-1,-1,-1],"split_conditions":[3.4422395E-1,-1.5186597E0,8.764981E-1,6.95955E-2,-1.099251E0,4.762744E-1,-1.0074822E0,-1.3803998E0,-4.682296E-1,9.07417E-2,3.7904313E-1,-2.2625878E-2,-3.618888E-2,1.1257006E-2,-6.5344325E-3,3.1096397E-2,8.660673E-3,-2.5713598E-2,-1.1678188E-2,-1.83216E-2,6.2266006E-3],"split_indices":[0,0,0,0,0,1,1,0,0,1,0,0,0,0,0,0,0,0,0,0,0],"split_type":[0,0,0,0,0,0,0,0,0,0,0,0,0,0,0,0,0,0,0,0,0],"sum_hessian":[6.35E2,4.66E2,1.69E2,2.5E1,4.41E2,9.2E1,7.7E1,2.34E2,2.07E2,6.8E1,2.4E1,1E1,6.7E1,7.1E1,1.63E2,3.7E1,1.7E2,6.1E1,7E0,4E0,2E1],"tree_param":{"num_deleted":"0","num_feature":"3","num_nodes":"21","size_leaf_vector":"1"}},{"base_weights":[1.0118578E-3,2.732609E-1,-9.4154006E-1,2.081841E0,1.8207262E-1,-1.0213224E0,-2.8074878E-1,-7.494445E-3,6.582236E-2,1.231092E0,1.4080764E-1,-2.1397922E-2,-1.0958744E0,-1.9221024E-3,-9.161038E-3,-7.26002E-3,4.6255313E-2,-1.6615177E-3,1.0762576E-2,-2.7641093E-2,-3.519845E-2],"categories":[],"categories_nodes":[],"categories_segments":[],"categories_sizes":[],"default_left":[0,0,0,0,0,0,0,0,0,0,0,0,0,0,0,0,0,0,0,0,0],"id":3,"left_children":[1,3,5,7,9,11,13,-1,-1,15,17,-1,19,-1,-1,-1,-1,-1,-1,-1,-1],"loss_changes":[1.6602663E2,8.241145E1,7.357559E0,6.8289185E0,2.0561493E1,2.181015E0,7.112074E-2,0E0,0E0,8.612923E0,1.9774506E1,0E0,2.9679108E-1,0E0,0E0,0E0,0E0,0E0,0E0,0E0,0E0],"parents":[2147483647,0,0,1,1,2,2,3,3,4,4,5,5,6,6,9,9,10,10,12,12],"right_children":[2,4,6,8,10,12,14,-1,-1,16,18,-1,20,-1,-1,-1,-1,-1,-1,-1,-1],"split_conditions":[5.560901E-1,-1.4642626E0,1.1168326E0,-1.1315213E0,-1.7722857E0,8.6366236E-1,-1.548263E0,-7.494445E-3,6.582236E-2,-1.3186036E0,-1.1645434E0,-2.1397922E-2,-8.1549174E-1,-1.9221024E-3,-9.161038E-3,-7.26002E-3,4.6255313E-2,-1.6615177E-3,1.0762576E-2,-2.7641093E-2,-3.519845E-2],"split_indices":[2,2,2,1,1,2,1,0,0,2,2,0,1,0,0,0,0,0,0,0,0],"split_type":[0,0,0,0,0,0,0,0,0,0,0,0,0,0,0,0,0,0,0,0,0],"sum_hessian":[6.45E2,5.01E2,1.44E2,2.3E1,4.78E2,1.28E2,1.6E1,1E0,2.2E1,1.7E1,4.61E2,2.7E1,1.01E2,2E0,1.4E1,3E0,1.4E1,2.43E2,2.18E2,3.5E1,6.6E1],"tree_param":{"num_deleted":"0","num_feature":"3","num_nodes":"21","size_leaf_vector":"1"}},{"base_weights":[4.7252313E-4,2.954457E-1,-9.387873E-1,6.880436E-2,1.7238145E-1,-1.0065919E0,-2.5239936E-1,1.8717312E0,8.623906E-2,-5.7667196E-1,-1.0543327E0,-1.0638011E-1,-9.4431285E-3,-1.2483632E-2,6.363967E-2,-8.813452E-3,1.27427615E-2,-6.661743E-3,-2.029115E-2,-1.0568708E-2,-3.206844E-2,-7.277398E-4,-3.538588E-3],"categories":[],"categories_nodes":[],"categories_segments":[],"categories_sizes":[],"default_left":[0,0,0,0,0,0,0,0,0,0,0,0,0,0,0,0,0,0,0,0,0,0,0],"id":4,"left_children":[1,3,5,-1,7,9,11,13,15,17,19,21,-1,-1,-1,-1,-1,-1,-1,-1,-1,-1,-1],"loss_changes":[1.7620822E2,1.186137E2,6.820038E0,0E0,6.6737E1,2.224411E0,1.03126466E-1,1.3445343E1,5.62138E1,4.154849E-1,8.854828E-1,2.8410107E-3,0E0,0E0,0E0,0E0,0E0,0E0,0E0,0E0,0E0,0E0,0E0],"parents":[2147483647,0,0,1,1,2,2,4,4,5,5,6,6,7,7,8,8,9,9,10,10,11,11],"right_children":[2,4,6,-1,8,10,12,14,16,18,20,22,-1,-1,-1,-1,-1,-1,-1,-1,-1,-1,-1],"split_conditions":[5.560901E-1,-1.5186597E0,1.1168326E0,6.880436E-2,-1.4594599E0,5.2888584E-1,7.918754E-1,-1.4623423E0,-1.099251E0,7.107951E-1,6.1032194E-1,1.1219769E0,-9.4431285E-3,-1.2483632E-2,6.363967E-2,-8.813452E-3,1.27427615E-2,-6.661743E-3,-2.029115E-2,-1.0568708E-2,-3.206844E-2,-7.277398E-4,-3.538588E-3],"split_indices":[2,0,2,0,2,0,0,0,0,2,2,2,0,0,0,0,0,0,0,0,0,0,0],"split_type":[0,0,0,0,0,0,0,0,0,0,0,0,0,0,0,0,0,0,0,0,0,0,0],"sum_hessian":[6.34E2,4.83E2,1.51E2,2.7E1,4.56E2,1.37E2,1.4E1,2.1E1,4.35E2,1.5E1,1.22E2,5E0,9E0,2E0,1.9E1,2.05E2,2.3E2,4E0,1.1E1,3E0,1.19E2,1E0,4E0],"tree_param":{"num_deleted":"0","num_feature":"3","num_nodes":"23","size_leaf_vector":"1"}},{"base_weights":[-2.4753723E-3,2.8098047E-1,-9.0220314E-1,6.766021E-2,1.7045726E-1,-9.807029E-1,-2.502491E-1,6.106193E-2,9.5480844E-2,-5.4237777E-1,-1.0258172E0,-9.313699E-2,-9.105372E-3,-6.4535416E-3,1.1965487E-2,-4.546659E-3,-1.8823612E-2,-9.371772E-3,-3.104856E-2,-7.168237E-4,-3.066202E-3],"categories":[],"categories_nodes":[],"categories_segments":[],"categories_sizes":[],"default_left":[0,0,0,0,0,0,0,0,0,0,0,0,0,0,0,0,0,0,0,0,0],"id":5,"left_children":[1,3,5,-1,7,9,11,-1,13,15,17,19,-1,-1,-1,-1,-1,-1,-1,-1,-1],"loss_changes":[1.6500488E2,1.06976166E2,7.68721E0,0E0,6.510466E1,2.1725159E0,1.2236142E-1,0E0,4.24875E1,4.0365076E-1,4.8480225E-1,1.32595E-3,0E0,0E0,0E0,0E0,0E0,0E0,0E0,0E0,0E0],"parents":[2147483647,0,0,1,1,2,2,4,4,5,5,6,6,8,8,9,9,10,10,11,11],"right_children":[2,4,6,-1,8,10,12,-1,14,16,18,20,-1,-1,-1,-1,-1,-1,-1,-1,-1],"split_conditions":[5.560901E-1,-1.5186597E0,1.1168326E0,6.766021E-2,-1.4732922E0,5.2888584E-1,7.918754E-1,6.106193E-2,-1.099251E0,7.107951E-1,6.1032194E-1,1.1219769E0,-9.105372E-3,-6.4535416E-3,1.1965487E-2,-4.546659E-3,-1.8823612E-2,-9.371772E-3,-3.104856E-2,-7.168237E-4,-3.066202E-3],"split_indices":[2,0,2,0,2,0,0,0,0,2,2,2,0,0,0,0,0,0,0,0,0],"split_type":[0,0,0,0,0,0,0,0,0,0,0,0,0,0,0,0,0,0,0,0,0],"sum_hessian":[6.45E2,4.91E2,1.54E2,2.5E1,4.66E2,1.37E2,1.7E1,1.7E1,4.49E2,1.4E1,1.23E2,5E0,1.2E1,2.22E2,2.27E2,3E0,1.1E1,2E0,1.21E2,1E0,4E0],"tree_param":{"num_deleted":"0","num_feature":"3","num_nodes":"21","size_leaf_vector":"1"}},{"base_weights":[-7.027036E-3,2.4464218E-1,-8.636885E-1,6.0725447E-2,1.8123925E-1,-9.317682E-1,-2.5230575E-1,8.340306E-2,5.996207E-1,-6.3950604E-1,-9.8808783E-1,-1.04741246E-1,-8.349062E-3,2.7572228E-2,1.147509E-3,3.978477E-2,1.4174208E-2,-1.4898492E-2,-2.3696696E-2,-1.1632228E-2,-3.0223494E-2,-3.6367504E-3,-8.2934886E-4],"categories":[],"categories_nodes":[],"categories_segments":[],"categories_sizes":[],"default_left":[0,0,0,0,0,0,0,0,0,0,0,0,0,0,0,0,0,0,0,0,0,0,0],"id":6,"left_children":[1,3,5,-1,7,9,11,13,15,17,19,21,-1,-1,-1,-1,-1,-1,-1,-1,-1,-1,-1],"loss_changes":[1.3862349E2,5.5708668E1,5.8418274E0,0E0,1.9638687E1,1.5243835E0,3.222859E-2,1.4718395E1,7.7797546E0,1.23446465E-1,8.647537E-1,1.7320886E-3,0E0,0E0,0E0,0E0,0E0,0E0,0E0,0E0,0E0,0E0,0E0],"parents":[2147483647,0,0,1,1,2,2,4,4,5,5,6,6,7,7,8,8,9,9,10,10,11,11],"right_children":[2,4,6,-1,8,10,12,14,16,18,20,22,-1,-1,-1,-1,-1,-1,-1,-1,-1,-1,-1],"split_conditions":[5.560901E-1,-1.4732922E0,1.1168326E0,6.0725447E-2,1.2167422E-1,8.475828E-1,-1.548263E0,-1.6416258E0,-1.1999468E0,6.6303563E-1,-1.9405661E0,-1.9405661E0,-8.349062E-3,2.7572228E-2,1.147509E-3,3.978477E-2,1.4174208E-2,-1.4898492E-2,-2.3696696E-2,-1.1632228E-2,-3.0223494E-2,-3.6367504E-3,-8.2934886E-4],"split_indices":[2,2,2,0,2,2,1,1,1,1,1,1,0,0,0,0,0,0,0,0,0,0,0],"split_type":[0,0,0,0,0,0,0,0,0,0,0,0,0,0,0,0,0,0,0,0,0,0,0],"sum_hessian":[6.41E2,4.96E2,1.45E2,1.6E1,4.8E2,1.3E2,1.5E1,3.9E2,9E1,2.3E1,1.07E2,3E0,1.2E1,1.9E1,3.71E2,1.2E1,7.8E1,1.4E1,9E0,4E0,1.03E2,2E0,1E0],"tree_param":{"num_deleted":"0","num_feature":"3","num_nodes":"23","size_leaf_vector":"1"}},{"base_weights":[-3.41968E-2,6.523678E-2,-1.2378236E-1,1.2740012E-1,-7.3771614E-1,-1.266342E-1,3.890772E-1,-5.50687E-1,-9.5224214E-1,7.980565E-3,-9.584963E-3,3.0858956E-2,7.7917E-3,-1.9886233E-2,-1.4800582E-3,-2.097358E-2,-3.0678555E-2],"categories":[],"categories_nodes":[],"categories_segments":[],"categories_sizes":[],"default_left":[0,0,0,0,0,0,0,0,0,0,0,0,0,0,0,0,0],"id":7,"left_children":[1,-1,3,5,7,9,11,13,15,-1,-1,-1,-1,-1,-1,-1,-1],"loss_changes":[1.2690768E2,0E0,9.5086975E1,2.9165302E1,6.6575546E0,1.6972528E1,1.7602276E1,5.4793434E0,7.4580383E-1,0E0,0E0,0E0,0E0,0E0,0E0,0E0,0E0],"parents":[2147483647,0,0,2,2,3,3,4,4,5,5,6,6,7,7,8,8],"right_children":[2,-1,4,6,8,10,12,14,16,-1,-1,-1,-1,-1,-1,-1,-1],"split_conditions":[-1.4989556E0,6.523678E-2,3.4422395E-1,-1.099251E0,8.764981E-1,-1.3803998E0,-4.944431E-1,5.180091E-1,-6.727578E-1,7.980565E-3,-9.584963E-3,3.0858956E-2,7.7917E-3,-1.9886233E-2,-1.4800582E-3,-2.097358E-2,-3.0678555E-2],"split_indices":[0,0,0,0,0,0,0,1,1,0,0,0,0,0,0,0,0],"split_type":[0,0,0,0,0,0,0,0,0,0,0,0,0,0,0,0,0],"sum_hessian":[6.39E2,2.4E1,6.15E2,4.37E2,1.78E2,2.22E2,2.15E2,9.7E1,8.1E1,7.3E1,1.49E2,3.5E1,1.8E2,7.9E1,1.8E1,2E1,6.1E1],"tree_param":{"num_deleted":"0","num_feature":"3","num_nodes":"17","size_leaf_vector":"1"}},{"base_weights":[1.9651586E-2,2.664954E-1,-7.8966856E-1,1.8591238E0,1.849497E-1,-8.7063694E-1,-2.1579365E-1,-1.1196284E-2,5.9172247E-2,1.1960211E0,1.4222875E-1,-6.3561577E-1,-9.169786E-1,-8.722288E-2,-7.5850715E-3,-5.1228898E-3,4.100592E-2,-1.8585419E-3,1.0509423E-2,-8.96259E-3,-2.0039156E-2,-2.5677511E-2,-3.524205E-2,-3.4680532E-3,-6.093018E-4],"categories":[],"categories_nodes":[],"categories_segments":[],"categories_sizes":[],"default_left":[0,0,0,0,0,0,0,0,0,0,0,0,0,0,0,0,0,0,0,0,0,0,0,0,0],"id":8,"left_children":[1,3,5,7,9,11,13,-1,-1,15,17,19,21,23,-1,-1,-1,-1,-1,-1,-1,-1,-1,-1,-1],"loss_changes":[1.2906577E2,6.394281E1,6.828438E0,6.805458E0,2.021742E1,8.5479736E-1,7.3197484E-2,0E0,0E0,4.6700172E0,1.9310757E1,7.293129E-2,6.9433594E-1,9.045593E-3,0E0,0E0,0E0,0E0,0E0,0E0,0E0,0E0,0E0,0E0,0E0],"parents":[2147483647,0,0,1,1,2,2,3,3,4,4,5,5,6,6,9,9,10,10,11,11,12,12,13,13],"right_children":[2,4,6,8,10,12,14,-1,-1,16,18,20,22,24,-1,-1,-1,-1,-1,-1,-1,-1,-1,-1,-1],"split_conditions":[5.560901E-1,-1.4594599E0,1.1168326E0,-8.8668215E-1,-1.7722857E0,8.6366236E-1,-1.548263E0,-1.1196284E-2,5.9172247E-2,-1.3186036E0,-1.1702523E0,6.1032194E-1,5.6003165E-1,-1.9405661E0,-7.5850715E-3,-5.1228898E-3,4.100592E-2,-1.8585419E-3,1.0509423E-2,-8.96259E-3,-2.0039156E-2,-2.5677511E-2,-3.524205E-2,-3.4680532E-3,-6.093018E-4],"split_indices":[2,2,2,1,1,2,1,0,0,2,2,2,1,1,0,0,0,0,0,0,0,0,0,0,0],"split_type":[0,0,0,0,0,0,0,0,0,0,0,0,0,0,0,0,0,0,0,0,0,0,0,0,0],"sum_hessian":[6.44E2,4.94E2,1.5E2,2.3E1,4.71E2,1.31E2,1.9E1,1E0,2.2E1,1.8E1,4.53E2,2.4E1,1.07E2,5E0,1.4E1,2E0,1.6E1,2.29E2,2.24E2,3E0,2.1E1,9E1,1.7E1,3E0,2E0],"tree_param":{"num_deleted":"0","num_feature":"3","num_nodes":"25","size_leaf_vector":"1"}},{"base_weights":[2.4272809E-2,2.9133967E-1,-6.719849E-1,6.10968E-2,1.8210076E-1,-4.760111E-1,-9.128901E-1,1.7875565E-2,3.6151955E-1,-6.40774E-1,1.149834E-2,-6.840689E-1,-2.9598566E-2,1.1074495E-2,-3.2823805E-3,2.8338943E-2,7.5180056E-3,-1.0157707E-2,-2.012708E-2,-1.9055586E-2,4.54746E-3,-2.1242961E-2,-8.635113E-3],"categories":[],"categories_nodes":[],"categories_segments":[],"categories_sizes":[],"default_left":[0,0,0,0,0,0,0,0,0,0,0,0,0,0,0,0,0,0,0,0,0,0,0],"id":9,"left_children":[1,3,5,-1,7,9,11,13,15,17,19,21,-1,-1,-1,-1,-1,-1,-1,-1,-1,-1,-1],"loss_changes":[1.2273509E2,9.0567276E1,8.205086E0,0E0,1.3252825E1,8.280685E0,6.916199E-1,1.0592678E1,1.3669132E1,4.7387886E-1,2.542211E0,1.5174866E-2,0E0,0E0,0E0,0E0,0E0,0E0,0E0,0E0,0E0,0E0,0E0],"parents":[2147483647,0,0,1,1,2,2,4,4,5,5,6,6,7,7,8,8,9,9,10,10,11,11],"right_children":[2,4,6,-1,8,10,12,14,16,18,20,22,-1,-1,-1,-1,-1,-1,-1,-1,-1,-1,-1],"split_conditions":[3.4422395E-1,-1.4989556E0,8.764981E-1,6.10968E-2,-1.125963E0,5.180091E-1,-6.727578E-1,-1.3914968E0,-7.566038E-1,-1.9405661E0,3.7904313E-1,-7.117026E-1,-2.9598566E-2,1.1074495E-2,-3.2823805E-3,2.8338943E-2,7.5180056E-3,-1.0157707E-2,-2.012708E-2,-1.9055586E-2,4.54746E-3,-2.1242961E-2,-8.635113E-3],"split_indices":[0,0,0,0,0,1,1,0,0,1,0,1,0,0,0,0,0,0,0,0,0,0,0],"split_type":[0,0,0,0,0,0,0,0,0,0,0,0,0,0,0,0,0,0,0,0,0,0,0],"sum_hessian":[6.58E2,4.76E2,1.82E2,2.7E1,4.49E2,1.02E2,8E1,2.35E2,2.14E2,7.6E1,2.6E1,2.2E1,5.8E1,6.2E1,1.73E2,3.3E1,1.81E2,8E0,6.8E1,4E0,2.2E1,2E1,2E0],"tree_param":{"num_deleted":"0","num_feature":"3","num_nodes":"23","size_leaf_vector":"1"}},{"base_weights":[2.7628448E-2,2.6785764E-1,-7.776507E-1,6.089888E-2,1.9341329E-1,-8.38254E-1,-1.844181E-1,1.7923715E0,1.1216174E-1,-5.5831885E-1,-9.036739E-1,-5.1051073E-2,-6.8482254E-3,-7.2330646E-3,5.687284E-2,-8.573447E-3,9.80662E-3,-8.181076E-3,-1.825658E-2,-2.3585625E-2,-2.9788177E-2,-8.429155E-5,-1.8722694E-3],"categories":[],"categories_nodes":[],"categories_segments":[],"categories_sizes":[],"default_left":[0,0,0,0,0,0,0,0,0,0,0,0,0,0,0,0,0,0,0,0,0,0,0],"id":10,"left_children":[1,3,5,-1,7,9,11,13,15,17,19,21,-1,-1,-1,-1,-1,-1,-1,-1,-1,-1,-1],"loss_changes":[1.2459766E2,6.467206E1,5.1662827E0,0E0,6.1769768E1,1.9494476E0,7.608074E-2,5.2926025E0,3.8972538E1,2.3577976E-1,3.4152985E-1,2.5642533E-3,0E0,0E0,0E0,0E0,0E0,0E0,0E0,0E0,0E0,0E0,0E0],"parents":[2147483647,0,0,1,1,2,2,4,4,5,5,6,6,7,7,8,8,9,9,10,10,11,11],"right_children":[2,4,6,-1,8,10,12,14,16,18,20,22,-1,-1,-1,-1,-1,-1,-1,-1,-1,-1,-1],"split_conditions":[5.560901E-1,-1.4989556E0,1.1168326E0,6.089888E-2,-1.4642626E0,8.6366236E-1,7.918754E-1,-1.4888688E0,-1.251541E0,4.2827374E-1,8.7485945E-1,1.1219769E0,-6.8482254E-3,-7.2330646E-3,5.687284E-2,-8.573447E-3,9.80662E-3,-8.181076E-3,-1.825658E-2,-2.3585625E-2,-2.9788177E-2,-8.429155E-5,-1.8722694E-3],"split_indices":[2,0,2,0,2,2,0,0,0,0,0,2,0,0,0,0,0,0,0,0,0,0,0],"split_type":[0,0,0,0,0,0,0,0,0,0,0,0,0,0,0,0,0,0,0,0,0,0,0],"sum_hessian":[6.42E2,4.95E2,1.47E2,1.9E1,4.76E2,1.33E2,1.4E1,2.2E1,4.54E2,2.7E1,1.06E2,4E0,1E1,1E0,2.1E1,1.59E2,2.95E2,5E0,2.2E1,5E1,5.6E1,1E0,3E0],"tree_param":{"num_deleted":"0","num_feature":"3","num_nodes":"23","size_leaf_vector":"1"}},{"base_weights":[-9.843987E-3,2.1329787E-1,-7.6343673E-1,1.7227486E0,1.4495184E-1,-8.130196E-1,-1.7455605E-1,-1.204755E-2,5.529091E-2,5.494334E-2,5.0350666E-1,-5.777015E-1,-8.645899E-1,-5.4165173E-2,-6.157704E-3,3.8345994E-3,-1.2720475E-2,3.5474807E-2,1.2121976E-2,-1.3835468E-2,-2.3173317E-2,-2.4088535E-2,-3.2407522E-2,-2.1112554E-3,-8.302711E-5],"categories":[],"categories_nodes":[],"categories_segments":[],"categories_sizes":[],"default_left":[0,0,0,0,0,0,0,0,0,0,0,0,0,0,0,0,0,0,0,0,0,0,0,0,0],"id":11,"left_children":[1,3,5,7,9,11,13,-1,-1,15,17,19,21,23,-1,-1,-1,-1,-1,-1,-1,-1,-1,-1,-1],"loss_changes":[1.1114717E2,5.2364433E1,4.2670364E0,6.3615494E0,1.5753822E1,1.187355E0,3.6931425E-2,0E0,0E0,1.3736934E1,6.1390553E0,2.7911758E-1,6.2142944E-1,3.1378549E-3,0E0,0E0,0E0,0E0,0E0,0E0,0E0,0E0,0E0,0E0,0E0],"parents":[2147483647,0,0,1,1,2,2,3,3,4,4,5,5,6,6,9,9,10,10,11,11,12,12,13,13],"right_children":[2,4,6,8,10,12,14,-1,-1,16,18,20,22,24,-1,-1,-1,-1,-1,-1,-1,-1,-1,-1,-1],"split_conditions":[5.560901E-1,-1.4594599E0,1.1168326E0,-8.8668215E-1,1.18113235E-1,8.6366236E-1,-1.5612204E0,-1.204755E-2,5.529091E-2,-2.9880747E-1,-1.1999468E0,6.6303563E-1,4.762744E-1,-1.9767128E0,-6.157704E-3,3.8345994E-3,-1.2720475E-2,3.5474807E-2,1.2121976E-2,-1.3835468E-2,-2.3173317E-2,-2.4088535E-2,-3.2407522E-2,-2.1112554E-3,-8.302711E-5],"split_indices":[2,2,2,1,2,2,1,0,0,2,1,1,1,1,0,0,0,0,0,0,0,0,0,0,0],"split_type":[0,0,0,0,0,0,0,0,0,0,0,0,0,0,0,0,0,0,0,0,0,0,0,0,0],"sum_hessian":[6.59E2,5.09E2,1.5E2,2.1E1,4.88E2,1.38E2,1.2E1,1E0,2E1,3.91E2,9.7E1,2.7E1,1.11E2,3E0,9E0,3.4E2,5.1E1,1.1E1,8.6E1,1.9E1,8E0,9E1,2.1E1,2E0,1E0],"tree_param":{"num_deleted":"0","num_feature":"3","num_nodes":"25","size_leaf_vector":"1"}},{"base_weights":[1.1752897E-2,2.497945E-1,-7.096565E-1,5.3858712E-2,1.8165864E-1,-7.76951E-1,-1.8292353E-1,9.488828E-2,5.566092E-1,-5.5009997E-1,-8.358031E-1,-6.96486E-2,-6.4811576E-3,5.3928103E-3,-1.0751419E-2,3.6843836E-2,1.3426821E-2,-1.3950888E-2,-2.2734482E-2,-2.0152757E-2,-2.7562065E-2,-3.0497364E-3,-1.1260077E-4],"categories":[],"categories_nodes":[],"categories_segments":[],"categories_sizes":[],"default_left":[0,0,0,0,0,0,0,0,0,0,0,0,0,0,0,0,0,0,0,0,0,0,0],"id":12,"left_children":[1,3,5,-1,7,9,11,13,15,17,19,21,-1,-1,-1,-1,-1,-1,-1,-1,-1,-1,-1],"loss_changes":[1.14202965E2,5.2325714E1,5.706505E0,0E0,1.5563789E1,1.4894257E0,5.9975326E-2,1.5106145E1,6.0408707E0,2.3071957E-1,9.3375397E-1,1.2273997E-2,0E0,0E0,0E0,0E0,0E0,0E0,0E0,0E0,0E0,0E0,0E0],"parents":[2147483647,0,0,1,1,2,2,4,4,5,5,6,6,7,7,8,8,9,9,10,10,11,11],"right_children":[2,4,6,-1,8,10,12,14,16,18,20,22,-1,-1,-1,-1,-1,-1,-1,-1,-1,-1,-1],"split_conditions":[5.560901E-1,-1.4732922E0,1.1168326E0,5.3858712E-2,1.2167422E-1,8.6366236E-1,-1.548263E0,-2.9880747E-1,-1.1999468E0,1.2622385E0,-8.1549174E-1,-1.9405661E0,-6.4811576E-3,5.3928103E-3,-1.0751419E-2,3.6843836E-2,1.3426821E-2,-1.3950888E-2,-2.2734482E-2,-2.0152757E-2,-2.7562065E-2,-3.0497364E-3,-1.1260077E-4],"split_indices":[2,2,2,0,2,2,1,2,1,1,1,1,0,0,0,0,0,0,0,0,0,0,0],"split_type":[0,0,0,0,0,0,0,0,0,0,0,0,0,0,0,0,0,0,0,0,0,0,0],"sum_hessian":[6.63E2,4.99E2,1.64E2,2E1,4.79E2,1.45E2,1.9E1,3.9E2,8.9E1,3.2E1,1.13E2,5E0,1.4E1,3.29E2,6.1E1,1.1E1,7.8E1,2.5E1,7E0,4.1E1,7.2E1,3E0,2E0],"tree_param":{"num_deleted":"0","num_feature":"3","num_nodes":"23","size_leaf_vector":"1"}},{"base_weights":[1.9569028E-2,5.937501E-2,-6.5388784E-2,1.14446774E-1,-6.3323325E-1,-6.5605514E-2,3.0900145E-1,-4.7494417E-1,-8.0266833E-1,6.5432466E-3,-5.304293E-3,2.7962586E-2,5.14417E-3,-1.8252896E-2,4.321679E-3,-1.8318783E-2,-2.5691068E-2],"categories":[],"categories_nodes":[],"categories_segments":[],"categories_sizes":[],"default_left":[0,0,0,0,0,0,0,0,0,0,0,0,0,0,0,0,0],"id":13,"left_children":[1,-1,3,5,7,9,11,13,15,-1,-1,-1,-1,-1,-1,-1,-1],"loss_changes":[1.08176994E2,0E0,6.3692375E1,1.66245E1,3.641735E0,7.831456E0,1.9378014E1,6.697859E0,2.0928574E-1,0E0,0E0,0E0,0E0,0E0,0E0,0E0,0E0],"parents":[2147483647,0,0,2,2,3,3,4,4,5,5,6,6,7,7,8,8],"right_children":[2,-1,4,6,8,10,12,14,16,-1,-1,-1,-1,-1,-1,-1,-1],"split_conditions":[-1.5186597E0,5.937501E-2,5.11924E-1,-1.099251E0,8.764981E-1,-1.3914968E0,-4.944431E-1,5.180091E-1,-6.727578E-1,6.5432466E-3,-5.304293E-3,2.7962586E-2,5.14417E-3,-1.8252896E-2,4.321679E-3,-1.8318783E-2,-2.5691068E-2],"split_indices":[0,0,0,0,0,0,0,1,1,0,0,0,0,0,0,0,0],"split_type":[0,0,0,0,0,0,0,0,0,0,0,0,0,0,0,0,0],"sum_hessian":[6.48E2,2.6E1,6.22E2,4.73E2,1.49E2,2.46E2,2.27E2,7.9E1,7E1,6.9E1,1.77E2,4E1,1.87E2,6.5E1,1.4E1,1.8E1,5.2E1],"tree_param":{"num_deleted":"0","num_feature":"3","num_nodes":"17","size_leaf_vector":"1"}},{"base_weights":[-1.0083404E-2,1.8476723E-1,-7.0220953E-1,5.4512843E-2,1.0713697E-1,-7.821709E-1,-1.7133866E-1,5.1820938E-2,4.472496E-2,-5.889691E-1,-9.005431E-1,-4.141587E-2,-6.356556E-3,-6.80328E-3,9.275803E-3,-5.459257E-3,-1.8612118E-2,-1.8659573E-2,-2.8311865E-2,-5.306057E-4,-1.7774779E-3],"categories":[],"categories_nodes":[],"categories_segments":[],"categories_sizes":[],"default_left":[0,0,0,0,0,0,0,0,0,0,0,0,0,0,0,0,0,0,0,0,0],"id":14,"left_children":[1,3,5,-1,7,9,11,-1,13,15,17,19,-1,-1,-1,-1,-1,-1,-1,-1,-1],"loss_changes":[8.7789536E1,6.417806E1,5.9362106E0,0E0,4.906788E1,2.3054504E0,9.658301E-2,0E0,3.3745937E1,5.267906E-1,3.1524658E-1,1.4910791E-3,0E0,0E0,0E0,0E0,0E0,0E0,0E0,0E0,0E0],"parents":[2147483647,0,0,1,1,2,2,4,4,5,5,6,6,8,8,9,9,10,10,11,11],"right_children":[2,4,6,-1,8,10,12,-1,14,16,18,20,-1,-1,-1,-1,-1,-1,-1,-1,-1],"split_conditions":[6.1032194E-1,-1.5186597E0,1.1168326E0,5.4512843E-2,-1.4732922E0,8.443298E-1,7.918754E-1,5.1820938E-2,-1.0114609E0,7.30762E-1,9.318175E-1,6.969634E-1,-6.356556E-3,-6.80328E-3,9.275803E-3,-5.459257E-3,-1.8612118E-2,-1.8659573E-2,-2.8311865E-2,-5.306057E-4,-1.7774779E-3],"split_indices":[2,0,2,0,2,0,0,0,0,2,2,0,0,0,0,0,0,0,0,0,0],"split_type":[0,0,0,0,0,0,0,0,0,0,0,0,0,0,0,0,0,0,0,0,0],"sum_hessian":[6.49E2,5.07E2,1.42E2,2.2E1,4.85E2,1.23E2,1.9E1,1.7E1,4.68E2,4.9E1,7.4E1,5E0,1.4E1,2.31E2,2.37E2,4E0,4.5E1,1.2E1,6.2E1,3E0,2E0],"tree_param":{"num_deleted":"0","num_feature":"3","num_nodes":"21","size_leaf_vector":"1"}},{"base_weights":[1.2222901E-2,2.3182514E-1,-6.647297E-1,1.1670203E0,1.2927698E-1,-7.1994823E-1,-1.643909E-1,-1.4389842E-2,1.413681E0,1.0124365E0,9.13901E-2,-4.4552332E-1,-7.612841E-1,-5.3569876E-2,-5.5293553E-3,5.0882515E-2,2.6958391E-2,-5.887076E-3,3.527356E-2,4.7610796E-4,1.2449491E-2,-1.0191122E-2,-1.825898E-2,-2.1185411E-2,-2.9780377E-2,-2.2897036E-3,2.2036313E-4],"categories":[],"categories_nodes":[],"categories_segments":[],"categories_sizes":[],"default_left":[0,0,0,0,0,0,0,0,0,0,0,0,0,0,0,0,0,0,0,0,0,0,0,0,0,0,0],"id":15,"left_children":[1,3,5,7,9,11,13,-1,15,17,19,21,23,25,-1,-1,-1,-1,-1,-1,-1,-1,-1,-1,-1,-1,-1],"loss_changes":[9.589135E1,4.6553673E1,4.2468643E0,2.017434E1,1.4629943E1,1.2716217E0,2.7656674E-2,0E0,4.58506E0,3.784565E0,1.0330555E1,1.5570736E-1,8.5458374E-1,6.104796E-3,0E0,0E0,0E0,0E0,0E0,0E0,0E0,0E0,0E0,0E0,0E0,0E0,0E0],"parents":[2147483647,0,0,1,1,2,2,3,3,4,4,5,5,6,6,8,8,9,9,10,10,11,11,12,12,13,13],"right_children":[2,4,6,8,10,12,14,-1,16,18,20,22,24,26,-1,-1,-1,-1,-1,-1,-1,-1,-1,-1,-1,-1,-1],"split_conditions":[5.560901E-1,-1.399633E0,1.1168326E0,-6.5520227E-1,-1.7722857E0,7.9811317E-1,-1.5612204E0,-1.4389842E-2,-1.445115E0,-1.3186036E0,1.2167422E-1,1.0573311E0,6.750716E-1,-1.9405661E0,-5.5293553E-3,5.0882515E-2,2.6958391E-2,-5.887076E-3,3.527356E-2,4.7610796E-4,1.2449491E-2,-1.0191122E-2,-1.825898E-2,-2.1185411E-2,-2.9780377E-2,-2.2897036E-3,2.2036313E-4],"split_indices":[2,2,2,1,1,2,1,0,2,2,2,1,1,1,0,0,0,0,0,0,0,0,0,0,0,0,0],"split_type":[0,0,0,0,0,0,0,0,0,0,0,0,0,0,0,0,0,0,0,0,0,0,0,0,0,0,0],"sum_hessian":[6.43E2,4.86E2,1.57E2,4.7E1,4.39E2,1.41E2,1.6E1,6E0,4.1E1,1.7E1,4.22E2,2E1,1.21E2,3E0,1.3E1,2.5E1,1.6E1,2E0,1.5E1,3.43E2,7.9E1,1.4E1,6E0,1.01E2,2E1,2E0,1E0],"tree_param":{"num_deleted":"0","num_feature":"3","num_nodes":"27","size_leaf_vector":"1"}},{"base_weights":[3.9843597E-2,5.393956E-2,-3.791364E-2,1.4950185E-1,-5.249709E-1,-1.949058E-2,3.4855938E-1,-3.5807833E-1,-7.26679E-1,7.289438E-3,-5.0293067E-3,2.74998E-2,6.865287E-3,-1.4931025E-2,-1.6131151E-3,-1.4136061E-2,-2.3608586E-2],"categories":[],"categories_nodes":[],"categories_segments":[],"categories_sizes":[],"default_left":[0,0,0,0,0,0,0,0,0,0,0,0,0,0,0,0,0],"id":16,"left_children":[1,-1,3,5,7,9,11,13,15,-1,-1,-1,-1,-1,-1,-1,-1],"loss_changes":[8.715132E1,0E0,5.585183E1,1.4875325E1,5.4626007E0,9.37337E0,1.3596458E1,4.0096207E0,7.994766E-1,0E0,0E0,0E0,0E0,0E0,0E0,0E0,0E0],"parents":[2147483647,0,0,2,2,3,3,4,4,5,5,6,6,7,7,8,8],"right_children":[2,-1,4,6,8,10,12,14,16,-1,-1,-1,-1,-1,-1,-1,-1],"split_conditions":[-1.5186597E0,5.393956E-2,3.055782E-1,-1.099251E0,8.764981E-1,-1.3749707E0,-5.381865E-1,9.07417E-2,-6.727578E-1,7.289438E-3,-5.0293067E-3,2.74998E-2,6.865287E-3,-1.4931025E-2,-1.6131151E-3,-1.4136061E-2,-2.3608586E-2],"split_indices":[0,0,0,0,0,0,0,1,1,0,0,0,0,0,0,0,0],"split_type":[0,0,0,0,0,0,0,0,0,0,0,0,0,0,0,0,0],"sum_hessian":[6.36E2,2.6E1,6.1E2,4.41E2,1.69E2,2.39E2,2.02E2,9.4E1,7.5E1,8.6E1,1.53E2,3.4E1,1.68E2,6.4E1,3E1,1.6E1,5.9E1],"tree_param":{"num_deleted":"0","num_feature":"3","num_nodes":"17","size_leaf_vector":"1"}},{"base_weights":[-8.882764E-3,5.2748002E-2,-8.2147524E-2,1.0372729E-1,-6.537223E-1,1.5414133E0,3.699792E-2,-7.0999074E-1,-1.5850092E-1,-1.1837322E-2,4.973825E-2,-6.8831267E-3,8.855983E-3,-1.744215E-2,-2.4307521E-2,-6.990488E-4,-5.574234E-3],"categories":[],"categories_nodes":[],"categories_segments":[],"categories_sizes":[],"default_left":[0,0,0,0,0,0,0,0,0,0,0,0,0,0,0,0,0],"id":17,"left_children":[1,-1,3,5,7,9,11,13,15,-1,-1,-1,-1,-1,-1,-1,-1],"loss_changes":[8.455875E1,0E0,6.668114E1,4.5416576E1,4.178726E0,5.3917427E0,3.1300224E1,1.3080139E0,5.843219E-2,0E0,0E0,0E0,0E0,0E0,0E0,0E0,0E0],"parents":[2147483647,0,0,2,2,3,3,4,4,5,5,6,6,7,7,8,8],"right_children":[2,-1,4,6,8,10,12,14,16,-1,-1,-1,-1,-1,-1,-1,-1],"split_conditions":[-1.5186597E0,5.2748002E-2,6.1032194E-1,-1.4594599E0,1.1168326E0,-1.4623423E0,-1.099251E0,8.7485945E-1,7.135078E-1,-1.1837322E-2,4.973825E-2,-6.8831267E-3,8.855983E-3,-1.744215E-2,-2.4307521E-2,-6.990488E-4,-5.574234E-3],"split_indices":[0,0,2,2,2,0,0,0,0,0,0,0,0,0,0,0,0],"split_type":[0,0,0,0,0,0,0,0,0,0,0,0,0,0,0,0,0],"sum_hessian":[6.51E2,2.5E1,6.26E2,4.73E2,1.53E2,2E1,4.53E2,1.37E2,1.6E1,1E0,1.9E1,2.23E2,2.3E2,6.3E1,7.4E1,3E0,1.3E1],"tree_param":{"num_deleted":"0","num_feature":"3","num_nodes":"17","size_leaf_vector":"1"}},{"base_weights":[7.749249E-3,4.9629718E-2,-5.7396505E-2,1.2774545E-1,-5.088712E-1,-8.084423E-3,2.8945556E-1,-3.8081795E-1,-6.7801E-1,8.876199E-3,-3.8679233E-3,2.7463794E-2,5.3072805E-3,-1.5512414E-2,-2.5719812E-3,-1.3687033E-2,-2.1460382E-2],"categories":[],"categories_nodes":[],"categories_segments":[],"categories_sizes":[],"default_left":[0,0,0,0,0,0,0,0,0,0,0,0,0,0,0,0,0],"id":18,"left_children":[1,-1,3,5,7,9,11,13,15,-1,-1,-1,-1,-1,-1,-1,-1],"loss_changes":[7.0462326E1,0E0,5.2891933E1,9.864655E0,3.7270203E0,9.037532E0,1.42811985E1,4.2580385E0,3.1949234E-1,0E0,0E0,0E0,0E0,0E0,0E0,0E0,0E0],"parents":[2147483647,0,0,2,2,3,3,4,4,5,5,6,6,7,7,8,8],"right_children":[2,-1,4,6,8,10,12,14,16,-1,-1,-1,-1,-1,-1,-1,-1],"split_conditions":[-1.4989556E0,4.9629718E-2,3.055782E-1,-1.099251E0,8.764981E-1,-1.38996E0,-7.566038E-1,7.1556345E-2,-8.4355986E-1,8.876199E-3,-3.8679233E-3,2.7463794E-2,5.3072805E-3,-1.5512414E-2,-2.5719812E-3,-1.3687033E-2,-2.1460382E-2],"split_indices":[0,0,0,0,0,0,0,1,1,0,0,0,0,0,0,0,0],"split_type":[0,0,0,0,0,0,0,0,0,0,0,0,0,0,0,0,0],"sum_hessian":[6.55E2,2.4E1,6.31E2,4.48E2,1.83E2,2.44E2,2.04E2,1.06E2,7.7E1,6.9E1,1.75E2,3E1,1.74E2,7.2E1,3.4E1,1.3E1,6.4E1],"tree_param":{"num_deleted":"0","num_feature":"3","num_nodes":"17","size_leaf_vector":"1"}},{"base_weights":[-2.9851092E-2,1.4757453E-1,-5.9742045E-1,1.4281358E0,8.22869E-2,-6.5588677E-1,-1.15988865E-1,-1.3264128E-2,4.8547734E-2,-6.241988E-3,4.539823E-1,-4.5329064E-1,-7.033359E-1,-1.2371573E-2,-4.341304E-3,4.9626296E-3,-7.0214327E-3,3.3310305E-2,1.0495599E-2,-1.1426534E-2,-1.8793223E-2,-1.4822686E-3,-2.1449642E-2,-1.5723082E-3,9.5372956E-4],"categories":[],"categories_nodes":[],"categories_segments":[],"categories_sizes":[],"default_left":[0,0,0,0,0,0,0,0,0,0,0,0,0,0,0,0,0,0,0,0,0,0,0,0,0],"id":19,"left_children":[1,3,5,7,9,11,13,-1,-1,15,17,19,21,23,-1,-1,-1,-1,-1,-1,-1,-1,-1,-1,-1],"loss_changes":[6.554404E1,4.1350464E1,4.2867928E0,9.249413E0,1.5567268E1,1.0077744E0,5.177805E-2,0E0,0E0,1.5016247E1,5.831047E0,1.2497568E-1,8.02845E-1,1.05072325E-2,0E0,0E0,0E0,0E0,0E0,0E0,0E0,0E0,0E0,0E0,0E0],"parents":[2147483647,0,0,1,1,2,2,3,3,4,4,5,5,6,6,9,9,10,10,11,11,12,12,13,13],"right_children":[2,4,6,8,10,12,14,-1,-1,16,18,20,22,24,-1,-1,-1,-1,-1,-1,-1,-1,-1,-1,-1],"split_conditions":[5.560901E-1,-1.4594599E0,1.1168326E0,-8.8668215E-1,1.2112585E-1,8.6366236E-1,-1.548263E0,-1.3264128E-2,4.8547734E-2,2.844918E-1,-1.1999468E0,1.2622385E0,-1.9767128E0,-1.9405661E0,-4.341304E-3,4.9626296E-3,-7.0214327E-3,3.3310305E-2,1.0495599E-2,-1.1426534E-2,-1.8793223E-2,-1.4822686E-3,-2.1449642E-2,-1.5723082E-3,9.5372956E-4],"split_indices":[2,2,2,1,2,2,1,0,0,1,1,1,1,1,0,0,0,0,0,0,0,0,0,0,0],"split_type":[0,0,0,0,0,0,0,0,0,0,0,0,0,0,0,0,0,0,0,0,0,0,0,0,0],"sum_hessian":[6.49E2,4.95E2,1.54E2,2.3E1,4.72E2,1.37E2,1.7E1,2E0,2.1E1,3.82E2,9E1,2.8E1,1.09E2,4E0,1.3E1,2.18E2,1.64E2,1.1E1,7.9E1,2.2E1,6E0,2E0,1.07E2,2E0,2E0],"tree_param":{"num_deleted":"0","num_feature":"3","num_nodes":"25","size_leaf_vector":"1"}},{"base_weights":[2.523308E-2,2.282402E-1,-5.864836E-1,1.4233882E0,1.6250452E-1,-6.3181233E-1,-1.0618478E-1,-1.2176604E-2,4.8003085E-2,8.075992E-2,4.8246175E-1,-4.492432E-1,-6.7712015E-1,-9.574827E-3,-1.2953937E-1,5.0717094E-3,-1.202607E-2,1.904584E-2,4.237821E-3,-1.143342E-2,-1.8179746E-2,-8.1418E-3,-2.0792853E-2,-8.710554E-4,7.320935E-4,-4.563404E-3,-2.025388E-3],"categories":[],"categories_nodes":[],"categories_segments":[],"categories_sizes":[],"default_left":[0,0,0,0,0,0,0,0,0,0,0,0,0,0,0,0,0,0,0,0,0,0,0,0,0,0,0],"id":20,"left_children":[1,3,5,7,9,11,13,-1,-1,15,17,19,21,23,25,-1,-1,-1,-1,-1,-1,-1,-1,-1,-1,-1,-1],"loss_changes":[7.973506E1,3.7636475E1,3.4163246E0,8.730953E0,1.1939926E1,9.03492E-1,3.2603964E-2,0E0,0E0,1.5632441E1,4.746216E0,1.1078024E-1,5.572624E-1,3.3534402E-3,6.532669E-3,0E0,0E0,0E0,0E0,0E0,0E0,0E0,0E0,0E0,0E0,0E0,0E0],"parents":[2147483647,0,0,1,1,2,2,3,3,4,4,5,5,6,6,9,9,10,10,11,11,12,12,13,13,14,14],"right_children":[2,4,6,8,10,12,14,-1,-1,16,18,20,22,24,26,-1,-1,-1,-1,-1,-1,-1,-1,-1,-1,-1,-1],"split_conditions":[5.560901E-1,-1.4594599E0,1.1168326E0,-8.8668215E-1,1.2167422E-1,8.6366236E-1,-1.548263E0,-1.2176604E-2,4.8003085E-2,-2.9880747E-1,1.5508239E-1,1.2622385E0,-1.9405661E0,-1.9767128E0,-1.0137796E0,5.0717094E-3,-1.202607E-2,1.904584E-2,4.237821E-3,-1.143342E-2,-1.8179746E-2,-8.1418E-3,-2.0792853E-2,-8.710554E-4,7.320935E-4,-4.563404E-3,-2.025388E-3],"split_indices":[2,2,2,1,2,2,1,0,0,2,2,1,1,1,1,0,0,0,0,0,0,0,0,0,0,0,0],"split_type":[0,0,0,0,0,0,0,0,0,0,0,0,0,0,0,0,0,0,0,0,0,0,0,0,0,0,0],"sum_hessian":[6.4E2,4.81E2,1.59E2,2.4E1,4.57E2,1.45E2,1.4E1,2E0,2.2E1,3.65E2,9.2E1,3.1E1,1.14E2,3E0,1.1E1,3.09E2,5.6E1,6.3E1,2.9E1,2.4E1,7E0,5E0,1.09E2,2E0,1E0,7E0,4E0],"tree_param":{"num_deleted":"0","num_feature":"3","num_nodes":"27","size_leaf_vector":"1"}},{"base_weights":[-1.8646203E-2,1.7241843E0,-8.575919E-2,5.7070404E-2,3.4570083E-2,6.4070955E-2,-5.248282E-1,-1.4832948E-1,2.0177725E-1,-3.9918354E-1,-6.389118E-1,8.0389413E-4,-1.8476708E-2,1.193834E-2,1.8959676E-3,-1.3949949E-2,2.2533727E-3,-1.2973619E-2,-2.0556483E-2],"categories":[],"categories_nodes":[],"categories_segments":[],"categories_sizes":[],"default_left":[0,0,0,0,0,0,0,0,0,0,0,0,0,0,0,0,0,0,0],"id":21,"left_children":[1,3,5,-1,-1,7,9,11,13,15,17,-1,-1,-1,-1,-1,-1,-1,-1],"loss_changes":[7.255016E1,1.511383E-1,3.930773E1,0E0,0E0,1.3074928E1,1.9237213E0,1.4427742E1,7.3418665E0,2.3761034E0,4.4934464E-1,0E0,0E0,0E0,0E0,0E0,0E0,0E0,0E0],"parents":[2147483647,0,0,1,1,2,2,5,5,6,6,7,7,8,8,9,9,10,10],"right_children":[2,4,6,-1,-1,8,10,12,14,16,18,-1,-1,-1,-1,-1,-1,-1,-1],"split_conditions":[-1.5186597E0,-1.6180148E0,5.11924E-1,5.7070404E-2,3.4570083E-2,-1.251541E0,8.764981E-1,-1.3151511E0,-3.406035E-1,5.180091E-1,-6.727578E-1,8.0389413E-4,-1.8476708E-2,1.193834E-2,1.8959676E-3,-1.3949949E-2,2.2533727E-3,-1.2973619E-2,-2.0556483E-2],"split_indices":[0,0,0,0,0,0,0,0,0,1,1,0,0,0,0,0,0,0,0],"split_type":[0,0,0,0,0,0,0,0,0,0,0,0,0,0,0,0,0,0,0],"sum_hessian":[6.18E2,2.2E1,5.96E2,1.5E1,7E0,4.45E2,1.51E2,1.75E2,2.7E2,7.4E1,7.7E1,1.28E2,4.7E1,1.11E2,1.59E2,6.5E1,9E0,1.6E1,6.1E1],"tree_param":{"num_deleted":"0","num_feature":"3","num_nodes":"19","size_leaf_vector":"1"}},{"base_weights":[-2.5562204E-2,1.3644432E-1,-5.611814E-1,4.5391615E-2,7.074501E-2,-6.101413E-1,-1.0382854E-1,1.3251001E0,8.145636E-3,-5.1814026E-1,-6.8966144E-1,6.4118803E-3,-4.23329E-3,-9.489403E-3,4.4894632E-2,-8.5649295E-3,5.645736E-3,-2.8077099E-3,-1.6296366E-2,-1.4001984E-2,-2.2086827E-2,6.183551E-4,-7.558192E-4],"categories":[],"categories_nodes":[],"categories_segments":[],"categories_sizes":[],"default_left":[0,0,0,0,0,0,0,0,0,0,0,0,0,0,0,0,0,0,0,0,0,0,0],"id":22,"left_children":[1,3,5,-1,7,9,11,13,15,17,19,21,-1,-1,-1,-1,-1,-1,-1,-1,-1,-1,-1],"loss_changes":[5.7173737E1,4.565677E1,3.3626175E0,0E0,3.799378E1,6.52256E-1,6.666298E-2,6.943676E0,2.4479286E1,6.7297554E-1,3.9342117E-1,2.763303E-3,0E0,0E0,0E0,0E0,0E0,0E0,0E0,0E0,0E0,0E0,0E0],"parents":[2147483647,0,0,1,1,2,2,4,4,5,5,6,6,7,7,8,8,9,9,10,10,11,11],"right_children":[2,4,6,-1,8,10,12,14,16,18,20,22,-1,-1,-1,-1,-1,-1,-1,-1,-1,-1,-1],"split_conditions":[6.1032194E-1,-1.5186597E0,1.1168326E0,4.5391615E-2,-1.4594599E0,8.7485945E-1,7.918754E-1,-1.4623423E0,-1.251541E0,7.30762E-1,9.2143524E-1,7.135078E-1,-4.23329E-3,-9.489403E-3,4.4894632E-2,-8.5649295E-3,5.645736E-3,-2.8077099E-3,-1.6296366E-2,-1.4001984E-2,-2.2086827E-2,6.183551E-4,-7.558192E-4],"split_indices":[2,0,2,0,2,0,0,0,0,2,2,0,0,0,0,0,0,0,0,0,0,0,0],"split_type":[0,0,0,0,0,0,0,0,0,0,0,0,0,0,0,0,0,0,0,0,0,0,0],"sum_hessian":[6.57E2,5.05E2,1.52E2,2.2E1,4.83E2,1.37E2,1.5E1,2.2E1,4.61E2,6.7E1,7E1,4E0,1.1E1,2E0,2E1,1.75E2,2.86E2,4E0,6.3E1,1.4E1,5.6E1,3E0,1E0],"tree_param":{"num_deleted":"0","num_feature":"3","num_nodes":"23","size_leaf_vector":"1"}},{"base_weights":[-1.5473621E-2,1.4193946E-1,-5.3835607E-1,9.533857E-1,6.242315E-2,-5.88604E-1,-1.0470502E-1,-1.6116666E-2,1.1964849E0,-1.992159E-2,4.1167894E-1,-2.3940323E-1,-6.0010475E-1,-5.7971567E-2,-4.194137E-3,4.534233E-2,2.3563076E-2,4.4654543E-3,-8.4465565E-3,1.7766766E-2,3.2253028E-3,-1.0183934E-2,3.913545E-3,-1.3081617E-2,-1.8930119E-2,-2.314446E-3,1.829332E-4],"categories":[],"categories_nodes":[],"categories_segments":[],"categories_sizes":[],"default_left":[0,0,0,0,0,0,0,0,0,0,0,0,0,0,0,0,0,0,0,0,0,0,0,0,0,0,0],"id":23,"left_children":[1,3,5,7,9,11,13,-1,15,17,19,21,23,25,-1,-1,-1,-1,-1,-1,-1,-1,-1,-1,-1,-1,-1],"loss_changes":[5.407082E1,3.252471E1,3.2504616E0,1.694923E1,1.3266275E1,4.0251923E-1,1.97808E-2,0E0,3.861435E0,1.6556013E1,4.7689943E0,2.6633242E-1,3.888893E-1,1.1528147E-2,0E0,0E0,0E0,0E0,0E0,0E0,0E0,0E0,0E0,0E0,0E0,0E0,0E0],"parents":[2147483647,0,0,1,1,2,2,3,3,4,4,5,5,6,6,8,8,9,9,10,10,11,11,12,12,13,13],"right_children":[2,4,6,8,10,12,14,-1,16,18,20,22,24,26,-1,-1,-1,-1,-1,-1,-1,-1,-1,-1,-1,-1,-1],"split_conditions":[5.560901E-1,-1.3945506E0,1.1168326E0,-5.372539E-1,1.2167422E-1,-1.9405661E0,1.1379256E0,-1.6116666E-2,-1.445115E0,2.9123244E-1,1.5508239E-1,1.0920936E0,8.475828E-1,-1.0137796E0,-4.194137E-3,4.534233E-2,2.3563076E-2,4.4654543E-3,-8.4465565E-3,1.7766766E-2,3.2253028E-3,-1.0183934E-2,3.913545E-3,-1.3081617E-2,-1.8930119E-2,-2.314446E-3,1.829332E-4],"split_indices":[2,2,2,1,2,1,2,0,2,1,2,2,2,1,0,0,0,0,0,0,0,0,0,0,0,0,0],"split_type":[0,0,0,0,0,0,0,0,0,0,0,0,0,0,0,0,0,0,0,0,0,0,0,0,0,0,0],"sum_hessian":[6.55E2,5.04E2,1.51E2,4.4E1,4.6E2,1.35E2,1.6E1,6E0,3.8E1,3.73E2,8.7E1,5E0,1.3E2,8E0,8E0,2E1,1.8E1,2.27E2,1.46E2,5.4E1,3.3E1,4E0,1E0,2.3E1,1.07E2,6E0,2E0],"tree_param":{"num_deleted":"0","num_feature":"3","num_nodes":"27","size_leaf_vector":"1"}},{"base_weights":[9.993544E-3,1.7092179E-1,-5.1526546E-1,8.740181E-1,9.3124665E-2,-5.532396E-1,-7.836202E-2,-1.5243507E-2,1.163148E0,-9.6561824E-4,4.5486024E-1,-3.1229872E-1,-5.783287E-1,-6.9712973E-3,-1.221098E-1,2.8931761E-2,5.2217916E-2,5.7579833E-3,-8.524501E-3,1.7617634E-2,3.7257087E-3,-3.1019796E-3,-1.4464822E-2,-1.6166849E-2,-2.257487E-2,-1.2384087E-3,1.2329338E-3,-4.446618E-3,-8.755478E-4],"categories":[],"categories_nodes":[],"categories_segments":[],"categories_sizes":[],"default_left":[0,0,0,0,0,0,0,0,0,0,0,0,0,0,0,0,0,0,0,0,0,0,0,0,0,0,0,0,0],"id":24,"left_children":[1,3,5,7,9,11,13,-1,15,17,19,21,23,25,27,-1,-1,-1,-1,-1,-1,-1,-1,-1,-1,-1,-1,-1,-1],"loss_changes":[5.334134E1,2.6338161E1,2.412117E0,1.9772614E1,1.484005E1,6.4151E-1,3.975015E-2,0E0,2.912243E0,1.9009697E1,3.867159E0,4.8240614E-1,4.323845E-1,1.1591742E-2,1.5084945E-2,0E0,0E0,0E0,0E0,0E0,0E0,0E0,0E0,0E0,0E0,0E0,0E0,0E0,0E0],"parents":[2147483647,0,0,1,1,2,2,3,3,4,4,5,5,6,6,8,8,9,9,10,10,11,11,12,12,13,13,14,14],"right_children":[2,4,6,8,10,12,14,-1,16,18,20,22,24,26,28,-1,-1,-1,-1,-1,-1,-1,-1,-1,-1,-1,-1,-1,-1],"split_conditions":[5.560901E-1,-1.3945506E0,1.1168326E0,-5.372539E-1,1.2167422E-1,7.477764E-1,-1.548263E0,-1.5243507E-2,1.0844795E0,2.9123244E-1,1.7279483E-1,1.0573311E0,5.8837336E-1,-1.9405661E0,-1.0137796E0,2.8931761E-2,5.2217916E-2,5.7579833E-3,-8.524501E-3,1.7617634E-2,3.7257087E-3,-3.1019796E-3,-1.4464822E-2,-1.6166849E-2,-2.257487E-2,-1.2384087E-3,1.2329338E-3,-4.446618E-3,-8.755478E-4],"split_indices":[2,2,2,1,2,2,1,0,1,1,2,1,1,1,1,0,0,0,0,0,0,0,0,0,0,0,0,0,0],"split_type":[0,0,0,0,0,0,0,0,0,0,0,0,0,0,0,0,0,0,0,0,0,0,0,0,0,0,0,0,0],"sum_hessian":[6.29E2,4.82E2,1.47E2,4.7E1,4.35E2,1.35E2,1.2E1,8E0,3.9E1,3.46E2,8.9E1,1.4E1,1.21E2,5E0,7E0,3.1E1,8E0,2.06E2,1.4E2,6.3E1,2.6E1,7E0,7E0,1.02E2,1.9E1,3E0,2E0,5E0,2E0],"tree_param":{"num_deleted":"0","num_feature":"3","num_nodes":"29","size_leaf_vector":"1"}},{"base_weights":[5.011266E-3,1.711998E-1,-5.071736E-1,1.33699E0,1.1874704E-1,-5.519552E-1,-1.00647025E-1,-5.8876285E-3,4.270395E-2,4.1755292E-1,4.7851298E-2,-3.9178E-1,-5.9101254E-1,1.412144E-2,-4.1114E-3,2.5871836E-3,2.1565039E-2,-2.72329E-3,5.4583442E-3,-4.145792E-3,-1.2420436E-2,-1.4512459E-2,-2.0429615E-2,-5.022034E-4,1.2082753E-3],"categories":[],"categories_nodes":[],"categories_segments":[],"categories_sizes":[],"default_left":[0,0,0,0,0,0,0,0,0,0,0,0,0,0,0,0,0,0,0,0,0,0,0,0,0],"id":25,"left_children":[1,3,5,7,9,11,13,-1,-1,15,17,19,21,23,-1,-1,-1,-1,-1,-1,-1,-1,-1,-1,-1],"loss_changes":[5.52441E1,2.98042E1,2.8390312E0,3.0636902E0,9.936531E0,6.6306686E-1,7.295333E-2,0E0,0E0,8.921688E0,7.0989513E0,1.175766E-1,7.611351E-1,4.7100503E-3,0E0,0E0,0E0,0E0,0E0,0E0,0E0,0E0,0E0,0E0,0E0],"parents":[2147483647,0,0,1,1,2,2,3,3,4,4,5,5,6,6,9,9,10,10,11,11,12,12,13,13],"right_children":[2,4,6,8,10,12,14,-1,-1,16,18,20,22,24,-1,-1,-1,-1,-1,-1,-1,-1,-1,-1,-1],"split_conditions":[5.560901E-1,-1.4642626E0,1.1168326E0,-1.1315213E0,-8.8668215E-1,8.6366236E-1,-1.548263E0,-5.8876285E-3,4.270395E-2,-1.2764335E0,-1.1645434E0,6.1032194E-1,-4.8425767E-1,-1.9767128E0,-4.1114E-3,2.5871836E-3,2.1565039E-2,-2.72329E-3,5.4583442E-3,-4.145792E-3,-1.2420436E-2,-1.4512459E-2,-2.0429615E-2,-5.022034E-4,1.2082753E-3],"split_indices":[2,2,2,1,1,2,1,0,0,2,2,2,1,1,0,0,0,0,0,0,0,0,0,0,0],"split_type":[0,0,0,0,0,0,0,0,0,0,0,0,0,0,0,0,0,0,0,0,0,0,0,0,0],"sum_hessian":[6.47E2,4.89E2,1.58E2,2E1,4.69E2,1.42E2,1.6E1,1E0,1.9E1,8.9E1,3.8E2,3E1,1.12E2,4E0,1.2E1,4.3E1,4.6E1,1.87E2,1.93E2,3E0,2.7E1,5.4E1,5.8E1,2E0,2E0],"tree_param":{"num_deleted":"0","num_feature":"3","num_nodes":"25","size_leaf_vector":"1"}},{"base_weights":[1.2925459E-2,1.7475812E-1,-4.9997884E-1,9.3391895E-1,8.596369E-2,-5.5136335E-1,-8.1108965E-2,-1.4918204E-2,1.1729103E0,-1.0721758E-1,2.3999804E-1,-3.710148E-1,-5.902647E-1,-7.1998066E-3,-1.08981736E-1,3.0711986E-2,5.1487267E-2,2.586954E-3,-1.2740962E-2,1.8407378E-2,4.0687225E-3,-8.739769E-3,-1.5715824E-2,-6.231002E-3,-1.8190524E-2,-1.2120737E-3,1.1841098E-3,-4.034265E-3,-1.2388984E-3],"categories":[],"categories_nodes":[],"categories_segments":[],"categories_sizes":[],"default_left":[0,0,0,0,0,0,0,0,0,0,0,0,0,0,0,0,0,0,0,0,0,0,0,0,0,0,0,0,0],"id":26,"left_children":[1,3,5,7,9,11,13,-1,15,17,19,21,23,25,27,-1,-1,-1,-1,-1,-1,-1,-1,-1,-1,-1,-1,-1,-1],"loss_changes":[5.329337E1,3.2815437E1,3.269886E0,1.802744E1,1.3059101E1,7.4217224E-1,3.6296315E-2,0E0,1.8093529E0,1.2012846E1,9.430867E0,1.762507E-1,5.571518E-1,1.0892131E-2,1.6878754E-2,0E0,0E0,0E0,0E0,0E0,0E0,0E0,0E0,0E0,0E0,0E0,0E0,0E0,0E0],"parents":[2147483647,0,0,1,1,2,2,3,3,4,4,5,5,6,6,8,8,9,9,10,10,11,11,12,12,13,13,14,14],"right_children":[2,4,6,8,10,12,14,-1,16,18,20,22,24,26,28,-1,-1,-1,-1,-1,-1,-1,-1,-1,-1,-1,-1,-1,-1],"split_conditions":[5.560901E-1,-1.3945506E0,1.1168326E0,-5.372539E-1,-1.1983162E0,8.475828E-1,-1.548263E0,-1.4918204E-2,1.0844795E0,3.0962366E-1,-8.299666E-1,1.2622385E0,-1.9405661E0,-1.9405661E0,-1.0137796E0,3.0711986E-2,5.1487267E-2,2.586954E-3,-1.2740962E-2,1.8407378E-2,4.0687225E-3,-8.739769E-3,-1.5715824E-2,-6.231002E-3,-1.8190524E-2,-1.2120737E-3,1.1841098E-3,-4.034265E-3,-1.2388984E-3],"split_indices":[2,2,2,1,2,2,1,0,1,1,2,1,1,1,1,0,0,0,0,0,0,0,0,0,0,0,0,0,0],"split_type":[0,0,0,0,0,0,0,0,0,0,0,0,0,0,0,0,0,0,0,0,0,0,0,0,0,0,0,0,0],"sum_hessian":[6.4E2,4.87E2,1.53E2,5E1,4.37E2,1.36E2,1.7E1,7E0,4.3E1,1.94E2,2.43E2,2.6E1,1.1E2,5E0,1.2E1,3.6E1,7E0,1.21E2,7.3E1,5.2E1,1.91E2,1.9E1,7E0,5E0,1.05E2,3E0,2E0,8E0,4E0],"tree_param":{"num_deleted":"0","num_feature":"3","num_nodes":"29","size_leaf_vector":"1"}},{"base_weights":[4.677446E-3,1.5251701E0,-6.616859E-2,4.795334E-2,2.0577325E-2,7.361979E-2,-4.0144482E-1,-1.0034895E-1,2.832628E-1,-2.8065968E-1,-5.5115086E-1,-4.3496075E-3,2.2014469E-2,2.6224421E-2,4.2661647E-3,-1.1213223E-2,-1.8404329E-3,-1.0430776E-2,-1.7179497E-2],"categories":[],"categories_nodes":[],"categories_segments":[],"categories_sizes":[],"default_left":[0,0,0,0,0,0,0,0,0,0,0,0,0,0,0,0,0,0,0],"id":27,"left_children":[1,3,5,-1,-1,7,9,11,13,15,17,-1,-1,-1,-1,-1,-1,-1,-1],"loss_changes":[6.774963E1,6.2551117E-1,2.8197056E1,0E0,0E0,1.552874E1,3.0458755E0,8.782244E0,1.59619665E1,2.0191803E0,1.420784E-1,0E0,0E0,0E0,0E0,0E0,0E0,0E0,0E0],"parents":[2147483647,0,0,1,1,2,2,5,5,6,6,7,7,8,8,9,9,10,10],"right_children":[2,4,6,-1,-1,8,10,12,14,16,18,-1,-1,-1,-1,-1,-1,-1,-1],"split_conditions":[-1.4989556E0,2.704333E-1,3.055782E-1,4.795334E-2,2.0577325E-2,-1.0114609E0,8.764981E-1,1.3342807E0,-4.944431E-1,4.6199698E-2,-1.0137796E0,-4.3496075E-3,2.2014469E-2,2.6224421E-2,4.2661647E-3,-1.1213223E-2,-1.8404329E-3,-1.0430776E-2,-1.7179497E-2],"split_indices":[0,1,0,0,0,0,0,1,0,1,1,0,0,0,0,0,0,0,0],"split_type":[0,0,0,0,0,0,0,0,0,0,0,0,0,0,0,0,0,0,0],"sum_hessian":[6.27E2,2.7E1,6E2,2.4E1,3E0,4.24E2,1.76E2,2.32E2,1.92E2,9.9E1,7.7E1,2.21E2,1.1E1,3.6E1,1.56E2,6.9E1,3E1,9E0,6.8E1],"tree_param":{"num_deleted":"0","num_feature":"3","num_nodes":"19","size_leaf_vector":"1"}},{"base_weights":[1.44882575E-2,1.4949727E0,-5.283001E-2,4.9905673E-2,3.0756922E-2,8.580735E-2,-3.9991096E-1,-4.931164E-2,2.5651804E-1,-2.9398334E-1,-5.262527E-1,6.714099E-3,-4.9554175E-3,2.6068615E-2,4.3287477E-3,-1.2080197E-2,-3.353131E-3,-1.0684287E-2,-1.7225552E-2],"categories":[],"categories_nodes":[],"categories_segments":[],"categories_sizes":[],"default_left":[0,0,0,0,0,0,0,0,0,0,0,0,0,0,0,0,0,0,0],"id":28,"left_children":[1,3,5,-1,-1,7,9,11,13,15,17,-1,-1,-1,-1,-1,-1,-1,-1],"loss_changes":[6.4162704E1,5.1140594E-1,2.9675243E1,0E0,0E0,1.0184869E1,2.2007122E0,7.8534164E0,1.327726E1,1.8958483E0,4.396553E-1,0E0,0E0,0E0,0E0,0E0,0E0,0E0,0E0],"parents":[2147483647,0,0,1,1,2,2,5,5,6,6,7,7,8,8,9,9,10,10],"right_children":[2,4,6,-1,-1,8,10,12,14,16,18,-1,-1,-1,-1,-1,-1,-1,-1],"split_conditions":[-1.5186597E0,-1.6180148E0,2.3997892E-1,4.9905673E-2,3.0756922E-2,-1.0114609E0,8.764981E-1,-1.3914968E0,-7.566038E-1,4.6199698E-2,-6.727578E-1,6.714099E-3,-4.9554175E-3,2.6068615E-2,4.3287477E-3,-1.2080197E-2,-3.353131E-3,-1.0684287E-2,-1.7225552E-2],"split_indices":[0,0,0,0,0,0,0,0,0,1,1,0,0,0,0,0,0,0,0],"split_type":[0,0,0,0,0,0,0,0,0,0,0,0,0,0,0,0,0,0,0],"sum_hessian":[6.42E2,2.7E1,6.15E2,1.8E1,9E0,4.4E2,1.75E2,2.46E2,1.94E2,9.7E1,7.8E1,7.3E1,1.73E2,2.9E1,1.65E2,6E1,3.7E1,1.9E1,5.9E1],"tree_param":{"num_deleted":"0","num_feature":"3","num_nodes":"19","size_leaf_vector":"1"}},{"base_weights":[9.888308E-4,4.3210905E-2,-6.066641E-2,8.220733E-2,-3.9214548E-1,-9.16713E-2,2.710252E-1,-2.948614E-1,-5.314577E-1,-1.3034627E-3,-2.1294631E-2,2.3001898E-2,4.587954E-3,-1.1502278E-2,-3.509901E-3,-1.0704951E-2,-1.7558856E-2],"categories":[],"categories_nodes":[],"categories_segments":[],"categories_sizes":[],"default_left":[0,0,0,0,0,0,0,0,0,0,0,0,0,0,0,0,0],"id":29,"left_children":[1,-1,3,5,7,9,11,13,15,-1,-1,-1,-1,-1,-1,-1,-1],"loss_changes":[5.6174217E1,0E0,2.8779549E1,1.3978189E1,2.3234653E0,6.5867033E0,1.1824793E1,1.6875925E0,4.8685265E-1,0E0,0E0,0E0,0E0,0E0,0E0,0E0,0E0],"parents":[2147483647,0,0,2,2,3,3,4,4,5,5,6,6,7,7,8,8],"right_children":[2,-1,4,6,8,10,12,14,16,-1,-1,-1,-1,-1,-1,-1,-1],"split_conditions":[-1.5186597E0,4.3210905E-2,2.3997892E-1,-1.099251E0,8.764981E-1,-1.1901015E0,-4.944431E-1,8.622683E-3,-6.727578E-1,-1.3034627E-3,-2.1294631E-2,2.3001898E-2,4.587954E-3,-1.1502278E-2,-3.509901E-3,-1.0704951E-2,-1.7558856E-2],"split_indices":[0,0,0,0,0,0,0,1,1,0,0,0,0,0,0,0,0],"split_type":[0,0,0,0,0,0,0,0,0,0,0,0,0,0,0,0,0],"sum_hessian":[6.31E2,2.5E1,6.06E2,4.24E2,1.82E2,2.21E2,2.03E2,1.09E2,7.3E1,2.06E2,1.5E1,3.8E1,1.65E2,7.2E1,3.7E1,1.9E1,5.4E1],"tree_param":{"num_deleted":"0","num_feature":"3","num_nodes":"17","size_leaf_vector":"1"}},{"base_weights":[2.2520053E-3,1.4641407E0,-5.4340865E-2,4.8837055E-2,2.7993916E-2,8.6419445E-1,-1.2087652E-1,5.2590406E-1,5.3092465E-2,-1.0337831E-2,-4.2858332E-1,3.98165E-2,-7.776239E-3,-8.28043E-3,6.1144913E-3,-1.4402629E-2,-3.0022922E-3],"categories":[],"categories_nodes":[],"categories_segments":[],"categories_sizes":[],"default_left":[0,0,0,0,0,0,0,0,0,0,0,0,0,0,0,0,0],"id":30,"left_children":[1,3,5,-1,-1,7,9,11,-1,13,15,-1,-1,-1,-1,-1,-1],"loss_changes":[5.3276546E1,5.679703E-1,3.7995975E1,0E0,0E0,1.1935577E1,1.9689388E1,2.047587E1,0E0,2.4350739E1,2.5406399E0,0E0,0E0,0E0,0E0,0E0,0E0],"parents":[2147483647,0,0,1,1,2,2,5,5,6,6,7,7,9,9,10,10],"right_children":[2,4,6,-1,-1,8,10,12,-1,14,16,-1,-1,-1,-1,-1,-1],"split_conditions":[-1.5186597E0,-1.6180148E0,-1.3945506E0,4.8837055E-2,2.7993916E-2,-1.3129869E0,6.1032194E-1,-1.4732922E0,5.3092465E-2,-1.099251E0,1.1074978E0,3.98165E-2,-7.776239E-3,-8.28043E-3,6.1144913E-3,-1.4402629E-2,-3.0022922E-3],"split_indices":[0,0,2,0,0,0,2,2,0,0,2,0,0,0,0,0,0],"split_type":[0,0,0,0,0,0,0,0,0,0,0,0,0,0,0,0,0],"sum_hessian":[6.42E2,2.3E1,6.19E2,1.6E1,7E0,4.1E1,5.78E2,3.1E1,1E1,4.26E2,1.52E2,1.5E1,1.6E1,1.9E2,2.36E2,1.31E2,2.1E1],"tree_param":{"num_deleted":"0","num_feature":"3","num_nodes":"17","size_leaf_vector":"1"}},{"base_weights":[1.5995108E-2,1.4112587E0,-3.9841026E-2,4.6775196E-2,2.7061306E-2,1.2395508E0,-9.0780504E-2,-5.4748124E-3,3.9279398E-2,8.512536E-3,-4.215804E-1,-8.984813E-3,6.0903886E-3,-1.3897293E-2,-1.3885744E-3],"categories":[],"categories_nodes":[],"categories_segments":[],"categories_sizes":[],"default_left":[0,0,0,0,0,0,0,0,0,0,0,0,0,0,0],"id":31,"left_children":[1,3,5,-1,-1,7,9,-1,-1,11,13,-1,-1,-1,-1],"loss_changes":[5.0617302E1,4.765625E-1,4.084475E1,0E0,0E0,2.619873E0,1.9776958E1,0E0,0E0,2.7857815E1,2.1519318E0,0E0,0E0,0E0,0E0],"parents":[2147483647,0,0,1,1,2,2,5,5,6,6,9,9,10,10],"right_children":[2,4,6,-1,-1,8,10,-1,-1,12,14,-1,-1,-1,-1],"split_conditions":[-1.5186597E0,-1.6180148E0,-1.4642626E0,4.6775196E-2,2.7061306E-2,-1.4888688E0,7.107951E-1,-5.4748124E-3,3.9279398E-2,-1.2391627E0,1.1168326E0,-8.984813E-3,6.0903886E-3,-1.3897293E-2,-1.3885744E-3],"split_indices":[0,0,2,0,0,0,2,0,0,0,2,0,0,0,0],"split_type":[0,0,0,0,0,0,0,0,0,0,0,0,0,0,0],"sum_hessian":[6.48E2,2.4E1,6.24E2,1.7E1,7E0,2.3E1,6.01E2,1E0,2.2E1,4.63E2,1.38E2,1.79E2,2.84E2,1.24E2,1.4E1],"tree_param":{"num_deleted":"0","num_feature":"3","num_nodes":"15","size_leaf_vector":"1"}},{"base_weights":[-4.400084E-3,1.243237E0,-5.7138562E-2,3.9463867E-2,2.0303968E-2,7.207007E-2,-3.5325283E-1,-1.277894E-1,2.3299843E-1,-2.5149047E-1,-4.9857032E-1,1.4676563E-4,-1.7225794E-2,1.2882196E-2,1.5603065E-3,-1.0347476E-2,-2.6270745E-3,-9.476602E-3,-1.5937585E-2],"categories":[],"categories_nodes":[],"categories_segments":[],"categories_sizes":[],"default_left":[0,0,0,0,0,0,0,0,0,0,0,0,0,0,0,0,0,0,0],"id":32,"left_children":[1,3,5,-1,-1,7,9,11,13,15,17,-1,-1,-1,-1,-1,-1,-1,-1],"loss_changes":[4.2182068E1,1.7338562E-1,2.3555677E1,0E0,0E0,1.3827725E1,2.6399422E0,1.1374886E1,8.4379835E0,1.6850114E0,2.859478E-1,0E0,0E0,0E0,0E0,0E0,0E0,0E0,0E0],"parents":[2147483647,0,0,1,1,2,2,5,5,6,6,7,7,8,8,9,9,10,10],"right_children":[2,4,6,-1,-1,8,10,12,14,16,18,-1,-1,-1,-1,-1,-1,-1,-1],"split_conditions":[-1.4989556E0,2.704333E-1,2.3997892E-1,3.9463867E-2,2.0303968E-2,-1.251541E0,8.764981E-1,-1.2984594E0,-3.406035E-1,4.6199698E-2,-8.4355986E-1,1.4676563E-4,-1.7225794E-2,1.2882196E-2,1.5603065E-3,-1.0347476E-2,-2.6270745E-3,-9.476602E-3,-1.5937585E-2],"split_indices":[0,1,0,0,0,0,0,0,0,1,1,0,0,0,0,0,0,0,0],"split_type":[0,0,0,0,0,0,0,0,0,0,0,0,0,0,0,0,0,0,0],"sum_hessian":[6.39E2,2.5E1,6.14E2,2.1E1,4E0,4.28E2,1.86E2,1.91E2,2.37E2,1.11E2,7.5E1,1.48E2,4.3E1,1.13E2,1.24E2,7E1,4.1E1,1.3E1,6.2E1],"tree_param":{"num_deleted":"0","num_feature":"3","num_nodes":"19","size_leaf_vector":"1"}},{"base_weights":[-1.7527375E-2,1.2150662E0,-6.415942E-2,3.782378E-2,1.4241464E-2,5.9645217E-2,-3.4318444E-1,-1.4197025E-1,2.1062012E-1,-2.4504021E-1,-4.7544372E-1,-1.4813371E-4,-1.4272239E-2,2.3603955E-2,4.6450263E-3,-9.439426E-3,-3.5466522E-3,-6.491689E-3,-1.513253E-2],"categories":[],"categories_nodes":[],"categories_segments":[],"categories_sizes":[],"default_left":[0,0,0,0,0,0,0,0,0,0,0,0,0,0,0,0,0,0,0],"id":33,"left_children":[1,3,5,-1,-1,7,9,11,13,15,17,-1,-1,-1,-1,-1,-1,-1,-1],"loss_changes":[3.784124E1,2.13974E-1,2.1921741E1,0E0,0E0,1.3423008E1,2.414692E0,8.642033E0,7.978121E0,9.691367E-1,5.0632477E-1,0E0,0E0,0E0,0E0,0E0,0E0,0E0,0E0],"parents":[2147483647,0,0,1,1,2,2,5,5,6,6,7,7,8,8,9,9,10,10],"right_children":[2,4,6,-1,-1,8,10,12,14,16,18,-1,-1,-1,-1,-1,-1,-1,-1],"split_conditions":[-1.4989556E0,2.704333E-1,2.3997892E-1,3.782378E-2,1.4241464E-2,-1.251541E0,8.764981E-1,-1.3151511E0,-1.2280877E0,4.6199698E-2,-1.0074822E0,-1.4813371E-4,-1.4272239E-2,2.3603955E-2,4.6450263E-3,-9.439426E-3,-3.5466522E-3,-6.491689E-3,-1.513253E-2],"split_indices":[0,1,0,0,0,0,0,0,0,1,1,0,0,0,0,0,0,0,0],"split_type":[0,0,0,0,0,0,0,0,0,0,0,0,0,0,0,0,0,0,0],"sum_hessian":[6.56E2,2.3E1,6.33E2,2.1E1,2E0,4.39E2,1.94E2,1.88E2,2.51E2,1.13E2,8.1E1,1.34E2,5.4E1,2.1E1,2.3E2,7.2E1,4.1E1,9E0,7.2E1],"tree_param":{"num_deleted":"0","num_feature":"3","num_nodes":"19","size_leaf_vector":"1"}},{"base_weights":[5.017057E-3,3.9811034E-2,-3.7227932E-2,7.683529E-2,-3.0337968E-1,-7.099502E-2,2.383788E-1,-2.2325963E-1,-4.2936116E-1,-3.069656E-3,2.4333462E-2,2.5299372E-2,3.6249023E-3,-8.860411E-3,-2.472918E-3,-1.149901E-2,-1.667503E-2],"categories":[],"categories_nodes":[],"categories_segments":[],"categories_sizes":[],"default_left":[0,0,0,0,0,0,0,0,0,0,0,0,0,0,0,0,0],"id":34,"left_children":[1,-1,3,5,7,9,11,13,15,-1,-1,-1,-1,-1,-1,-1,-1],"loss_changes":[3.607176E1,0E0,1.9027494E1,1.0500694E1,1.8017464E0,6.438757E0,1.483103E1,1.1634383E0,2.063818E-1,0E0,0E0,0E0,0E0,0E0,0E0,0E0,0E0],"parents":[2147483647,0,0,2,2,3,3,4,4,5,5,6,6,7,7,8,8],"right_children":[2,-1,4,6,8,10,12,14,16,-1,-1,-1,-1,-1,-1,-1,-1],"split_conditions":[-1.5647537E0,3.9811034E-2,2.3997892E-1,-1.099251E0,8.764981E-1,1.3642052E0,-5.381865E-1,4.6199698E-2,1.0573311E0,-3.069656E-3,2.4333462E-2,2.5299372E-2,3.6249023E-3,-8.860411E-3,-2.472918E-3,-1.149901E-2,-1.667503E-2],"split_indices":[0,0,0,0,0,1,0,1,1,0,0,0,0,0,0,0,0],"split_type":[0,0,0,0,0,0,0,0,0,0,0,0,0,0,0,0,0],"sum_hessian":[6.44E2,1.9E1,6.25E2,4.38E2,1.87E2,2.29E2,2.09E2,1.16E2,7.1E1,2.22E2,7E0,3.3E1,1.76E2,7.6E1,4E1,5.5E1,1.6E1],"tree_param":{"num_deleted":"0","num_feature":"3","num_nodes":"17","size_leaf_vector":"1"}},{"base_weights":[-5.5265324E-3,1.2352482E0,-5.9551354E-2,4.7318716E-2,2.9297993E-2,9.792749E-1,-1.1962043E-1,2.0221905E-1,1.2946224E0,-2.6096117E-2,-3.77844E-1,3.0067315E-2,-6.692123E-3,4.0416036E-2,1.4325129E-2,-7.7080303E-3,5.1648086E-3,-1.25322435E-2,-8.115242E-4],"categories":[],"categories_nodes":[],"categories_segments":[],"categories_sizes":[],"default_left":[0,0,0,0,0,0,0,0,0,0,0,0,0,0,0,0,0,0,0],"id":35,"left_children":[1,3,5,-1,-1,7,9,11,13,15,17,-1,-1,-1,-1,-1,-1,-1,-1],"loss_changes":[4.3376644E1,8.482704E-1,3.8805965E1,0E0,0E0,8.069653E0,1.4166298E1,3.9662383E0,3.878212E-1,1.9814783E1,2.1720371E0,0E0,0E0,0E0,0E0,0E0,0E0,0E0,0E0],"parents":[2147483647,0,0,1,1,2,2,5,5,6,6,7,7,8,8,9,9,10,10],"right_children":[2,4,6,-1,-1,8,10,12,14,16,18,-1,-1,-1,-1,-1,-1,-1,-1],"split_conditions":[-1.4989556E0,-1.6659005E0,-1.424809E0,4.7318716E-2,2.9297993E-2,-1.4360808E0,6.1032194E-1,-1.4732922E0,-1.4302902E0,-1.0114609E0,1.1168326E0,3.0067315E-2,-6.692123E-3,4.0416036E-2,1.4325129E-2,-7.7080303E-3,5.1648086E-3,-1.25322435E-2,-8.115242E-4],"split_indices":[0,0,2,0,0,0,2,2,2,0,2,0,0,0,0,0,0,0,0],"split_type":[0,0,0,0,0,0,0,0,0,0,0,0,0,0,0,0,0,0,0],"sum_hessian":[6.45E2,2.6E1,6.19E2,9E0,1.7E1,3.3E1,5.86E2,1E1,2.3E1,4.31E2,1.55E2,3E0,7E0,2.1E1,2E0,1.99E2,2.32E2,1.39E2,1.6E1],"tree_param":{"num_deleted":"0","num_feature":"3","num_nodes":"19","size_leaf_vector":"1"}},{"base_weights":[1.6547946E-3,1.0532253E0,-4.1094664E-2,3.5325978E-2,5.653587E-1,1.0336198E0,-8.6486824E-2,2.2209734E-1,2.3018412E-2,-1.1684867E-2,3.736156E-2,4.1039945E-3,-3.4357962E-1,1.3398049E-2,-6.771235E-3,-5.767144E-3,5.051696E-3,-1.1650812E-2,-7.2391174E-4],"categories":[],"categories_nodes":[],"categories_segments":[],"categories_sizes":[],"default_left":[0,0,0,0,0,0,0,0,0,0,0,0,0,0,0,0,0,0,0],"id":36,"left_children":[1,3,5,-1,7,9,11,13,-1,-1,-1,15,17,-1,-1,-1,-1,-1,-1],"loss_changes":[2.8768932E1,8.5040665E-1,3.0091314E1,0E0,3.147726E-1,8.019241E0,1.3765946E1,5.0293833E-1,0E0,0E0,0E0,1.4160604E1,2.1936283E0,0E0,0E0,0E0,0E0,0E0,0E0],"parents":[2147483647,0,0,1,1,2,2,4,4,5,5,6,6,7,7,11,11,12,12],"right_children":[2,4,6,-1,8,10,12,14,-1,-1,-1,16,18,-1,-1,-1,-1,-1,-1],"split_conditions":[-1.4989556E0,-1.5647537E0,-1.4594599E0,3.5325978E-2,-1.3743755E0,-1.4623423E0,6.1032194E-1,-1.5186597E0,2.3018412E-2,-1.1684867E-2,3.736156E-2,-1.125963E0,1.1168326E0,1.3398049E-2,-6.771235E-3,-5.767144E-3,5.051696E-3,-1.1650812E-2,-7.2391174E-4],"split_indices":[0,0,2,0,2,0,2,0,0,0,0,0,2,0,0,0,0,0,0],"split_type":[0,0,0,0,0,0,0,0,0,0,0,0,0,0,0,0,0,0,0],"sum_hessian":[6.38E2,2.4E1,6.14E2,1.8E1,6E0,2.4E1,5.9E2,3E0,3E0,3E0,2.1E1,4.37E2,1.53E2,2E0,1E0,1.99E2,2.38E2,1.34E2,1.9E1],"tree_param":{"num_deleted":"0","num_feature":"3","num_nodes":"19","size_leaf_vector":"1"}},{"base_weights":[7.924454E-3,3.472614E-2,-4.1411977E-2,5.9071932E-2,-3.148687E-1,-7.6225124E-2,2.0749241E-1,-2.4503307E-1,-4.24681E-1,6.4829113E-3,-4.842032E-3,2.0059977E-2,2.4818615E-3,-9.386754E-3,-2.6044294E-3,-7.221134E-3,-1.5011256E-2],"categories":[],"categories_nodes":[],"categories_segments":[],"categories_sizes":[],"default_left":[0,0,0,0,0,0,0,0,0,0,0,0,0,0,0,0,0],"id":37,"left_children":[1,-1,3,5,7,9,11,13,15,-1,-1,-1,-1,-1,-1,-1,-1],"loss_changes":[3.583689E1,0E0,1.6670267E1,8.931715E0,1.1459541E0,5.836304E0,1.2142676E1,1.0679612E0,7.429657E-1,0E0,0E0,0E0,0E0,0E0,0E0,0E0,0E0],"parents":[2147483647,0,0,2,2,3,3,4,4,5,5,6,6,7,7,8,8],"right_children":[2,-1,4,6,8,10,12,14,16,-1,-1,-1,-1,-1,-1,-1,-1],"split_conditions":[-1.4989556E0,3.472614E-2,3.055782E-1,-1.099251E0,8.764981E-1,-1.4008989E0,-4.944431E-1,4.6199698E-2,-6.727578E-1,6.4829113E-3,-4.842032E-3,2.0059977E-2,2.4818615E-3,-9.386754E-3,-2.6044294E-3,-7.221134E-3,-1.5011256E-2],"split_indices":[0,0,0,0,0,0,0,1,1,0,0,0,0,0,0,0,0],"split_type":[0,0,0,0,0,0,0,0,0,0,0,0,0,0,0,0,0],"sum_hessian":[6.3E2,2.5E1,6.05E2,4.43E2,1.62E2,2.32E2,2.11E2,1.01E2,6.1E1,5.2E1,1.8E2,4.4E1,1.67E2,7E1,3.1E1,1.9E1,4.2E1],"tree_param":{"num_deleted":"0","num_feature":"3","num_nodes":"17","size_leaf_vector":"1"}},{"base_weights":[-1.5053823E-2,8.78644E-1,-7.539412E-2,-1.3237993E-2,1.117522E0,1.6396847E-2,-3.4787446E-1,9.505785E-1,4.4825498E-2,-5.608622E-2,3.0694544E-1,-3.8255808E-1,-3.2813798E-3,3.4020606E-2,7.933691E-3,2.4339848E-3,-7.8039914E-3,2.4537249E-2,6.3389684E-3,-1.04891565E-2,-1.5560564E-2,1.6999446E-3,-1.4862482E-3],"categories":[],"categories_nodes":[],"categories_segments":[],"categories_sizes":[],"default_left":[0,0,0,0,0,0,0,0,0,0,0,0,0,0,0,0,0,0,0,0,0,0,0],"id":38,"left_children":[1,3,5,-1,7,9,11,13,-1,15,17,19,21,-1,-1,-1,-1,-1,-1,-1,-1,-1,-1],"loss_changes":[3.4956356E1,1.342033E1,1.5187523E1,0E0,7.805023E-1,9.599448E0,1.8273582E0,3.0984154E0,0E0,1.0240781E1,4.2745113E0,4.4153976E-1,4.4404145E-2,0E0,0E0,0E0,0E0,0E0,0E0,0E0,0E0,0E0,0E0],"parents":[2147483647,0,0,1,1,2,2,4,4,5,5,6,6,7,7,9,9,10,10,11,11,12,12],"right_children":[2,4,6,-1,8,10,12,14,-1,16,18,20,22,-1,-1,-1,-1,-1,-1,-1,-1,-1,-1],"split_conditions":[-1.4148682E0,-5.372539E-1,6.1032194E-1,-1.3237993E-2,1.0573311E0,1.2167422E-1,1.1168326E0,-1.4538317E0,4.4825498E-2,2.844918E-1,-6.9993365E-1,6.750716E-1,1.1325294E0,3.4020606E-2,7.933691E-3,2.4339848E-3,-7.8039914E-3,2.4537249E-2,6.3389684E-3,-1.04891565E-2,-1.5560564E-2,1.6999446E-3,-1.4862482E-3],"split_indices":[2,1,2,0,1,2,2,2,0,1,1,1,2,0,0,0,0,0,0,0,0,0,0],"split_type":[0,0,0,0,0,0,0,0,0,0,0,0,0,0,0,0,0,0,0,0,0,0,0],"sum_hessian":[6.46E2,4E1,6.06E2,6E0,3.4E1,4.54E2,1.52E2,2.6E1,8E0,3.64E2,9E1,1.38E2,1.4E1,2E1,6E0,2.18E2,1.46E2,1.3E1,7.7E1,1.14E2,2.4E1,6E0,8E0],"tree_param":{"num_deleted":"0","num_feature":"3","num_nodes":"23","size_leaf_vector":"1"}},{"base_weights":[1.1530657E-2,1.1609789E0,-3.446649E-2,4.373282E-2,8.857258E-1,3.493328E-2,-7.142343E-2,7.716495E-3,2.73674E-2,1.610102E-2,-3.359187E-1,-6.55453E-3,4.463419E-3,-1.1978359E-2,-1.7071419E-3],"categories":[],"categories_nodes":[],"categories_segments":[],"categories_sizes":[],"default_left":[0,0,0,0,0,0,0,0,0,0,0,0,0,0,0],"id":39,"left_children":[1,3,5,-1,7,-1,9,-1,-1,11,13,-1,-1,-1,-1],"loss_changes":[3.2978863E1,6.693878E-1,2.6667982E1,0E0,1.5384674E-2,0E0,1.3501743E1,0E0,0E0,1.3696247E1,2.5406342E0,0E0,0E0,0E0,0E0],"parents":[2147483647,0,0,1,1,2,2,4,4,6,6,9,9,10,10],"right_children":[2,4,6,-1,8,-1,10,-1,-1,12,14,-1,-1,-1,-1],"split_conditions":[-1.5186597E0,-1.6659005E0,-1.4732922E0,4.373282E-2,-1.4500462E0,3.493328E-2,6.9297546E-1,7.716495E-3,2.73674E-2,-1.251541E0,1.1074978E0,-6.55453E-3,4.463419E-3,-1.1978359E-2,-1.7071419E-3],"split_indices":[0,0,2,0,2,0,2,0,0,0,2,0,0,0,0],"split_type":[0,0,0,0,0,0,0,0,0,0,0,0,0,0,0],"sum_hessian":[6.22E2,2.3E1,5.99E2,9E0,1.4E1,1.7E1,5.82E2,1E0,1.3E1,4.38E2,1.44E2,1.58E2,2.8E2,1.17E2,2.7E1],"tree_param":{"num_deleted":"0","num_feature":"3","num_nodes":"15","size_leaf_vector":"1"}},{"base_weights":[2.0353668E-3,1.043454E0,-4.410666E-2,4.379204E-2,8.039551E-1,3.3106945E-2,-7.762533E-2,2.5578208E-2,3.9619598E-1,4.207087E-3,-3.3586818E-1,-7.12875E-3,2.060034E-2,-2.8676088E-3,1.0896862E-2,-1.1213599E-2,-6.505689E-4],"categories":[],"categories_nodes":[],"categories_segments":[],"categories_sizes":[],"default_left":[0,0,0,0,0,0,0,0,0,0,0,0,0,0,0,0,0],"id":40,"left_children":[1,3,5,-1,7,-1,9,-1,11,13,15,-1,-1,-1,-1,-1,-1],"loss_changes":[3.1713062E1,1.6180058E0,2.4397705E1,0E0,5.896473E-2,0E0,1.2997983E1,0E0,8.9962614E-1,1.6802328E1,1.7550659E0,0E0,0E0,0E0,0E0,0E0,0E0],"parents":[2147483647,0,0,1,1,2,2,4,4,6,6,8,8,9,9,10,10],"right_children":[2,4,6,-1,8,-1,10,-1,12,14,16,-1,-1,-1,-1,-1,-1],"split_conditions":[-1.4989556E0,-1.6659005E0,-1.4732922E0,4.379204E-2,-1.5186597E0,3.3106945E-2,6.1032194E-1,2.5578208E-2,-1.3743755E0,1.18113235E-1,1.1168326E0,-7.12875E-3,2.060034E-2,-2.8676088E-3,1.0896862E-2,-1.1213599E-2,-6.505689E-4],"split_indices":[0,0,2,0,0,0,2,0,2,2,2,0,0,0,0,0,0],"split_type":[0,0,0,0,0,0,0,0,0,0,0,0,0,0,0,0,0],"sum_hessian":[6.58E2,2.7E1,6.31E2,8E0,1.9E1,1.7E1,6.14E2,1.6E1,3E0,4.67E2,1.47E2,1E0,2E0,3.66E2,1.01E2,1.31E2,1.6E1],"tree_param":{"num_deleted":"0","num_feature":"3","num_nodes":"17","size_leaf_vector":"1"}},{"base_weights":[2.2394938E-2,1.0468745E0,-1.9653745E-2,3.3232678E-2,1.3052644E-2,8.8950865E-2,-2.720139E-1,-7.769922E-2,2.071867E-1,-2.0002796E-1,-3.7153795E-1,7.7856326E-4,-1.3271278E-2,1.67702E-2,4.817966E-3,-7.3035085E-3,-3.2375823E-3,-7.246359E-3,-1.243319E-2],"categories":[],"categories_nodes":[],"categories_segments":[],"categories_sizes":[],"default_left":[0,0,0,0,0,0,0,0,0,0,0,0,0,0,0,0,0,0,0],"id":41,"left_children":[1,3,5,-1,-1,7,9,11,13,15,17,-1,-1,-1,-1,-1,-1,-1,-1],"loss_changes":[2.840899E1,4.8643494E-1,1.7400537E1,0E0,0E0,8.76468E0,1.2940693E0,7.0043364E0,4.1717606E0,4.2567825E-1,3.404703E-1,0E0,0E0,0E0,0E0,0E0,0E0,0E0,0E0],"parents":[2147483647,0,0,1,1,2,2,5,5,6,6,7,7,8,8,9,9,10,10],"right_children":[2,4,6,-1,-1,8,10,12,14,16,18,-1,-1,-1,-1,-1,-1,-1,-1],"split_conditions":[-1.5186597E0,2.704333E-1,2.3997892E-1,3.3232678E-2,1.3052644E-2,-1.251541E0,8.764981E-1,-1.2984594E0,-9.2977995E-1,4.6199698E-2,-6.727578E-1,7.7856326E-4,-1.3271278E-2,1.67702E-2,4.817966E-3,-7.3035085E-3,-3.2375823E-3,-7.246359E-3,-1.243319E-2],"split_indices":[0,1,0,0,0,0,0,0,1,1,1,0,0,0,0,0,0,0,0],"split_type":[0,0,0,0,0,0,0,0,0,0,0,0,0,0,0,0,0,0,0],"sum_hessian":[6.58E2,2.5E1,6.33E2,2.2E1,3E0,4.43E2,1.9E2,1.84E2,2.59E2,1.12E2,7.8E1,1.44E2,4E1,2.9E1,2.3E2,7.5E1,3.7E1,2.1E1,5.7E1],"tree_param":{"num_deleted":"0","num_feature":"3","num_nodes":"19","size_leaf_vector":"1"}},{"base_weights":[3.2212145E-3,1.0420321E0,-4.470288E-2,1.4918193E-2,3.3363163E-2,9.1154027E-1,-8.906409E-2,-1.1163158E-2,9.75223E-1,-2.281016E-2,-3.0361837E-1,3.217271E-2,1.057486E-2,-6.465167E-3,4.1916464E-3,-1.0839136E-2,-9.2196104E-4],"categories":[],"categories_nodes":[],"categories_segments":[],"categories_sizes":[],"default_left":[0,0,0,0,0,0,0,0,0,0,0,0,0,0,0,0,0],"id":42,"left_children":[1,3,5,-1,-1,7,9,-1,11,13,15,-1,-1,-1,-1,-1,-1],"loss_changes":[3.1609684E1,5.158272E-1,2.5830187E1,0E0,0E0,2.5700283E0,8.252027E0,0E0,1.1957455E0,1.3967115E1,2.1455183E0,0E0,0E0,0E0,0E0,0E0,0E0],"parents":[2147483647,0,0,1,1,2,2,5,5,6,6,8,8,9,9,10,10],"right_children":[2,4,6,-1,-1,8,10,-1,12,14,16,-1,-1,-1,-1,-1,-1],"split_conditions":[-1.4989556E0,-1.4148682E0,-1.4500462E0,1.4918193E-2,3.3363163E-2,-1.4623423E0,7.30762E-1,-1.1163158E-2,-1.4594599E0,-1.0114609E0,1.1074978E0,3.217271E-2,1.057486E-2,-6.465167E-3,4.1916464E-3,-1.0839136E-2,-9.2196104E-4],"split_indices":[0,2,2,0,0,0,2,0,2,0,2,0,0,0,0,0,0],"split_type":[0,0,0,0,0,0,0,0,0,0,0,0,0,0,0,0,0],"sum_hessian":[6.33E2,2.7E1,6.06E2,4E0,2.3E1,2.6E1,5.8E2,1E0,2.5E1,4.44E2,1.36E2,2.1E1,4E0,2.03E2,2.41E2,1.12E2,2.4E1],"tree_param":{"num_deleted":"0","num_feature":"3","num_nodes":"17","size_leaf_vector":"1"}},{"base_weights":[9.718002E-3,1.0288291E0,-4.091619E-2,3.884615E-2,2.4931926E-2,6.411712E-2,-2.8290057E-1,-9.9835426E-2,1.8413101E-1,-2.0827973E-1,-3.7849915E-1,1.879173E-3,-1.3460605E-2,2.9577428E-2,3.7062399E-3,-7.5036683E-3,-3.1503022E-3,-1.0396063E-2,-1.7658057E-2],"categories":[],"categories_nodes":[],"categories_segments":[],"categories_sizes":[],"default_left":[0,0,0,0,0,0,0,0,0,0,0,0,0,0,0,0,0,0,0],"id":43,"left_children":[1,3,5,-1,-1,7,9,11,13,15,17,-1,-1,-1,-1,-1,-1,-1,-1],"loss_changes":[3.270608E1,5.0229836E-1,1.5369656E1,0E0,0E0,8.321901E0,1.2266235E0,1.0173732E1,1.1731669E1,4.2744637E-1,3.2656574E-1,0E0,0E0,0E0,0E0,0E0,0E0,0E0,0E0],"parents":[2147483647,0,0,1,1,2,2,5,5,6,6,7,7,8,8,9,9,10,10],"right_children":[2,4,6,-1,-1,8,10,12,14,16,18,-1,-1,-1,-1,-1,-1,-1,-1],"split_conditions":[-1.4989556E0,-1.6659005E0,2.3997892E-1,3.884615E-2,2.4931926E-2,-1.251541E0,8.764981E-1,-1.3206016E0,-1.2280877E0,7.974248E-1,1.3754584E0,1.879173E-3,-1.3460605E-2,2.9577428E-2,3.7062399E-3,-7.5036683E-3,-3.1503022E-3,-1.0396063E-2,-1.7658057E-2],"split_indices":[0,0,0,0,0,0,0,0,0,0,0,0,0,0,0,0,0,0,0],"split_type":[0,0,0,0,0,0,0,0,0,0,0,0,0,0,0,0,0,0,0],"sum_hessian":[6.32E2,2.9E1,6.03E2,1E1,1.9E1,4.21E2,1.82E2,1.78E2,2.43E2,1.04E2,7.8E1,1.22E2,5.6E1,1.6E1,2.27E2,7.3E1,3.1E1,7E1,8E0],"tree_param":{"num_deleted":"0","num_feature":"3","num_nodes":"19","size_leaf_vector":"1"}},{"base_weights":[1.1688377E-2,9.479081E-1,-2.560013E-2,-7.139529E-3,3.184129E-2,5.43267E-2,-2.7196145E-1,-1.9691927E-2,3.5454783E-1,-3.07443E-1,1.3201544E-2,1.4741287E-3,-1.3160329E-2,1.5679387E-2,1.2759496E-3,-8.121526E-3,-1.3614607E-2,2.3193057E-3,-1.038692E-3],"categories":[],"categories_nodes":[],"categories_segments":[],"categories_sizes":[],"default_left":[0,0,0,0,0,0,0,0,0,0,0,0,0,0,0,0,0,0,0],"id":44,"left_children":[1,3,5,-1,-1,7,9,11,13,15,17,-1,-1,-1,-1,-1,-1,-1,-1],"loss_changes":[2.2785738E1,3.616621E0,1.2380647E1,0E0,0E0,1.056241E1,1.562233E0,1.1037901E1,4.908018E0,6.136246E-1,5.7864197E-2,0E0,0E0,0E0,0E0,0E0,0E0,0E0,0E0],"parents":[2147483647,0,0,1,1,2,2,5,5,6,6,7,7,8,8,9,9,10,10],"right_children":[2,4,6,-1,-1,8,10,12,14,16,18,-1,-1,-1,-1,-1,-1,-1,-1],"split_conditions":[-1.4594599E0,-9.0948325E-1,6.1032194E-1,-7.139529E-3,3.184129E-2,1.2167422E-1,1.1168326E0,-2.9880747E-1,1.5508239E-1,6.750716E-1,1.1325294E0,1.4741287E-3,-1.3160329E-2,1.5679387E-2,1.2759496E-3,-8.121526E-3,-1.3614607E-2,2.3193057E-3,-1.038692E-3],"split_indices":[2,1,2,0,0,2,2,2,2,1,2,0,0,0,0,0,0,0,0],"split_type":[0,0,0,0,0,0,0,0,0,0,0,0,0,0,0,0,0,0,0],"sum_hessian":[6.51E2,2.4E1,6.27E2,2E0,2.2E1,4.74E2,1.53E2,3.81E2,9.3E1,1.36E2,1.7E1,3.28E2,5.3E1,6E1,3.3E1,1.11E2,2.5E1,7E0,1E1],"tree_param":{"num_deleted":"0","num_feature":"3","num_nodes":"19","size_leaf_vector":"1"}},{"base_weights":[-2.0305077E-2,1.0040796E0,-6.0707916E-2,1.4667854E-2,3.163171E-2,9.9894166E-1,-1.0031879E-1,-5.901471E-3,3.1957354E-2,-3.9040383E-2,-2.8684303E-1,-6.973477E-3,4.0409556E-3,-9.561275E-3,-3.0009E-4],"categories":[],"categories_nodes":[],"categories_segments":[],"categories_sizes":[],"default_left":[0,0,0,0,0,0,0,0,0,0,0,0,0,0,0],"id":45,"left_children":[1,3,5,-1,-1,7,9,-1,-1,11,13,-1,-1,-1,-1],"loss_changes":[2.6176815E1,1.0650253E-1,2.562019E1,0E0,0E0,1.9536304E0,6.6981587E0,0E0,0E0,1.4917282E1,1.2759762E0,0E0,0E0,0E0,0E0],"parents":[2147483647,0,0,1,1,2,2,5,5,6,6,9,9,10,10],"right_children":[2,4,6,-1,-1,8,10,-1,-1,12,14,-1,-1,-1,-1],"split_conditions":[-1.5186597E0,-1.424809E0,-1.4594599E0,1.4667854E-2,3.163171E-2,-1.4623423E0,6.1032194E-1,-5.901471E-3,3.1957354E-2,-1.099251E0,1.1168326E0,-6.973477E-3,4.0409556E-3,-9.561275E-3,-3.0009E-4],"split_indices":[0,2,2,0,0,0,2,0,0,0,2,0,0,0,0],"split_type":[0,0,0,0,0,0,0,0,0,0,0,0,0,0,0],"sum_hessian":[6.3E2,2.3E1,6.07E2,3E0,2E1,2.1E1,5.86E2,1E0,2E1,4.42E2,1.44E2,2.09E2,2.33E2,1.29E2,1.5E1],"tree_param":{"num_deleted":"0","num_feature":"3","num_nodes":"15","size_leaf_vector":"1"}},{"base_weights":[-1.7087419E-2,8.8677275E-1,-5.2757904E-2,2.816327E-2,1.1371907E-2,3.1811547E-2,-2.4862967E-1,-8.893751E-2,1.262463E-1,-1.8669182E-1,-3.3223483E-1,8.502641E-4,-1.26190735E-2,2.0862643E-2,2.3665356E-3,-7.1025235E-3,-3.118418E-3,-9.329176E-3,-1.7669244E-2],"categories":[],"categories_nodes":[],"categories_segments":[],"categories_sizes":[],"default_left":[0,0,0,0,0,0,0,0,0,0,0,0,0,0,0,0,0,0,0],"id":46,"left_children":[1,3,5,-1,-1,7,9,11,13,15,17,-1,-1,-1,-1,-1,-1,-1,-1],"loss_changes":[2.1229208E1,3.0420303E-1,1.0493408E1,0E0,0E0,5.062717E0,9.270344E-1,7.597706E0,6.6574726E0,4.393065E-1,2.5355625E-1,0E0,0E0,0E0,0E0,0E0,0E0,0E0,0E0],"parents":[2147483647,0,0,1,1,2,2,5,5,6,6,7,7,8,8,9,9,10,10],"right_children":[2,4,6,-1,-1,8,10,12,14,16,18,-1,-1,-1,-1,-1,-1,-1,-1],"split_conditions":[-1.4989556E0,2.704333E-1,2.3997892E-1,2.816327E-2,1.1371907E-2,-1.251541E0,8.764981E-1,-1.305196E0,-1.2269468E0,4.6199698E-2,1.4271376E0,8.502641E-4,-1.26190735E-2,2.0862643E-2,2.3665356E-3,-7.1025235E-3,-3.118418E-3,-9.329176E-3,-1.7669244E-2],"split_indices":[0,1,0,0,0,0,0,0,0,1,0,0,0,0,0,0,0,0,0],"split_type":[0,0,0,0,0,0,0,0,0,0,0,0,0,0,0,0,0,0,0],"sum_hessian":[6.56E2,2.4E1,6.32E2,2.1E1,3E0,4.42E2,1.9E2,1.94E2,2.48E2,1.11E2,7.9E1,1.44E2,5E1,1.8E1,2.3E2,6.8E1,4.3E1,7.5E1,4E0],"tree_param":{"num_deleted":"0","num_feature":"3","num_nodes":"19","size_leaf_vector":"1"}},{"base_weights":[2.618821E-3,9.307581E-1,-3.7010472E-2,3.6868453E-2,7.006015E-1,6.425703E-1,-8.848307E-2,6.010823E-3,2.158032E-2,3.5741764E-1,1.34943E0,-2.2662798E-1,-1.4890004E-2,3.1404153E-2,-5.0809053E-3,2.1154614E-2,4.750271E-2,2.225258E-3,-1.7552212E-2,7.909378E-3,-5.722264E-3],"categories":[],"categories_nodes":[],"categories_segments":[],"categories_sizes":[],"default_left":[0,0,0,0,0,0,0,0,0,0,0,0,0,0,0,0,0,0,0,0,0],"id":47,"left_children":[1,3,5,-1,7,9,11,-1,-1,13,15,17,19,-1,-1,-1,-1,-1,-1,-1,-1],"loss_changes":[2.335392E1,9.233875E-1,2.1359549E1,0E0,1.5259743E-2,8.184893E0,5.761035E0,0E0,0E0,1.1798294E1,6.9252205E-1,2.1284267E1,1.8222292E1,0E0,0E0,0E0,0E0,0E0,0E0,0E0,0E0],"parents":[2147483647,0,0,1,1,2,2,4,4,5,5,6,6,9,9,10,10,11,11,12,12],"right_children":[2,4,6,-1,8,10,12,-1,-1,14,16,18,20,-1,-1,-1,-1,-1,-1,-1,-1],"split_conditions":[-1.5186597E0,-1.6659005E0,-1.4148682E0,3.6868453E-2,-1.4500462E0,-1.3269533E0,-1.0114609E0,6.010823E-3,2.158032E-2,-1.4836265E0,-1.4732922E0,-1.3235418E0,9.197867E-2,3.1404153E-2,-5.0809053E-3,2.1154614E-2,4.750271E-2,2.225258E-3,-1.7552212E-2,7.909378E-3,-5.722264E-3],"split_indices":[0,0,2,0,2,0,0,0,0,2,2,2,0,0,0,0,0,0,0,0,0],"split_type":[0,0,0,0,0,0,0,0,0,0,0,0,0,0,0,0,0,0,0,0,0],"sum_hessian":[6.33E2,2.5E1,6.08E2,9E0,1.6E1,4.2E1,5.66E2,1E0,1.5E1,3.1E1,1.1E1,1.96E2,3.7E2,1.3E1,1.8E1,4E0,7E0,1.07E2,8.9E1,1.43E2,2.27E2],"tree_param":{"num_deleted":"0","num_feature":"3","num_nodes":"21","size_leaf_vector":"1"}},{"base_weights":[1.8989371E-2,3.7620732E-1,-6.501753E-2,3.0152202E-2,2.7865532E-1,5.577927E-3,-2.699455E-1,2.1477142E-1,3.954718E-2,-2.2447103E-1,1.3542178E-1,-3.155188E-1,-2.566579E-2,5.3728474E-3,1.5752567E-2,9.371604E-3,-9.036319E-3,1.7536817E-2,1.2303637E-3,-8.471847E-3,-1.48983775E-2,1.6927014E-3,-7.619224E-3],"categories":[],"categories_nodes":[],"categories_segments":[],"categories_sizes":[],"default_left":[0,0,0,0,0,0,0,0,0,0,0,0,0,0,0,0,0,0,0,0,0,0,0],"id":48,"left_children":[1,3,5,-1,7,9,11,13,-1,15,17,19,21,-1,-1,-1,-1,-1,-1,-1,-1,-1,-1],"loss_changes":[1.9230076E1,7.204281E0,7.5098715E0,0E0,6.823039E0,1.159026E1,1.4725418E0,1.0351934E0,0E0,5.8618507E0,1.049198E1,5.3159523E-1,4.2664623E-1,0E0,0E0,0E0,0E0,0E0,0E0,0E0,0E0,0E0,0E0],"parents":[2147483647,0,0,1,1,2,2,4,4,5,5,6,6,7,7,9,9,10,10,11,11,12,12],"right_children":[2,4,6,-1,8,10,12,14,-1,16,18,20,22,-1,-1,-1,-1,-1,-1,-1,-1,-1,-1],"split_conditions":[-1.3506871E0,-1.4836265E0,7.477764E-1,3.0152202E-2,1.3342807E0,-1.1802367E0,1.1074978E0,-1.359571E0,3.954718E-2,-1.5817116E0,-7.849087E-1,6.750716E-1,-7.117026E-1,5.3728474E-3,1.5752567E-2,9.371604E-3,-9.036319E-3,1.7536817E-2,1.2303637E-3,-8.471847E-3,-1.48983775E-2,1.6927014E-3,-7.619224E-3],"split_indices":[2,2,2,0,1,2,2,2,0,1,2,1,1,0,0,0,0,0,0,0,0,0,0],"split_type":[0,0,0,0,0,0,0,0,0,0,0,0,0,0,0,0,0,0,0,0,0,0,0],"sum_hessian":[6.39E2,1.21E2,5.18E2,1.5E1,1.06E2,3.86E2,1.32E2,1.01E2,5E0,1.39E2,2.47E2,1.11E2,2.1E1,9.2E1,9E0,1.7E1,1.22E2,4.2E1,2.05E2,9.6E1,1.5E1,1.6E1,5E0],"tree_param":{"num_deleted":"0","num_feature":"3","num_nodes":"23","size_leaf_vector":"1"}},{"base_weights":[-2.717496E-4,8.5897595E-1,-3.6130767E-2,3.139521E-2,1.6589416E-2,4.9389374E-2,-2.4043909E-1,-1.0877349E-1,1.593051E-1,-1.7670302E-1,-3.2671252E-1,7.1550946E-4,-2.502959E-2,3.969206E-2,4.0785917E-3,-6.610851E-3,-2.7144046E-3,-8.8988785E-3,-1.5631482E-2],"categories":[],"categories_nodes":[],"categories_segments":[],"categories_sizes":[],"default_left":[0,0,0,0,0,0,0,0,0,0,0,0,0,0,0,0,0,0,0],"id":49,"left_children":[1,3,5,-1,-1,7,9,11,13,15,17,-1,-1,-1,-1,-1,-1,-1,-1],"loss_changes":[1.9997068E1,9.132786E-1,1.0897228E1,0E0,0E0,7.666547E0,9.540348E-1,1.7436571E1,6.8859506E0,3.8661408E-1,2.956066E-1,0E0,0E0,0E0,0E0,0E0,0E0,0E0,0E0],"parents":[2147483647,0,0,1,1,2,2,5,5,6,6,7,7,8,8,9,9,10,10],"right_children":[2,4,6,-1,-1,8,10,12,14,16,18,-1,-1,-1,-1,-1,-1,-1,-1],"split_conditions":[-1.4989556E0,-1.6180148E0,2.3997892E-1,3.139521E-2,1.6589416E-2,-1.2701093E0,8.764981E-1,-1.2984594E0,-1.2650603E0,4.6199698E-2,1.3754584E0,7.1550946E-4,-2.502959E-2,3.969206E-2,4.0785917E-3,-6.610851E-3,-2.7144046E-3,-8.8988785E-3,-1.5631482E-2],"split_indices":[0,0,0,0,0,0,0,0,0,1,0,0,0,0,0,0,0,0,0],"split_type":[0,0,0,0,0,0,0,0,0,0,0,0,0,0,0,0,0,0,0],"sum_hessian":[6.47E2,2.5E1,6.22E2,1.4E1,1.1E1,4.39E2,1.83E2,1.8E2,2.59E2,1.07E2,7.6E1,1.53E2,2.7E1,4E0,2.55E2,7E1,3.7E1,6.8E1,8E0],"tree_param":{"num_deleted":"0","num_feature":"3","num_nodes":"19","size_leaf_vector":"1"}},{"base_weights":[-1.6414182E-2,7.8155816E-1,-5.4875202E-2,2.809885E-2,1.6122991E-2,1.4907761E-2,-2.3040247E-1,-9.964134E-2,1.5376727E-1,-1.8216704E-1,-2.9357377E-1,-1.6571434E-3,-1.789247E-2,1.5561241E-2,9.092524E-4,-6.9541675E-3,-2.2383656E-3,-5.6927204E-3,-9.836251E-3],"categories":[],"categories_nodes":[],"categories_segments":[],"categories_sizes":[],"default_left":[0,0,0,0,0,0,0,0,0,0,0,0,0,0,0,0,0,0,0],"id":50,"left_children":[1,3,5,-1,-1,7,9,11,13,15,17,-1,-1,-1,-1,-1,-1,-1,-1],"loss_changes":[2.0022621E1,6.323223E-1,7.622196E0,0E0,0E0,7.109501E0,4.8585606E-1,5.37136E0,9.085424E0,5.326078E-1,2.0486116E-1,0E0,0E0,0E0,0E0,0E0,0E0,0E0,0E0],"parents":[2147483647,0,0,1,1,2,2,5,5,6,6,7,7,8,8,9,9,10,10],"right_children":[2,4,6,-1,-1,8,10,12,14,16,18,-1,-1,-1,-1,-1,-1,-1,-1],"split_conditions":[-1.4989556E0,-1.6180148E0,2.3997892E-1,2.809885E-2,1.6122991E-2,-1.099251E0,8.764981E-1,-1.1901015E0,-4.181208E-1,8.622683E-3,-6.727578E-1,-1.6571434E-3,-1.789247E-2,1.5561241E-2,9.092524E-4,-6.9541675E-3,-2.2383656E-3,-5.6927204E-3,-9.836251E-3],"split_indices":[0,0,0,0,0,0,0,0,0,1,1,0,0,0,0,0,0,0,0],"split_type":[0,0,0,0,0,0,0,0,0,0,0,0,0,0,0,0,0,0,0],"sum_hessian":[6.5E2,2.9E1,6.21E2,1.6E1,1.3E1,4.45E2,1.76E2,2.44E2,2.01E2,1.02E2,7.4E1,2.25E2,1.9E1,5E1,1.51E2,6.9E1,3.3E1,2E1,5.4E1],"tree_param":{"num_deleted":"0","num_feature":"3","num_nodes":"19","size_leaf_vector":"1"}},{"base_weights":[1.5199515E-2,8.6128473E-1,-1.8776938E-2,3.420989E-2,6.6289127E-1,5.889491E-1,-6.372262E-2,5.349383E-3,2.0460986E-2,1.8386386E-1,1.414921E0,-2.5580595E-3,-2.3633471E-1,2.7072143E-2,-1.0358911E-2,2.122816E-2,4.88126E-2,-2.632104E-3,9.606095E-3,-8.070237E-3,6.5531785E-4],"categories":[],"categories_nodes":[],"categories_segments":[],"categories_sizes":[],"default_left":[0,0,0,0,0,0,0,0,0,0,0,0,0,0,0,0,0,0,0,0,0],"id":51,"left_children":[1,3,5,-1,7,9,11,-1,-1,13,15,17,19,-1,-1,-1,-1,-1,-1,-1,-1],"loss_changes":[1.8615467E1,6.2810135E-1,1.7054562E1,0E0,3.6070347E-2,1.4127175E1,6.133444E0,0E0,0E0,1.1718311E1,9.496174E-1,1.1849827E1,1.2880754E0,0E0,0E0,0E0,0E0,0E0,0E0,0E0,0E0],"parents":[2147483647,0,0,1,1,2,2,4,4,5,5,6,6,9,9,10,10,11,11,12,12],"right_children":[2,4,6,-1,8,10,12,-1,-1,14,16,18,20,-1,-1,-1,-1,-1,-1,-1,-1],"split_conditions":[-1.5186597E0,-1.6659005E0,-1.3945506E0,3.420989E-2,-1.4500462E0,-1.3129869E0,6.1032194E-1,5.349383E-3,2.0460986E-2,-1.4732922E0,-1.4732922E0,1.2627041E-1,1.1168326E0,2.7072143E-2,-1.0358911E-2,2.122816E-2,4.88126E-2,-2.632104E-3,9.606095E-3,-8.070237E-3,6.5531785E-4],"split_indices":[0,0,2,0,2,0,2,0,0,2,2,2,2,0,0,0,0,0,0,0,0],"split_type":[0,0,0,0,0,0,0,0,0,0,0,0,0,0,0,0,0,0,0,0,0],"sum_hessian":[6.46E2,2.4E1,6.22E2,8E0,1.6E1,4.2E1,5.8E2,1E0,1.5E1,2.9E1,1.3E1,4.29E2,1.51E2,1.2E1,1.7E1,4E0,9E0,3.4E2,8.9E1,1.34E2,1.7E1],"tree_param":{"num_deleted":"0","num_feature":"3","num_nodes":"21","size_leaf_vector":"1"}},{"base_weights":[3.3379777E-3,3.7590876E-1,-7.5924054E-2,2.340887E-1,1.4025785E0,2.7755762E-2,-1.0959041E-1,3.0276718E-2,1.1226472E-1,1.5848589E0,-1.4505994E-2,-4.6022078E-1,1.223083E-3,4.1270652E-4,1.3199072E-2,1.3937438E-2,5.238933E-2,-7.2069825E-3,-1.883958E-2,7.6029473E-3,-5.175071E-3],"categories":[],"categories_nodes":[],"categories_segments":[],"categories_sizes":[],"default_left":[0,0,0,0,0,0,0,0,0,0,0,0,0,0,0,0,0,0,0,0,0],"id":52,"left_children":[1,3,5,7,9,-1,11,-1,13,15,-1,17,19,-1,-1,-1,-1,-1,-1,-1,-1],"loss_changes":[1.9695997E1,1.6707151E1,1.8638554E1,9.707427E0,5.57955E0,0E0,2.071005E1,0E0,2.931559E0,1.54002E0,0E0,4.5731506E0,1.7832623E1,0E0,0E0,0E0,0E0,0E0,0E0,0E0,0E0],"parents":[2147483647,0,0,1,1,2,2,3,3,4,4,6,6,8,8,9,9,11,11,12,12],"right_children":[2,4,6,8,10,-1,12,-1,14,16,-1,18,20,-1,-1,-1,-1,-1,-1,-1,-1],"split_conditions":[-1.3506871E0,-1.2759763E0,-1.4989556E0,-1.4947995E0,-1.3699683E0,2.7755762E-2,-1.1702523E0,3.0276718E-2,-1.3699683E0,-1.4732922E0,-1.4505994E-2,-1.3104224E0,9.197867E-2,4.1270652E-4,1.3199072E-2,1.3937438E-2,5.238933E-2,-7.2069825E-3,-1.883958E-2,7.6029473E-3,-5.175071E-3],"split_indices":[2,0,0,2,2,0,2,0,2,2,0,2,0,0,0,0,0,0,0,0,0],"split_type":[0,0,0,0,0,0,0,0,0,0,0,0,0,0,0,0,0,0,0,0,0],"sum_hessian":[6.65E2,1.16E2,5.49E2,1.03E2,1.3E1,1.7E1,5.32E2,1.3E1,9E1,1.2E1,1E0,1.27E2,4.05E2,7E1,2E1,2E0,1E1,5.6E1,7.1E1,1.65E2,2.4E2],"tree_param":{"num_deleted":"0","num_feature":"3","num_nodes":"21","size_leaf_vector":"1"}},{"base_weights":[4.0490874E-3,7.9394656E-1,-3.2608632E-2,3.7004493E-2,6.9578916E-1,5.3704113E-2,-1.6670066E-1,2.1989597E-2,1.1788876E-2,-1.1726358E-1,2.1398492E-1,-1.074138E-1,-2.8112307E-1,-1.07579406E-4,-1.4777418E-2,2.1547904E-2,4.492028E-3,-1.4879844E-2,-2.444513E-3,-7.5813886E-3,-1.4599137E-2],"categories":[],"categories_nodes":[],"categories_segments":[],"categories_sizes":[],"default_left":[0,0,0,0,0,0,0,0,0,0,0,0,0,0,0,0,0,0,0,0,0],"id":53,"left_children":[1,3,5,-1,7,9,11,-1,-1,13,15,17,19,-1,-1,-1,-1,-1,-1,-1,-1],"loss_changes":[1.8934055E1,3.9292526E-1,7.2426095E0,0E0,4.83799E-3,1.0465574E1,1.6318216E0,0E0,0E0,7.891285E0,6.2752953E0,1.6019588E0,3.6163187E-1,0E0,0E0,0E0,0E0,0E0,0E0,0E0,0E0],"parents":[2147483647,0,0,1,1,2,2,4,4,5,5,6,6,9,9,10,10,11,11,12,12],"right_children":[2,4,6,-1,8,10,12,-1,-1,14,16,18,20,-1,-1,-1,-1,-1,-1,-1,-1],"split_conditions":[-1.4989556E0,-1.759392E0,9.197867E-2,3.7004493E-2,2.704333E-1,-1.251541E0,8.764981E-1,2.1989597E-2,1.1788876E-2,-1.2984594E0,-1.2269468E0,1.2585549E-1,1.3754584E0,-1.07579406E-4,-1.4777418E-2,2.1547904E-2,4.492028E-3,-1.4879844E-2,-2.444513E-3,-7.5813886E-3,-1.4599137E-2],"split_indices":[0,0,0,0,1,0,0,0,0,0,0,0,0,0,0,0,0,0,0,0,0],"split_type":[0,0,0,0,0,0,0,0,0,0,0,0,0,0,0,0,0,0,0,0,0],"sum_hessian":[6.52E2,2.8E1,6.24E2,3E0,2.5E1,3.8E2,2.44E2,2.1E1,4E0,1.84E2,1.96E2,1.62E2,8.2E1,1.42E2,4.2E1,2.1E1,1.75E2,9E0,1.53E2,7.4E1,8E0],"tree_param":{"num_deleted":"0","num_feature":"3","num_nodes":"21","size_leaf_vector":"1"}},{"base_weights":[-8.986801E-3,3.1584647E-1,-8.890869E-2,1.9470677E-1,1.1992998E0,2.704376E-2,-1.1448042E-1,2.8056642E-2,8.8020794E-2,1.5344132E0,-1.957874E-2,-5.0732756E-1,-3.1649064E-2,-6.2157516E-4,1.4086573E-2,1.3227731E-2,5.0794356E-2,-7.4102846E-3,-2.3410758E-2,3.7693333E-2,-1.9012708E-3],"categories":[],"categories_nodes":[],"categories_segments":[],"categories_sizes":[],"default_left":[0,0,0,0,0,0,0,0,0,0,0,0,0,0,0,0,0,0,0,0,0],"id":54,"left_children":[1,3,5,7,9,-1,11,-1,13,15,-1,17,19,-1,-1,-1,-1,-1,-1,-1,-1],"loss_changes":[1.6565424E1,1.3251171E1,1.306981E1,8.7659645E0,1.0310467E1,0E0,1.6253973E1,0E0,4.1170144E0,1.5098839E0,0E0,5.990761E0,1.6998514E1,0E0,0E0,0E0,0E0,0E0,0E0,0E0,0E0],"parents":[2147483647,0,0,1,1,2,2,3,3,4,4,6,6,8,8,9,9,11,11,12,12],"right_children":[2,4,6,8,10,-1,12,-1,14,16,-1,18,20,-1,-1,-1,-1,-1,-1,-1,-1],"split_conditions":[-1.3436751E0,-1.2823884E0,-1.4989556E0,-1.4947995E0,-1.3699683E0,2.704376E-2,-1.2391627E0,2.8056642E-2,-1.3666674E0,-1.4732922E0,-1.957874E-2,-1.3151511E0,-1.2494739E0,-6.2157516E-4,1.4086573E-2,1.3227731E-2,5.0794356E-2,-7.4102846E-3,-2.3410758E-2,3.7693333E-2,-1.9012708E-3],"split_indices":[2,0,0,2,2,0,0,0,2,2,0,0,2,0,0,0,0,0,0,0,0],"split_type":[0,0,0,0,0,0,0,0,0,0,0,0,0,0,0,0,0,0,0,0,0],"sum_hessian":[6.36E2,1.25E2,5.11E2,1.11E2,1.4E1,1.2E1,4.99E2,1.3E1,9.8E1,1.2E1,2E0,8.6E1,4.13E2,7.7E1,2.1E1,2E0,1E1,4.5E1,4.1E1,9E0,4.04E2],"tree_param":{"num_deleted":"0","num_feature":"3","num_nodes":"21","size_leaf_vector":"1"}},{"base_weights":[2.3866221E-3,8.9003557E-1,-2.4601724E-2,2.812659E-2,9.722742E-3,7.124861E-1,-5.6501195E-2,3.8335332E-1,2.592548E-2,-7.2749965E-3,-2.1970984E-1,1.4809503E-2,-9.139769E-3,-2.5843042E-3,7.951286E-3,-7.941725E-3,9.515238E-4],"categories":[],"categories_nodes":[],"categories_segments":[],"categories_sizes":[],"default_left":[0,0,0,0,0,0,0,0,0,0,0,0,0,0,0,0,0],"id":55,"left_children":[1,3,5,-1,-1,7,9,11,-1,13,15,-1,-1,-1,-1,-1,-1],"loss_changes":[1.542572E1,2.0709896E-1,1.4735702E1,0E0,0E0,9.668493E-1,4.8188863E0,9.092505E-1,0E0,9.945343E0,1.5815754E0,0E0,0E0,0E0,0E0,0E0,0E0],"parents":[2147483647,0,0,1,1,2,2,5,5,6,6,7,7,9,9,10,10],"right_children":[2,4,6,-1,-1,8,10,12,-1,14,16,-1,-1,-1,-1,-1,-1],"split_conditions":[-1.4732922E0,-1.4836265E0,-1.4989556E0,2.812659E-2,9.722742E-3,-1.3648432E0,7.477764E-1,-1.5186597E0,2.592548E-2,1.18113235E-1,1.1103395E0,1.4809503E-2,-9.139769E-3,-2.5843042E-3,7.951286E-3,-7.941725E-3,9.515238E-4],"split_indices":[2,2,0,0,0,2,2,0,0,2,2,0,0,0,0,0,0],"split_type":[0,0,0,0,0,0,0,0,0,0,0,0,0,0,0,0,0],"sum_hessian":[6.42E2,1.8E1,6.24E2,1.6E1,2E0,2.5E1,5.99E2,9E0,1.6E1,4.61E2,1.38E2,8E0,1E0,3.58E2,1.03E2,1.17E2,2.1E1],"tree_param":{"num_deleted":"0","num_feature":"3","num_nodes":"17","size_leaf_vector":"1"}},{"base_weights":[1.5802119E-2,3.373521E-1,-5.6853615E-2,2.0545071E-1,1.2148457E0,2.4686132E-2,-8.310594E-2,2.6710575E-2,1.0342908E-1,1.5250771E0,-1.9135479E-2,-3.4045795E-1,4.8213257E-3,2.3737247E-4,1.55068515E-2,1.25846835E-2,5.0231528E-2,-4.6923757E-3,-1.4776334E-2,1.4009516E-2,-2.6454243E-3],"categories":[],"categories_nodes":[],"categories_segments":[],"categories_sizes":[],"default_left":[0,0,0,0,0,0,0,0,0,0,0,0,0,0,0,0,0,0,0,0,0],"id":56,"left_children":[1,3,5,7,9,-1,11,-1,13,15,-1,17,19,-1,-1,-1,-1,-1,-1,-1,-1],"loss_changes":[1.5718745E1,1.4102493E1,1.274744E1,7.5242653E0,1.0168995E1,0E0,1.2085131E1,0E0,3.7872272E0,1.6086273E0,0E0,3.7297125E0,1.7191038E1,0E0,0E0,0E0,0E0,0E0,0E0,0E0,0E0],"parents":[2147483647,0,0,1,1,2,2,3,3,4,4,6,6,8,8,9,9,11,11,12,12],"right_children":[2,4,6,8,10,-1,12,-1,14,16,-1,18,20,-1,-1,-1,-1,-1,-1,-1,-1],"split_conditions":[-1.3506871E0,-1.2759763E0,-1.4989556E0,-1.4836265E0,-1.3699683E0,2.4686132E-2,-1.099251E0,2.6710575E-2,-1.3666674E0,-1.4732922E0,-1.9135479E-2,-1.3097452E0,-3.406035E-1,2.3737247E-4,1.55068515E-2,1.25846835E-2,5.0231528E-2,-4.6923757E-3,-1.4776334E-2,1.4009516E-2,-2.6454243E-3],"split_indices":[2,0,0,2,2,0,0,0,2,2,0,2,0,0,0,0,0,0,0,0,0],"split_type":[0,0,0,0,0,0,0,0,0,0,0,0,0,0,0,0,0,0,0,0,0],"sum_hessian":[6.71E2,1.23E2,5.48E2,1.08E2,1.5E1,1.5E1,5.33E2,1.3E1,9.5E1,1.3E1,2E0,1.35E2,3.98E2,7.8E1,1.7E1,2E0,1.1E1,6.2E1,7.3E1,6.6E1,3.32E2],"tree_param":{"num_deleted":"0","num_feature":"3","num_nodes":"21","size_leaf_vector":"1"}},{"base_weights":[-4.0995376E-3,7.801197E-1,-3.0698093E-2,2.5134757E-2,9.762447E-3,2.5629476E-2,-2.1335952E-1,-4.2356007E-2,3.161715E-1,-2.4940823E-1,-9.733472E-3,1.3992786E-3,-1.4196683E-2,1.39298625E-2,1.385787E-3,-6.5130107E-3,-1.1679931E-2,1.8784392E-3,-5.521366E-3],"categories":[],"categories_nodes":[],"categories_segments":[],"categories_sizes":[],"default_left":[0,0,0,0,0,0,0,0,0,0,0,0,0,0,0,0,0,0,0],"id":57,"left_children":[1,3,5,-1,-1,7,9,11,13,15,17,-1,-1,-1,-1,-1,-1,-1,-1],"loss_changes":[1.3352912E1,2.7837753E-1,6.374282E0,0E0,0E0,9.376143E0,1.0692787E0,1.4785494E1,3.5784874E0,4.7603178E-1,3.015804E-1,0E0,0E0,0E0,0E0,0E0,0E0,0E0,0E0],"parents":[2147483647,0,0,1,1,2,2,5,5,6,6,7,7,8,8,9,9,10,10],"right_children":[2,4,6,-1,-1,8,10,12,14,16,18,-1,-1,-1,-1,-1,-1,-1,-1],"split_conditions":[-1.4732922E0,-1.4836265E0,6.9297546E-1,2.5134757E-2,9.762447E-3,1.2167422E-1,1.1074978E0,-2.9880747E-1,1.7279483E-1,6.750716E-1,-6.9993365E-1,1.3992786E-3,-1.4196683E-2,1.39298625E-2,1.385787E-3,-6.5130107E-3,-1.1679931E-2,1.8784392E-3,-5.521366E-3],"split_indices":[2,2,2,0,0,2,2,2,2,1,1,0,0,0,0,0,0,0,0],"split_type":[0,0,0,0,0,0,0,0,0,0,0,0,0,0,0,0,0,0,0],"sum_hessian":[6.38E2,2E1,6.18E2,1.7E1,3E0,4.73E2,1.45E2,3.84E2,8.9E1,1.23E2,2.2E1,3.19E2,6.5E1,5.7E1,3.2E1,1.02E2,2.1E1,1.6E1,6E0],"tree_param":{"num_deleted":"0","num_feature":"3","num_nodes":"19","size_leaf_vector":"1"}},{"base_weights":[1.4568822E-3,3.2750297E-1,-7.148547E-2,2.6389077E-1,1.1612328E0,-2.7594852E-1,-3.440861E-4,2.5154902E-2,1.6433722E-1,7.767046E-3,3.7594542E-2,-1.5478712E-1,-4.6636406E-1,1.3608879E-1,-1.9855572E-1,9.2808984E-4,8.2216365E-3,2.016355E-3,-1.2758743E-2,-1.629189E-2,-6.5817237E-3,1.3715852E-2,1.9317343E-3,-7.095319E-3,1.4084605E-4],"categories":[],"categories_nodes":[],"categories_segments":[],"categories_sizes":[],"default_left":[0,0,0,0,0,0,0,0,0,0,0,0,0,0,0,0,0,0,0,0,0,0,0,0,0],"id":58,"left_children":[1,3,5,7,9,11,13,-1,15,-1,-1,17,19,21,23,-1,-1,-1,-1,-1,-1,-1,-1,-1,-1],"loss_changes":[1.5220472E1,5.8987017E0,7.6073494E0,6.15465E0,3.3908463E-1,3.0424004E0,1.0546586E1,0E0,1.3819795E0,0E0,0E0,5.0729256E0,8.658724E-1,5.288773E0,1.227694E0,0E0,0E0,0E0,0E0,0E0,0E0,0E0,0E0,0E0,0E0],"parents":[2147483647,0,0,1,1,2,2,3,3,4,4,5,5,6,6,8,8,11,11,12,12,13,13,14,14],"right_children":[2,4,6,8,10,12,14,-1,16,-1,-1,18,20,22,24,-1,-1,-1,-1,-1,-1,-1,-1,-1,-1],"split_conditions":[-1.355611E0,1.2320752E0,-1.1802367E0,-1.4836265E0,-1.4836265E0,1.5483026E-1,4.1648325E-1,2.5154902E-2,-1.3867502E0,7.767046E-3,3.7594542E-2,-1.3072718E0,9.8793674E-1,-7.849087E-1,1.1074978E0,9.2808984E-4,8.2216365E-3,2.016355E-3,-1.2758743E-2,-1.629189E-2,-6.5817237E-3,1.3715852E-2,1.9317343E-3,-7.095319E-3,1.4084605E-4],"split_indices":[2,1,2,2,2,1,2,0,2,0,0,2,1,2,2,0,0,0,0,0,0,0,0,0,0],"split_type":[0,0,0,0,0,0,0,0,0,0,0,0,0,0,0,0,0,0,0,0,0,0,0,0,0],"sum_hessian":[6.38E2,1.16E2,5.22E2,1.09E2,7E0,1.34E2,3.88E2,1.5E1,9.4E1,1E0,6E0,8.3E1,5.1E1,2.3E2,1.58E2,4.3E1,5.1E1,4.6E1,3.7E1,3.8E1,1.3E1,4.1E1,1.89E2,1.33E2,2.5E1],"tree_param":{"num_deleted":"0","num_feature":"3","num_nodes":"25","size_leaf_vector":"1"}},{"base_weights":[9.019598E-3,7.6388544E-1,-2.2753106E-2,2.9908918E-2,5.8184594E-1,8.021679E-1,-5.1683854E-2,4.83483E-3,1.7941985E-2,2.5028775E-2,9.939667E-3,-2.4679536E-3,-2.1118172E-1,-5.363982E-3,3.2465076E-3,-7.673486E-3,-1.2208802E-4],"categories":[],"categories_nodes":[],"categories_segments":[],"categories_sizes":[],"default_left":[0,0,0,0,0,0,0,0,0,0,0,0,0,0,0,0,0],"id":59,"left_children":[1,3,5,-1,7,9,11,-1,-1,-1,-1,13,15,-1,-1,-1,-1],"loss_changes":[1.5439176E1,5.230875E-1,1.4790389E1,0E0,1.9616127E-2,4.1222572E-2,4.693678E0,0E0,0E0,0E0,0E0,8.958239E0,1.3014374E0,0E0,0E0,0E0,0E0],"parents":[2147483647,0,0,1,1,2,2,4,4,5,5,6,6,11,11,12,12],"right_children":[2,4,6,-1,8,10,12,-1,-1,-1,-1,14,16,-1,-1,-1,-1],"split_conditions":[-1.5186597E0,-1.6659005E0,-1.4732922E0,2.9908918E-2,-1.4500462E0,-1.4836265E0,7.477764E-1,4.83483E-3,1.7941985E-2,2.5028775E-2,9.939667E-3,-1.2391627E0,1.1074978E0,-5.363982E-3,3.2465076E-3,-7.673486E-3,-1.2208802E-4],"split_indices":[0,0,2,0,2,2,2,0,0,0,0,0,2,0,0,0,0],"split_type":[0,0,0,0,0,0,0,0,0,0,0,0,0,0,0,0,0],"sum_hessian":[6.42E2,2.5E1,6.17E2,9E0,1.6E1,2E1,5.97E2,1E0,1.5E1,1.8E1,2E0,4.57E2,1.4E2,1.76E2,2.81E2,1.15E2,2.5E1],"tree_param":{"num_deleted":"0","num_feature":"3","num_nodes":"17","size_leaf_vector":"1"}},{"base_weights":[1.4395488E-2,7.1876335E-1,-1.8573968E-2,2.8275048E-2,1.654203E-2,6.1596524E-2,-1.4928187E-1,-5.1172882E-2,2.46549E-1,-1.6934082E-2,-1.3412562E-1,-2.4085515E-3,1.6865645E-2,1.7203275E-2,4.0305764E-3,-2.415377E-3,-7.1674064E-3],"categories":[],"categories_nodes":[],"categories_segments":[],"categories_sizes":[],"default_left":[0,0,0,0,0,0,0,0,0,0,0,0,0,0,0,0,0],"id":60,"left_children":[1,3,5,-1,-1,7,9,11,13,-1,15,-1,-1,-1,-1,-1,-1],"loss_changes":[1.5061611E1,5.6621933E-1,6.506123E0,0E0,0E0,8.042553E0,1.4093647E0,4.33064E0,5.2776947E0,0E0,1.2672868E0,0E0,0E0,0E0,0E0,0E0,0E0],"parents":[2147483647,0,0,1,1,2,2,5,5,6,6,7,7,8,8,10,10],"right_children":[2,4,6,-1,-1,8,10,12,14,-1,16,-1,-1,-1,-1,-1,-1],"split_conditions":[-1.4989556E0,-1.6659005E0,9.197867E-2,2.8275048E-2,1.654203E-2,-1.125963E0,1.2585549E-1,1.3642052E0,-7.566038E-1,-1.6934082E-2,8.764981E-1,-2.4085515E-3,1.6865645E-2,1.7203275E-2,4.0305764E-3,-2.415377E-3,-7.1674064E-3],"split_indices":[0,0,0,0,0,0,0,1,0,0,0,0,0,0,0,0,0],"split_type":[0,0,0,0,0,0,0,0,0,0,0,0,0,0,0,0,0],"sum_hessian":[6.47E2,2.8E1,6.19E2,1E1,1.8E1,3.84E2,2.35E2,2.39E2,1.45E2,7E0,2.28E2,2.29E2,1E1,3.6E1,1.09E2,1.52E2,7.6E1],"tree_param":{"num_deleted":"0","num_feature":"3","num_nodes":"17","size_leaf_vector":"1"}},{"base_weights":[-1.8135622E-2,7.017287E-1,-4.981295E-2,2.8719278E-2,1.6311934E-2,1.8868286E-2,-1.6750546E-1,-1.0156387E-1,2.0056026E-1,-4.6381447E-1,-1.4575008E-1,-1.1055062E-3,-1.5724357E-2,1.8373232E-2,1.846573E-3,2.7094749E-3,-1.5295389E-2,1.3891924E-3,-5.329865E-3],"categories":[],"categories_nodes":[],"categories_segments":[],"categories_sizes":[],"default_left":[0,0,0,0,0,0,0,0,0,0,0,0,0,0,0,0,0,0,0],"id":61,"left_children":[1,3,5,-1,-1,7,9,11,13,15,17,-1,-1,-1,-1,-1,-1,-1,-1],"loss_changes":[1.4606314E1,5.697708E-1,4.958203E0,0E0,0E0,8.510413E0,1.389266E0,6.379834E0,8.836775E0,4.2866206E-1,1.3075595E0,0E0,0E0,0E0,0E0,0E0,0E0,0E0,0E0],"parents":[2147483647,0,0,1,1,2,2,5,5,6,6,7,7,8,8,9,9,10,10],"right_children":[2,4,6,-1,-1,8,10,12,14,16,18,-1,-1,-1,-1,-1,-1,-1,-1],"split_conditions":[-1.5186597E0,-1.6659005E0,9.197867E-2,2.8719278E-2,1.6311934E-2,-1.0114609E0,1.4271075E-1,-1.2280877E0,-4.944431E-1,-1.8730843E-1,2.3997892E-1,-1.1055062E-3,-1.5724357E-2,1.8373232E-2,1.846573E-3,2.7094749E-3,-1.5295389E-2,1.3891924E-3,-5.329865E-3],"split_indices":[0,0,0,0,0,0,0,0,0,1,0,0,0,0,0,0,0,0,0],"split_type":[0,0,0,0,0,0,0,0,0,0,0,0,0,0,0,0,0,0,0],"sum_hessian":[6.38E2,2.6E1,6.12E2,8E0,1.8E1,3.87E2,2.25E2,2.33E2,1.54E2,1.4E1,2.11E2,2.03E2,3E1,3.8E1,1.16E2,1E0,1.3E1,3E1,1.81E2],"tree_param":{"num_deleted":"0","num_feature":"3","num_nodes":"19","size_leaf_vector":"1"}},{"base_weights":[2.1217763E-2,5.5282557E-1,-2.2893915E-2,2.966279E-1,1.2394786E0,7.2958744E-1,-4.7805347E-2,2.4843253E-2,-6.2886715E-2,1.5392117E-2,4.2182818E-2,2.8411973E-2,1.5714088E-2,1.7443467E-2,-1.4105237E-1,1.3195126E-2,-7.985747E-3,-2.1436687E-3,2.7004087E-2,-2.2398867E-2,-3.0720471E-3],"categories":[],"categories_nodes":[],"categories_segments":[],"categories_sizes":[],"default_left":[0,0,0,0,0,0,0,0,0,0,0,0,0,0,0,0,0,0,0,0,0],"id":62,"left_children":[1,3,5,7,9,11,13,-1,15,-1,-1,-1,-1,17,19,-1,-1,-1,-1,-1,-1],"loss_changes":[1.4997279E1,8.252362E0,1.1113403E1,7.121854E0,8.519745E-1,3.5424423E-1,3.4887395E0,0E0,2.4678261E0,0E0,0E0,0E0,0E0,2.6587378E1,5.447361E0,0E0,0E0,0E0,0E0,0E0,0E0],"parents":[2147483647,0,0,1,1,2,2,3,3,4,4,5,5,6,6,8,8,13,13,14,14],"right_children":[2,4,6,8,10,12,14,-1,16,-1,-1,-1,-1,18,20,-1,-1,-1,-1,-1,-1],"split_conditions":[-1.3945506E0,-1.2984594E0,-1.5186597E0,-1.4836265E0,-1.4732922E0,-1.7027106E0,6.946049E-2,2.4843253E-2,-1.5186597E0,1.5392117E-2,4.2182818E-2,2.8411973E-2,1.5714088E-2,1.18113235E-1,4.8474167E-2,1.3195126E-2,-7.985747E-3,-2.1436687E-3,2.7004087E-2,-2.2398867E-2,-3.0720471E-3],"split_indices":[2,0,0,2,2,0,0,0,0,0,0,0,0,2,2,0,0,0,0,0,0],"split_type":[0,0,0,0,0,0,0,0,0,0,0,0,0,0,0,0,0,0,0,0,0],"sum_hessian":[6.38E2,4.8E1,5.9E2,3.6E1,1.2E1,1.8E1,5.72E2,1.4E1,2.2E1,3E0,9E0,7E0,1.1E1,3.37E2,2.35E2,6E0,1.6E1,3.07E2,3E1,1.3E1,2.22E2],"tree_param":{"num_deleted":"0","num_feature":"3","num_nodes":"21","size_leaf_vector":"1"}},{"base_weights":[1.3501893E-2,6.186626E-1,-1.2145795E-2,6.555876E-1,7.5503387E-3,5.742588E-2,-1.335314E-1,2.4418723E-2,1.6062856E-2,-8.032276E-2,1.6597879E-1,-4.7964054E-1,-1.1681224E-1,9.305765E-5,-1.5946465E-2,3.4638744E-2,4.2664506E-3,-2.7448735E-3,-1.6957192E-2,-1.7034846E-3,-6.9127586E-3],"categories":[],"categories_nodes":[],"categories_segments":[],"categories_sizes":[],"default_left":[0,0,0,0,0,0,0,0,0,0,0,0,0,0,0,0,0,0,0,0,0],"id":63,"left_children":[1,3,5,7,-1,9,11,-1,-1,13,15,17,19,-1,-1,-1,-1,-1,-1,-1,-1],"loss_changes":[9.925416E0,1.8732738E-1,5.1928983E0,1.865387E-3,0E0,5.8599615E0,1.2401838E0,0E0,0E0,6.5139556E0,4.9809704E0,2.8053188E-1,1.4532423E0,0E0,0E0,0E0,0E0,0E0,0E0,0E0,0E0],"parents":[2147483647,0,0,1,1,2,2,3,3,5,5,6,6,9,9,10,10,11,11,12,12],"right_children":[2,4,6,8,-1,10,12,-1,-1,14,16,18,20,-1,-1,-1,-1,-1,-1,-1,-1],"split_conditions":[-1.5186597E0,2.704333E-1,9.197867E-2,-1.6659005E0,7.5503387E-3,-1.2701093E0,1.2585549E-1,2.4418723E-2,1.6062856E-2,-1.2984594E0,-1.2650603E0,-1.1638048E-1,8.764981E-1,9.305765E-5,-1.5946465E-2,3.4638744E-2,4.2664506E-3,-2.7448735E-3,-1.6957192E-2,-1.7034846E-3,-6.9127586E-3],"split_indices":[0,1,0,0,0,0,0,0,0,0,0,1,0,0,0,0,0,0,0,0,0],"split_type":[0,0,0,0,0,0,0,0,0,0,0,0,0,0,0,0,0,0,0,0,0],"sum_hessian":[6.38E2,2.5E1,6.13E2,2.2E1,3E0,3.9E2,2.23E2,7E0,1.5E1,1.72E2,2.18E2,9E0,2.14E2,1.46E2,2.6E1,4E0,2.14E2,2E0,7E0,1.41E2,7.3E1],"tree_param":{"num_deleted":"0","num_feature":"3","num_nodes":"21","size_leaf_vector":"1"}},{"base_weights":[5.9349076E-3,6.914487E-1,-1.998362E-2,2.3793785E-2,1.1668585E-2,4.2131495E-2,-1.6459745E-1,-5.6166694E-2,1.5339723E-1,-1.5118316E-1,-4.190662E-1,-1.2359898E-4,-1.1683868E-2,1.8168205E-2,1.382779E-3,1.6764984E-3,-4.792088E-3,-1.4975217E-2,-5.824141E-3],"categories":[],"categories_nodes":[],"categories_segments":[],"categories_sizes":[],"default_left":[0,0,0,0,0,0,0,0,0,0,0,0,0,0,0,0,0,0,0],"id":64,"left_children":[1,3,5,-1,-1,7,9,11,13,15,17,-1,-1,-1,-1,-1,-1,-1,-1],"loss_changes":[1.1704837E1,4.2968082E-1,5.710953E0,0E0,0E0,4.87568E0,5.886264E-1,4.1096215E0,1.0113638E1,3.330307E-1,6.525767E-2,0E0,0E0,0E0,0E0,0E0,0E0,0E0,0E0],"parents":[2147483647,0,0,1,1,2,2,5,5,6,6,7,7,8,8,9,9,10,10],"right_children":[2,4,6,-1,-1,8,10,12,14,16,18,-1,-1,-1,-1,-1,-1,-1,-1],"split_conditions":[-1.4989556E0,-8.286446E-2,2.7458143E-1,2.3793785E-2,1.1668585E-2,-1.125963E0,1.3754584E0,-1.2269468E0,-5.381865E-1,-1.9405661E0,1.995282E0,-1.2359898E-4,-1.1683868E-2,1.8168205E-2,1.382779E-3,1.6764984E-3,-4.792088E-3,-1.4975217E-2,-5.824141E-3],"split_indices":[0,1,0,0,0,0,0,0,0,1,1,0,0,0,0,0,0,0,0],"split_type":[0,0,0,0,0,0,0,0,0,0,0,0,0,0,0,0,0,0,0],"sum_hessian":[6.57E2,2.3E1,6.34E2,1.6E1,7E0,4.44E2,1.9E2,2.36E2,2.08E2,1.82E2,8E0,2.05E2,3.1E1,3.9E1,1.69E2,7E0,1.75E2,5E0,3E0],"tree_param":{"num_deleted":"0","num_feature":"3","num_nodes":"19","size_leaf_vector":"1"}},{"base_weights":[6.668177E-3,6.235151E-1,-2.0735664E-2,2.7885927E-2,4.9181867E-1,7.274188E-1,-4.2184804E-2,3.783288E-3,1.511396E-2,7.982322E-1,8.931513E-3,1.633357E-1,-7.8393415E-2,2.4751242E-2,6.745682E-3,-1.4359367E-3,4.567578E-2,-9.770592E-3,3.6140956E-4],"categories":[],"categories_nodes":[],"categories_segments":[],"categories_sizes":[],"default_left":[0,0,0,0,0,0,0,0,0,0,0,0,0,0,0,0,0,0,0],"id":65,"left_children":[1,3,5,-1,7,9,11,-1,-1,13,-1,15,17,-1,-1,-1,-1,-1,-1],"loss_changes":[1.073005E1,6.309719E-1,9.787425E0,0E0,2.8470993E-2,2.796402E-1,4.4182386E0,0E0,0E0,2.9690742E-2,0E0,2.5621336E1,1.1276022E1,0E0,0E0,0E0,0E0,0E0,0E0],"parents":[2147483647,0,0,1,1,2,2,4,4,5,5,6,6,9,9,11,11,12,12],"right_children":[2,4,6,-1,8,10,12,-1,-1,14,-1,16,18,-1,-1,-1,-1,-1,-1],"split_conditions":[-1.5186597E0,-1.7027106E0,-1.4732922E0,2.7885927E-2,-1.4500462E0,-1.4836265E0,-1.3624591E0,3.783288E-3,1.511396E-2,-1.2902079E0,8.931513E-3,-1.2823884E0,-1.1802367E0,2.4751242E-2,6.745682E-3,-1.4359367E-3,4.567578E-2,-9.770592E-3,3.6140956E-4],"split_indices":[0,0,2,0,2,2,2,0,0,0,0,0,2,0,0,0,0,0,0],"split_type":[0,0,0,0,0,0,0,0,0,0,0,0,0,0,0,0,0,0,0],"sum_hessian":[6.33E2,2.6E1,6.07E2,6E0,2E1,1.6E1,5.91E2,1E0,1.9E1,1.3E1,3E0,8.8E1,5.03E2,1.2E1,1E0,7.7E1,1.1E1,1.34E2,3.69E2],"tree_param":{"num_deleted":"0","num_feature":"3","num_nodes":"19","size_leaf_vector":"1"}},{"base_weights":[-1.5294273E-2,6.381406E-1,-4.15754E-2,2.90056E-2,1.588464E-2,2.4597925E-1,-1.0056613E-1,7.7930965E-2,8.840759E-1,-3.0378893E-1,-2.6304094E-2,2.155561E-2,-2.2147561E-4,3.193998E-2,-1.8436514E-2,-2.494527E-3,-1.4480669E-2,1.1024897E-2,-3.3154814E-3],"categories":[],"categories_nodes":[],"categories_segments":[],"categories_sizes":[],"default_left":[0,0,0,0,0,0,0,0,0,0,0,0,0,0,0,0,0,0,0],"id":66,"left_children":[1,3,5,-1,-1,7,9,11,13,15,17,-1,-1,-1,-1,-1,-1,-1,-1],"loss_changes":[1.1103118E1,3.8095093E-1,1.0558797E1,0E0,0E0,1.1297594E1,7.7793455E0,4.6506324E0,6.608309E0,5.4070215E0,1.2609287E1,0E0,0E0,0E0,0E0,0E0,0E0,0E0,0E0],"parents":[2147483647,0,0,1,1,2,2,5,5,6,6,7,7,8,8,9,9,10,10],"right_children":[2,4,6,-1,-1,8,10,12,14,16,18,-1,-1,-1,-1,-1,-1,-1,-1],"split_conditions":[-1.4989556E0,-1.759392E0,-1.355611E0,2.90056E-2,1.588464E-2,-1.305196E0,-1.125963E0,-1.4836265E0,-1.3624591E0,-1.3104224E0,-3.406035E-1,2.155561E-2,-2.2147561E-4,3.193998E-2,-1.8436514E-2,-2.494527E-3,-1.4480669E-2,1.1024897E-2,-3.3154814E-3],"split_indices":[0,0,2,0,0,0,0,2,2,2,0,0,0,0,0,0,0,0,0],"split_type":[0,0,0,0,0,0,0,0,0,0,0,0,0,0,0,0,0,0,0],"sum_hessian":[6.44E2,