{"learner":{"attributes":{"scikit_learn":"{\"_estimator_type\": \"regressor\"}"},"feature_names":[],"feature_types":[],"gradient_booster":{"model":{"cats":{"enc":[],"feature_segments":[],"sorted_idx":[]},"gbtree_model_param":{"num_parallel_tree":"1","num_trees":"400"},"iteration_indptr":[0,1,2,3,4,5,6,7,8,9,10,11,12,13,14,15,16,17,18,19,20,21,22,23,24,25,26,27,28,29,30,31,32,33,34,35,36,37,38,39,40,41,42,43,44,45,46,47,48,49,50,51,52,53,54,55,56,57,58,59,60,61,62,63,64,65,66,67,68,69,70,71,72,73,74,75,76,77,78,79,80,81,82,83,84,85,86,87,88,89,90,91,92,93,94,95,96,97,98,99,100,101,102,103,104,105,106,107,108,109,110,111,112,113,114,115,116,117,118,119,120,121,122,123,124,125,126,127,128,129,130,131,132,133,134,135,136,137,138,139,140,141,142,143,144,145,146,147,148,149,150,151,152,153,154,155,156,157,158,159,160,161,162,163,164,165,166,167,168,169,170,171,172,173,174,175,176,177,178,179,180,181,182,183,184,185,186,187,188,189,190,191,192,193,194,195,196,197,198,199,200,201,202,203,204,205,206,207,208,209,210,211,212,213,214,215,216,217,218,219,220,221,222,223,224,225,226,227,228,229,230,231,232,233,234,235,236,237,238,239,240,241,242,243,244,245,246,247,248,249,250,251,252,253,254,255,256,257,258,259,260,261,262,263,264,265,266,267,268,269,270,271,272,273,274,275,276,277,278,279,280,281,282,283,284,285,286,287,288,289,290,291,292,293,294,295,296,297,298,299,300,301,302,303,304,305,306,307,308,309,310,311,312,313,314,315,316,317,318,319,320,321,322,323,324,325,326,327,328,329,330,331,332,333,334,335,336,337,338,339,340,341,342,343,344,345,346,347,348,349,350,351,352,353,354,355,356,357,358,359,360,361,362,363,364,365,366,367,368,369,370,371,372,373,374,375,376,377,378,379,380,381,382,383,384,385,386,387,388,389,390,391,392,393,394,395,396,397,398,399,400],"tree_info":[0,0,0,0,0,0,0,0,0,0,0,0,0,0,0,0,0,0,0,0,0,0,0,0,0,0,0,0,0,0,0,0,0,0,0,0,0,0,0,0,0,0,0,0,0,0,0,0,0,0,0,0,0,0,0,0,0,0,0,0,0,0,0,0,0,0,0,0,0,0,0,0,0,0,0,0,0,0,0,0,0,0,0,0,0,0,0,0,0,0,0,0,0,0,0,0,0,0,0,0,0,0,0,0,0,0,0,0,0,0,0,0,0,0,0,0,0,0,0,0,0,0,0,0,0,0,0,0,0,0,0,0,0,0,0,0,0,0,0,0,0,0,0,0,0,0,0,0,0,0,0,0,0,0,0,0,0,0,0,0,0,0,0,0,0,0,0,0,0,0,0,0,0,0,0,0,0,0,0,0,0,0,0,0,0,0,0,0,0,0,0,0,0,0,0,0,0,0,0,0,0,0,0,0,0,0,0,0,0,0,0,0,0,0,0,0,0,0,0,0,0,0,0,0,0,0,0,0,0,0,0,0,0,0,0,0,0,0,0,0,0,0,0,0,0,0,0,0,0,0,0,0,0,0,0,0,0,0,0,0,0,0,0,0,0,0,0,0,0,0,0,0,0,0,0,0,0,0,0,0,0,0,0,0,0,0,0,0,0,0,0,0,0,0,0,0,0,0,0,0,0,0,0,0,0,0,0,0,0,0,0,0,0,0,0,0,0,0,0,0,0,0,0,0,0,0,0,0,0,0,0,0,0,0,0,0,0,0,0,0,0,0,0,0,0,0,0,0,0,0,0,0,0,0,0,0,0,0,0,0,0,0,0,0,0,0,0,0,0,0,0,0,0,0,0,0,0,0,0,0,0,0,0,0,0,0,0,0,0,0,0,0,0,0,0,0,0,0,0,0],"trees":[{"base_weights":[6.125981E-3,1.7452763E-1,-6.2327385E-1,-1.2712775E-1,3.3291596E-1,-9.9328136E-1,2.0867942E-1,2.7130595E-1,-3.6078396E-1,5.7438534E-1,1.8529914E-1,-1.1711785E0,1.9078841E-2,2.9442688E-2,-5.522536E-2,-3.7662084E-3,9.17677E-3,-1.3203635E-2,-1.0394343E-3,1.821369E-2,-2.2068953E-3,-7.0345965E-3,1.1771677E-2,-4.1306406E-2,-2.0120587E-2,-1.0627114E-2,1.7250046E-2],"categories":[],"categories_nodes":[],"categories_segments":[],"categories_sizes":[],"default_left":[0,0,0,0,0,0,0,0,0,0,0,0,0,0,0,0,0,0,0,0,0,0,0,0,0,0,0],"id":0,"left_children":[1,3,5,7,9,11,13,15,17,19,21,23,-1,-1,25,-1,-1,-1,-1,-1,-1,-1,-1,-1,-1,-1,-1],"loss_changes":[6.879157E1,2.4505016E1,4.237985E1,1.6575966E1,1.187027E1,2.8279388E1,8.823221E0,9.4428396E-1,2.88272E0,2.7386246E0,1.8348036E1,7.930435E0,0E0,0E0,6.4223814E0,0E0,0E0,0E0,0E0,0E0,0E0,0E0,0E0,0E0,0E0,0E0,0E0],"parents":[2147483647,0,0,1,1,2,2,3,3,4,4,5,5,6,6,7,7,8,8,9,9,10,10,11,11,14,14],"right_children":[2,4,6,8,10,12,14,16,18,20,22,24,-1,-1,26,-1,-1,-1,-1,-1,-1,-1,-1,-1,-1,-1,-1],"split_conditions":[-3.287106E-1,-7.6664966E-1,7.283869E-1,-1.0496264E0,-6.23061E-1,-3.4558352E-2,-1.765345E-1,-2.2829387E0,1.1714216E0,1.0079267E0,-5.5552316E-1,-1.1147337E-1,1.9078841E-2,2.9442688E-2,-7.690464E-3,-3.7662084E-3,9.17677E-3,-1.3203635E-2,-1.0394343E-3,1.821369E-2,-2.2068953E-3,-7.0345965E-3,1.1771677E-2,-4.1306406E-2,-2.0120587E-2,-1.0627114E-2,1.7250046E-2],"split_indices":[0,0,1,0,0,0,0,1,1,1,0,0,0,0,0,0,0,0,0,0,0,0,0,0,0,0,0],"split_type":[0,0,0,0,0,0,0,0,0,0,0,0,0,0,0,0,0,0,0,0,0,0,0,0,0,0,0],"sum_hessian":[6.47E2,5.11E2,1.36E2,1.76E2,3.35E2,9.4E1,4.2E1,6.5E1,1.11E2,1.26E2,2.09E2,8.5E1,9E0,1E1,3.2E1,5E0,6E1,8.9E1,2.2E1,1.2E2,6E0,6.9E1,1.4E2,5.9E1,2.6E1,2.2E1,1E1],"tree_param":{"num_deleted":"0","num_feature":"3","num_nodes":"27","size_leaf_vector":"1"}},{"base_weights":[1.3265563E-2,1.8217812E-1,-6.090114E-1,-1.2440733E-1,3.6045736E-1,-1.4529322E0,-2.286237E-1,2.798853E-1,-3.645785E-1,5.629676E-1,2.2874394E-1,-4.6986114E-2,1.7382734E-2,-4.5651555E-1,1.8535998E-2,-2.3749461E-3,9.427389E-3,-1.4180666E-2,-2.4119974E-3,1.7848682E-2,-2.1119881E-3,-4.331114E-3,1.19970525E-2,-6.5306537E-3,-5.6090645E-2],"categories":[],"categories_nodes":[],"categories_segments":[],"categories_sizes":[],"default_left":[0,0,0,0,0,0,0,0,0,0,0,0,0,0,0,0,0,0,0,0,0,0,0,0,0],"id":1,"left_children":[1,3,5,7,9,11,13,15,17,19,21,-1,-1,23,-1,-1,-1,-1,-1,-1,-1,-1,-1,-1,-1],"loss_changes":[6.84327E1,2.802965E1,4.4289204E1,1.8453833E1,8.513382E0,1.08064575E1,1.8994167E1,9.008279E-1,3.6179934E0,2.614952E0,1.2702302E1,0E0,0E0,2.5580797E1,0E0,0E0,0E0,0E0,0E0,0E0,0E0,0E0,0E0,0E0,0E0],"parents":[2147483647,0,0,1,1,2,2,3,3,4,4,5,5,6,6,7,7,8,8,9,9,10,10,13,13],"right_children":[2,4,6,8,10,12,14,16,18,20,22,-1,-1,24,-1,-1,-1,-1,-1,-1,-1,-1,-1,-1,-1],"split_conditions":[-3.287106E-1,-7.758021E-1,-4.32494E-1,-1.0588435E0,-6.23061E-1,-8.7796405E-2,-3.4558352E-2,-2.2829387E0,8.961702E-1,1.0079267E0,-5.5552316E-1,-4.6986114E-2,1.7382734E-2,-6.043153E-2,1.8535998E-2,-2.3749461E-3,9.427389E-3,-1.4180666E-2,-2.4119974E-3,1.7848682E-2,-2.1119881E-3,-4.331114E-3,1.19970525E-2,-6.5306537E-3,-5.6090645E-2],"split_indices":[0,0,1,0,0,0,0,1,1,1,0,0,0,0,0,0,0,0,0,0,0,0,0,0,0],"split_type":[0,0,0,0,0,0,0,0,0,0,0,0,0,0,0,0,0,0,0,0,0,0,0,0,0],"sum_hessian":[6.49E2,5.11E2,1.38E2,1.88E2,3.23E2,4.2E1,9.6E1,7E1,1.18E2,1.26E2,1.97E2,4E1,2E0,7.6E1,2E1,6E0,6.4E1,8.5E1,3.3E1,1.2E2,6E0,6.2E1,1.35E2,6.6E1,1E1],"tree_param":{"num_deleted":"0","num_feature":"3","num_nodes":"25","size_leaf_vector":"1"}},{"base_weights":[4.4019837E-3,1.4785792E-1,-5.605594E-1,-9.220859E-2,2.7762777E-1,-9.428465E-1,3.1360054E-1,2.7387488E-1,-3.2433254E-1,5.3168434E-1,8.995472E-2,-1.1888171E0,1.8165117E-2,1.3699377E-1,2.7200738E-2,1.031948E-2,2.4421872E-3,-1.2083823E-2,-7.918658E-4,1.6635723E-2,-2.1247247E-3,-4.51041E-3,1.642049E-2,-4.589997E-2,-3.0265424E-2,1.5241711E-2,-1.8527603E-2],"categories":[],"categories_nodes":[],"categories_segments":[],"categories_sizes":[],"default_left":[0,0,0,0,0,0,0,0,0,0,0,0,0,0,0,0,0,0,0,0,0,0,0,0,0,0,0],"id":2,"left_children":[1,3,5,7,9,11,13,15,17,19,21,23,-1,25,-1,-1,-1,-1,-1,-1,-1,-1,-1,-1,-1,-1,-1],"loss_changes":[5.1628815E1,1.5851525E1,4.3404907E1,1.5299663E1,1.5686436E1,3.4996223E1,4.065543E0,9.165468E-1,2.5607948E0,1.9658356E0,2.1075634E1,3.245842E0,0E0,9.273679E0,0E0,0E0,0E0,0E0,0E0,0E0,0E0,0E0,0E0,0E0,0E0,0E0,0E0],"parents":[2147483647,0,0,1,1,2,2,3,3,4,4,5,5,6,6,7,7,8,8,9,9,10,10,11,11,13,13],"right_children":[2,4,6,8,10,12,14,16,18,20,22,24,-1,26,-1,-1,-1,-1,-1,-1,-1,-1,-1,-1,-1,-1,-1],"split_conditions":[-3.5539535E-1,-7.6664966E-1,7.490951E-1,-1.039157E0,-6.038773E-1,-3.4558352E-2,2.2429242E0,-1.0947919E0,1.1714216E0,1.365644E0,2.3641838E-1,-6.775602E-1,1.8165117E-2,1.4010457E0,2.7200738E-2,1.031948E-2,2.4421872E-3,-1.2083823E-2,-7.918658E-4,1.6635723E-2,-2.1247247E-3,-4.51041E-3,1.642049E-2,-4.589997E-2,-3.0265424E-2,1.5241711E-2,-1.8527603E-2],"split_indices":[0,0,1,0,0,0,1,0,1,1,1,1,0,1,0,0,0,0,0,0,0,0,0,0,0,0,0],"split_type":[0,0,0,0,0,0,0,0,0,0,0,0,0,0,0,0,0,0,0,0,0,0,0,0,0,0,0],"sum_hessian":[6.35E2,5.07E2,1.28E2,1.78E2,3.29E2,8.9E1,3.9E1,6.9E1,1.09E2,1.39E2,1.9E2,7.7E1,1.2E1,3.1E1,8E0,5E1,1.9E1,8.6E1,2.3E1,1.34E2,5E0,1.25E2,6.5E1,2.4E1,5.3E1,2.1E1,1E1],"tree_param":{"num_deleted":"0","num_feature":"3","num_nodes":"27","size_leaf_vector":"1"}},{"base_weights":[-4.4903204E-2,1.7605883E-1,-1.1114866E0,-7.780277E-2,2.8429195E-1,-1.3172265E0,1.622404E-2,1.6301282E-2,-2.8109193E-1,-2.2470064E-1,3.7406787E-1,-1.1729153E0,-1.7430842E0,8.280061E-3,-3.518366E-3,-3.1125322E-3,-1.3428646E-2,4.5180023E-3,-1.5066307E-2,1.8145477E-2,6.0717096E-3,-3.7382994E-2,1.4226806E-2,-5.5364776E-2,7.6485225E-3],"categories":[],"categories_nodes":[],"categories_segments":[],"categories_sizes":[],"default_left":[0,0,0,0,0,0,0,0,0,0,0,0,0,0,0,0,0,0,0,0,0,0,0,0,0],"id":3,"left_children":[1,3,5,7,9,11,-1,13,15,17,19,21,23,-1,-1,-1,-1,-1,-1,-1,-1,-1,-1,-1,-1],"loss_changes":[1.5244138E2,1.4749382E1,3.8445892E1,3.0845659E0,1.7265476E1,4.0396576E0,0E0,3.8830557E0,1.4597168E0,6.0121574E0,1.2555981E1,9.872917E0,5.1766663E0,0E0,0E0,0E0,0E0,0E0,0E0,0E0,0E0,0E0,0E0,0E0,0E0],"parents":[2147483647,0,0,1,1,2,2,3,3,4,4,5,5,7,7,8,8,9,9,10,10,11,11,12,12],"right_children":[2,4,6,8,10,12,-1,14,16,18,20,22,24,-1,-1,-1,-1,-1,-1,-1,-1,-1,-1,-1,-1],"split_conditions":[-2.4461542E-1,-8.633379E-1,-4.484806E-2,-9.345857E-1,-1.2856303E0,3.5437986E-1,1.622404E-2,-2.8903955E-1,-5.9022653E-1,-6.465097E-1,-5.5682933E-1,3.118309E-1,-1.1500589E-1,8.280061E-3,-3.518366E-3,-3.1125322E-3,-1.3428646E-2,4.5180023E-3,-1.5066307E-2,1.8145477E-2,6.0717096E-3,-3.7382994E-2,1.4226806E-2,-5.5364776E-2,7.6485225E-3],"split_indices":[2,2,2,2,1,1,0,1,1,2,2,1,2,0,0,0,0,0,0,0,0,0,0,0,0],"split_type":[0,0,0,0,0,0,0,0,0,0,0,0,0,0,0,0,0,0,0,0,0,0,0,0,0],"sum_hessian":[6.45E2,5.35E2,1.1E2,1.6E2,3.75E2,9.8E1,1.2E1,1.1E2,5E1,5.6E1,3.19E2,7.6E1,2.2E1,3.7E1,7.3E1,2.5E1,2.5E1,2.4E1,3.2E1,1.35E2,1.84E2,7.3E1,3E0,2.1E1,1E0],"tree_param":{"num_deleted":"0","num_feature":"3","num_nodes":"25","size_leaf_vector":"1"}},{"base_weights":[1.3504032E-2,2.0564914E-1,-1.0945401E0,-1.1701244E-1,3.5724118E-1,-1.4138962E0,1.6520673E-2,2.6998267E-1,-3.3365244E-1,2.9125068E-1,9.243888E-1,-4.3488055E-2,-2.2136286E-2,8.923616E-3,-6.287444E-3,-3.0589844E-3,-1.3261707E-2,1.1087098E-2,-3.5450965E-2,1.6357508E-2,2.977236E-2],"categories":[],"categories_nodes":[],"categories_segments":[],"categories_sizes":[],"default_left":[0,0,0,0,0,0,0,0,0,0,0,0,0,0,0,0,0,0,0,0,0],"id":4,"left_children":[1,3,5,7,9,11,-1,13,15,17,19,-1,-1,-1,-1,-1,-1,-1,-1,-1,-1],"loss_changes":[1.3541994E2,2.655261E1,5.0167534E1,1.46779995E1,1.35411E1,8.3724976E-1,0E0,8.9231634E-1,2.7678976E0,3.8736355E1,4.3891525E-1,0E0,0E0,0E0,0E0,0E0,0E0,0E0,0E0,0E0,0E0],"parents":[2147483647,0,0,1,1,2,2,3,3,4,4,5,5,7,7,8,8,9,9,10,10],"right_children":[2,4,6,8,10,12,-1,14,16,18,20,-1,-1,-1,-1,-1,-1,-1,-1,-1,-1],"split_conditions":[-2.1664166E-1,-7.6664966E-1,-7.690464E-3,-1.0588435E0,-3.499948E-1,-3.5982776E-2,1.6520673E-2,-7.81358E-1,-1.0520052E0,-3.4791017E-1,-4.7237402E-1,-4.3488055E-2,-2.2136286E-2,8.923616E-3,-6.287444E-3,-3.0589844E-3,-1.3261707E-2,1.1087098E-2,-3.5450965E-2,1.6357508E-2,2.977236E-2],"split_indices":[2,0,0,0,0,0,0,2,2,2,2,0,0,0,0,0,0,0,0,0,0],"split_type":[0,0,0,0,0,0,0,0,0,0,0,0,0,0,0,0,0,0,0,0,0],"sum_hessian":[6.34E2,5.41E2,9.3E1,1.73E2,3.68E2,7.8E1,1.5E1,6.2E1,1.11E2,3.31E2,3.7E1,7.3E1,5E0,5.9E1,3E0,3.6E1,7.5E1,3.15E2,1.6E1,7E0,3E1],"tree_param":{"num_deleted":"0","num_feature":"3","num_nodes":"21","size_leaf_vector":"1"}},{"base_weights":[1.6575672E-2,2.0511073E-1,-1.0526084E0,-9.091681E-2,3.446609E-1,-1.3528129E0,1.6551819E-2,3.0105317E-1,-3.1017262E-1,3.9388523E-1,-3.0255112E-1,-4.3496925E-2,-1.022132E0,1.017624E-2,1.83289E-3,-3.937494E-3,-1.238164E-2,9.565144E-3,2.6763504E-2,-3.419723E-2,2.5174106E-2,-5.47659E-3,-4.205296E-2],"categories":[],"categories_nodes":[],"categories_segments":[],"categories_sizes":[],"default_left":[0,0,0,0,0,0,0,0,0,0,0,0,0,0,0,0,0,0,0,0,0,0,0],"id":5,"left_children":[1,3,5,7,9,11,-1,13,15,17,19,-1,21,-1,-1,-1,-1,-1,-1,-1,-1,-1,-1],"loss_changes":[1.3043575E2,2.2752218E1,4.746438E1,1.5305059E1,1.2034279E1,1.1505432E0,0E0,5.6522846E-1,2.0375376E0,1.2727566E1,2.6768536E1,0E0,6.756214E0,0E0,0E0,0E0,0E0,0E0,0E0,0E0,0E0,0E0,0E0],"parents":[2147483647,0,0,1,1,2,2,3,3,4,4,5,5,7,7,8,8,9,9,10,10,12,12],"right_children":[2,4,6,8,10,12,-1,14,16,18,20,-1,22,-1,-1,-1,-1,-1,-1,-1,-1,-1,-1],"split_conditions":[-2.1664166E-1,-7.758021E-1,-3.4558352E-2,-1.0662177E0,-3.4791017E-1,-1.00750595E-1,1.6551819E-2,-8.773941E-1,-1.0346586E0,-4.1520202E-1,-3.9129502E-1,-4.3496925E-2,-1.5002659E-1,1.017624E-2,1.83289E-3,-3.937494E-3,-1.238164E-2,9.565144E-3,2.6763504E-2,-3.419723E-2,2.5174106E-2,-5.47659E-3,-4.205296E-2],"split_indices":[2,0,0,0,2,0,0,2,2,2,0,0,2,0,0,0,0,0,0,0,0,0,0],"split_type":[0,0,0,0,0,0,0,0,0,0,0,0,0,0,0,0,0,0,0,0,0,0,0],"sum_hessian":[6.45E2,5.49E2,9.6E1,1.76E2,3.73E2,8.1E1,1.5E1,6.3E1,1.13E2,3.47E2,2.6E1,6E1,2.1E1,5.4E1,9E0,4.2E1,7.1E1,3.03E2,4.4E1,1.5E1,1.1E1,7E0,1.4E1],"tree_param":{"num_deleted":"0","num_feature":"3","num_nodes":"23","size_leaf_vector":"1"}},{"base_weights":[-1.3329417E-2,1.879622E-1,-1.0215442E0,-3.1294785E-2,3.074748E-1,-1.2232381E0,1.59286E-2,5.399319E-2,-9.5169276E-2,6.0164005E-1,1.391311E-1,-1.0780398E0,-1.452034E0,7.273822E-3,-4.2116414E-3,-4.2597144E-3,4.0226574E-3,-2.4010266E-4,2.0337507E-2,-9.5770974E-4,1.6317781E-2,-1.909975E-2,-4.4966515E-2,-5.172711E-2,-1.8789697E-2],"categories":[],"categories_nodes":[],"categories_segments":[],"categories_sizes":[],"default_left":[0,0,0,0,0,0,0,0,0,0,0,0,0,0,0,0,0,0,0,0,0,0,0,0,0],"id":6,"left_children":[1,3,5,7,9,11,-1,13,15,17,19,21,23,-1,-1,-1,-1,-1,-1,-1,-1,-1,-1,-1,-1],"loss_changes":[1.3048283E2,1.4054951E1,3.4154335E1,1.0402063E0,1.7100037E1,1.590622E0,0E0,3.038072E0,1.1890595E0,5.864647E0,1.538911E1,1.0562393E1,6.561943E0,0E0,0E0,0E0,0E0,0E0,0E0,0E0,0E0,0E0,0E0,0E0,0E0],"parents":[2147483647,0,0,1,1,2,2,3,3,4,4,5,5,7,7,8,8,9,9,10,10,11,11,12,12],"right_children":[2,4,6,8,10,12,-1,14,16,18,20,22,24,-1,-1,-1,-1,-1,-1,-1,-1,-1,-1,-1,-1],"split_conditions":[-2.3253459E-1,-6.8994904E-1,-6.135507E-2,-2.8903955E-1,-6.1939734E-1,-5.036476E-2,1.59286E-2,-9.0295523E-1,-8.8050485E-1,-1.4942793E0,3.973845E-1,-1.1500589E-1,-1.1500589E-1,7.273822E-3,-4.2116414E-3,-4.2597144E-3,4.0226574E-3,-2.4010266E-4,2.0337507E-2,-9.5770974E-4,1.6317781E-2,-1.909975E-2,-4.4966515E-2,-5.172711E-2,-1.8789697E-2],"split_indices":[2,2,2,1,2,1,0,2,2,1,1,2,2,0,0,0,0,0,0,0,0,0,0,0,0],"split_type":[0,0,0,0,0,0,0,0,0,0,0,0,0,0,0,0,0,0,0,0,0,0,0,0,0],"sum_hessian":[6.41E2,5.35E2,1.06E2,1.89E2,3.46E2,9.4E1,1.2E1,8.1E1,1.08E2,1.25E2,2.21E2,6.1E1,3.3E1,4.1E1,4E1,9E1,1.8E1,1.4E1,1.11E2,1.56E2,6.5E1,3.1E1,3E1,2.4E1,9E0],"tree_param":{"num_deleted":"0","num_feature":"3","num_nodes":"25","size_leaf_vector":"1"}},{"base_weights":[1.9675136E-2,1.6373524E-1,-5.3071743E-1,-7.494543E-2,2.7169666E-1,-7.4756515E-1,4.3596736E-1,2.6427206E-1,-3.0030972E-1,4.5259073E-2,4.0529495E-1,-9.8916876E-1,1.4932975E-1,1.638377E-2,7.4685104E-2,9.487578E-3,3.415899E-3,-1.2320703E-2,-5.2726915E-4,1.7166391E-2,-6.561967E-3,9.123793E-3,1.7254513E-2,-3.511635E-2,-1.7769216E-2,2.2086682E-2,-5.70392E-3,-3.0218642E-2,1.2686859E-2],"categories":[],"categories_nodes":[],"categories_segments":[],"categories_sizes":[],"default_left":[0,0,0,0,0,0,0,0,0,0,0,0,0,0,0,0,0,0,0,0,0,0,0,0,0,0,0,0,0],"id":7,"left_children":[1,3,5,7,9,11,13,15,17,19,21,23,25,-1,27,-1,-1,-1,-1,-1,-1,-1,-1,-1,-1,-1,-1,-1,-1],"loss_changes":[5.0832253E1,1.3110659E1,2.8205822E1,1.2234518E1,1.056974E1,2.3767254E1,9.541683E-1,4.6436357E-1,2.988778E0,1.8348738E1,3.605564E0,5.4970627E0,4.921425E0,0E0,3.0632565E0,0E0,0E0,0E0,0E0,0E0,0E0,0E0,0E0,0E0,0E0,0E0,0E0,0E0,0E0],"parents":[2147483647,0,0,1,1,2,2,3,3,4,4,5,5,6,6,7,7,8,8,9,9,10,10,11,11,12,12,14,14],"right_children":[2,4,6,8,10,12,14,16,18,20,22,24,26,-1,28,-1,-1,-1,-1,-1,-1,-1,-1,-1,-1,-1,-1,-1,-1],"split_conditions":[-3.0158713E-1,-7.989109E-1,-3.4558352E-2,-1.039157E0,-4.671303E-1,8.4387296E-1,9.74713E-1,-1.0947919E0,8.961702E-1,-6.67276E-1,-5.297713E-1,-1.1147337E-1,1.3772768E0,1.638377E-2,-7.690464E-3,9.487578E-3,3.415899E-3,-1.2320703E-2,-5.2726915E-4,1.7166391E-2,-6.561967E-3,9.123793E-3,1.7254513E-2,-3.511635E-2,-1.7769216E-2,2.2086682E-2,-5.70392E-3,-3.0218642E-2,1.2686859E-2],"split_indices":[0,0,0,0,1,1,1,0,1,0,0,0,1,0,0,0,0,0,0,0,0,0,0,0,0,0,0,0,0],"split_type":[0,0,0,0,0,0,0,0,0,0,0,0,0,0,0,0,0,0,0,0,0,0,0,0,0,0,0,0,0],"sum_hessian":[6.39E2,5.07E2,1.32E2,1.58E2,3.49E2,1.08E2,2.4E1,6.3E1,9.5E1,1.3E2,2.19E2,8.5E1,2.3E1,1.8E1,6E0,4.6E1,1.7E1,6.8E1,2.7E1,4.3E1,8.7E1,1.39E2,8E1,5.7E1,2.8E1,8E0,1.5E1,1E0,5E0],"tree_param":{"num_deleted":"0","num_feature":"3","num_nodes":"29","size_leaf_vector":"1"}},{"base_weights":[1.0028248E-2,1.7362957E-1,-9.2737544E-1,-3.896357E-2,2.8959033E-1,-1.0794123E0,1.4642496E-2,4.4723008E-2,-1.0403705E-1,5.9952044E-1,1.2745816E-1,-9.634993E-1,-1.4435484E0,7.875933E-3,-4.247914E-3,-4.4632945E-3,3.9868965E-3,2.5850458E-3,1.9642174E-2,-8.847396E-3,9.036229E-3,-3.032656E-2,1.2478634E-2,-5.010028E-2,9.627412E-3],"categories":[],"categories_nodes":[],"categories_segments":[],"categories_sizes":[],"default_left":[0,0,0,0,0,0,0,0,0,0,0,0,0,0,0,0,0,0,0,0,0,0,0,0,0],"id":8,"left_children":[1,3,5,7,9,11,-1,13,15,17,19,21,23,-1,-1,-1,-1,-1,-1,-1,-1,-1,-1,-1,-1],"loss_changes":[9.907854E1,1.3570139E1,2.1186241E1,1.0665792E0,1.7812458E1,2.2812576E0,0E0,3.527229E0,1.1858021E0,3.4018707E0,1.7334732E1,4.930794E0,8.127983E0,0E0,0E0,0E0,0E0,0E0,0E0,0E0,0E0,0E0,0E0,0E0,0E0],"parents":[2147483647,0,0,1,1,2,2,3,3,4,4,5,5,7,7,8,8,9,9,10,10,11,11,12,12],"right_children":[2,4,6,8,10,12,-1,14,16,18,20,22,24,-1,-1,-1,-1,-1,-1,-1,-1,-1,-1,-1,-1],"split_conditions":[-2.1664166E-1,-6.8994904E-1,-4.484806E-2,-2.8903955E-1,-6.2804645E-1,3.3027595E-1,1.4642496E-2,-9.2351997E-1,-8.8050485E-1,-1.4942793E0,-7.6658976E-1,2.844374E-1,-1.10916466E-1,7.875933E-3,-4.247914E-3,-4.4632945E-3,3.9868965E-3,2.5850458E-3,1.9642174E-2,-8.847396E-3,9.036229E-3,-3.032656E-2,1.2478634E-2,-5.010028E-2,9.627412E-3],"split_indices":[2,2,2,1,2,1,0,2,2,1,1,1,2,0,0,0,0,0,0,0,0,0,0,0,0],"split_type":[0,0,0,0,0,0,0,0,0,0,0,0,0,0,0,0,0,0,0,0,0,0,0,0,0],"sum_hessian":[6.44E2,5.49E2,9.5E1,1.94E2,3.55E2,8.6E1,9E0,8.5E1,1.09E2,1.21E2,2.34E2,6.8E1,1.8E1,3.9E1,4.6E1,9.2E1,1.7E1,1.2E1,1.09E2,6.8E1,1.66E2,6.6E1,2E0,1.6E1,2E0],"tree_param":{"num_deleted":"0","num_feature":"3","num_nodes":"25","size_leaf_vector":"1"}},{"base_weights":[2.870053E-2,1.4858983E-1,-4.7468293E-1,-8.6846426E-2,2.6989895E-1,-7.197363E-1,4.1746065E-1,2.3953092E-1,-2.836288E-1,4.632435E-1,1.2234535E-1,-8.3226585E-1,1.5316094E-2,8.5735726E-1,2.300019E-1,8.921821E-3,3.071891E-3,-1.0485044E-2,-6.613138E-4,1.4587912E-2,-2.4920935E-3,-1.3828424E-2,8.952764E-3,-3.952723E-2,-1.9542031E-2,1.1100057E-2,2.8744262E-2,1.7655483E-2,-9.402231E-3],"categories":[],"categories_nodes":[],"categories_segments":[],"categories_sizes":[],"default_left":[0,0,0,0,0,0,0,0,0,0,0,0,0,0,0,0,0,0,0,0,0,0,0,0,0,0,0,0,0],"id":9,"left_children":[1,3,5,7,9,11,13,15,17,19,21,23,-1,25,27,-1,-1,-1,-1,-1,-1,-1,-1,-1,-1,-1,-1,-1,-1],"loss_changes":[3.9841377E1,1.5246222E1,2.8065552E1,1.1756945E1,9.985422E0,1.4269104E1,2.1117558E0,5.170655E-1,1.9566641E0,1.9519844E0,2.0781519E1,7.2170563E0,0E0,3.8429737E-2,4.275667E0,0E0,0E0,0E0,0E0,0E0,0E0,0E0,0E0,0E0,0E0,0E0,0E0,0E0,0E0],"parents":[2147483647,0,0,1,1,2,2,3,3,4,4,5,5,6,6,7,7,8,8,9,9,10,10,11,11,13,13,14,14],"right_children":[2,4,6,8,10,12,14,16,18,20,22,24,-1,26,28,-1,-1,-1,-1,-1,-1,-1,-1,-1,-1,-1,-1,-1,-1],"split_conditions":[-3.287106E-1,-7.758021E-1,8.4387296E-1,-1.0496264E0,-6.038773E-1,-3.4558352E-2,-1.765345E-1,-1.1012443E0,1.1714216E0,1.365644E0,-5.5552316E-1,-6.6576815E-1,1.5316094E-2,-3.0158713E-1,1.3772768E0,8.921821E-3,3.071891E-3,-1.0485044E-2,-6.613138E-4,1.4587912E-2,-2.4920935E-3,-1.3828424E-2,8.952764E-3,-3.952723E-2,-1.9542031E-2,1.1100057E-2,2.8744262E-2,1.7655483E-2,-9.402231E-3],"split_indices":[0,0,1,0,0,0,0,0,1,1,0,1,0,0,1,0,0,0,0,0,0,0,0,0,0,0,0,0,0],"split_type":[0,0,0,0,0,0,0,0,0,0,0,0,0,0,0,0,0,0,0,0,0,0,0,0,0,0,0,0,0],"sum_hessian":[6.58E2,5.32E2,1.26E2,1.81E2,3.51E2,9.9E1,2.7E1,6.8E1,1.13E2,1.51E2,2E2,9.1E1,8E0,7E0,2E1,4.7E1,2.1E1,9E1,2.3E1,1.45E2,6E0,4.6E1,1.54E2,2.3E1,6.8E1,2E0,5E0,1.2E1,8E0],"tree_param":{"num_deleted":"0","num_feature":"3","num_nodes":"29","size_leaf_vector":"1"}},{"base_weights":[1.4632391E-2,2.048377E-1,-7.232445E-1,-1.0493925E-1,3.7893495E-1,-9.5107675E-1,3.978335E-1,2.3965277E-1,-2.7638897E-1,3.0798015E-1,1.0734864E0,-3.5603605E-2,-5.254478E-1,1.7793417E-2,1.4307163E-2,8.282668E-3,-6.9281254E-3,-6.829541E-3,-1.9291993E-2,1.407974E-2,-5.336615E-4,1.4542149E-2,3.694785E-2,2.854991E-2,-2.9118745E-2,1.3816857E-2,-1.2927186E-2],"categories":[],"categories_nodes":[],"categories_segments":[],"categories_sizes":[],"default_left":[0,0,0,0,0,0,0,0,0,0,0,0,0,0,0,0,0,0,0,0,0,0,0,0,0,0,0],"id":10,"left_children":[1,3,5,7,9,11,13,15,17,19,21,-1,23,25,-1,-1,-1,-1,-1,-1,-1,-1,-1,-1,-1,-1,-1],"loss_changes":[9.0391975E1,2.7652596E1,3.4093513E1,1.0996075E1,1.5833805E1,1.0412155E1,6.826761E-1,1.1268432E0,2.0696068E0,1.5724096E1,2.1955833E0,0E0,2.7884333E1,1.1918093E0,0E0,0E0,0E0,0E0,0E0,0E0,0E0,0E0,0E0,0E0,0E0,0E0,0E0],"parents":[2147483647,0,0,1,1,2,2,3,3,4,4,5,5,6,6,7,7,8,8,9,9,10,10,12,12,13,13],"right_children":[2,4,6,8,10,12,14,16,18,20,22,-1,24,26,-1,-1,-1,-1,-1,-1,-1,-1,-1,-1,-1,-1,-1],"split_conditions":[-3.4791017E-1,-7.758021E-1,-3.4558352E-2,-1.0588435E0,-4.0502056E-1,-1.2691544E-1,-7.690464E-3,-7.81358E-1,-6.738796E-1,-4.8726967E-1,-5.356324E-1,-3.5603605E-2,-2.0523697E-1,-1.738159E-1,1.4307163E-2,8.282668E-3,-6.9281254E-3,-6.829541E-3,-1.9291993E-2,1.407974E-2,-5.336615E-4,1.4542149E-2,3.694785E-2,2.854991E-2,-2.9118745E-2,1.3816857E-2,-1.2927186E-2],"split_indices":[2,0,0,0,2,0,0,2,2,2,0,0,2,2,0,0,0,0,0,0,0,0,0,0,0,0,0],"split_type":[0,0,0,0,0,0,0,0,0,0,0,0,0,0,0,0,0,0,0,0,0,0,0,0,0,0,0],"sum_hessian":[6.42E2,5.11E2,1.31E2,1.84E2,3.27E2,1.09E2,2.2E1,6.1E1,1.23E2,2.98E2,2.9E1,6.9E1,4E1,4E0,1.8E1,5.7E1,4E0,1.1E2,1.3E1,1.99E2,9.9E1,7E0,2.2E1,9E0,3.1E1,2E0,2E0],"tree_param":{"num_deleted":"0","num_feature":"3","num_nodes":"27","size_leaf_vector":"1"}},{"base_weights":[-2.0303918E-2,1.5580161E-1,-8.833542E-1,-3.818925E-2,2.6447886E-1,-1.0591425E0,3.240192E-1,6.280909E-2,-1.11629866E-1,-2.301235E-1,3.794225E-1,-9.317553E-1,-1.4130963E0,-2.260143E-2,1.3643678E-2,5.9181536E-3,-3.6586288E-3,-4.6149213E-3,2.8954707E-3,1.2399925E-2,-1.5381845E-2,1.7750066E-2,7.5343777E-3,-1.7433567E-2,-3.7736155E-2,-4.745257E-2,8.842398E-3],"categories":[],"categories_nodes":[],"categories_segments":[],"categories_sizes":[],"default_left":[0,0,0,0,0,0,0,0,0,0,0,0,0,0,0,0,0,0,0,0,0,0,0,0,0,0,0],"id":11,"left_children":[1,3,5,7,9,11,13,15,17,19,21,23,25,-1,-1,-1,-1,-1,-1,-1,-1,-1,-1,-1,-1,-1,-1],"loss_changes":[1.0044967E2,1.1584332E1,2.4114296E1,1.4756527E0,2.0099003E1,3.1020813E0,2.4560056E0,2.110936E0,1.0249977E0,1.239542E1,7.6381035E0,7.845154E0,7.379135E0,0E0,0E0,0E0,0E0,0E0,0E0,0E0,0E0,0E0,0E0,0E0,0E0,0E0,0E0],"parents":[2147483647,0,0,1,1,2,2,3,3,4,4,5,5,6,6,7,7,8,8,9,9,10,10,11,11,12,12],"right_children":[2,4,6,8,10,12,14,16,18,20,22,24,26,-1,-1,-1,-1,-1,-1,-1,-1,-1,-1,-1,-1,-1,-1],"split_conditions":[-2.1664166E-1,-6.8994904E-1,-6.135507E-2,-2.8903955E-1,-1.0233908E0,3.5437986E-1,-4.835018E-1,-8.9400154E-1,-8.852904E-1,-6.377621E-1,-5.5682933E-1,-1.1500589E-1,-1.10916466E-1,-2.260143E-2,1.3643678E-2,5.9181536E-3,-3.6586288E-3,-4.6149213E-3,2.8954707E-3,1.2399925E-2,-1.5381845E-2,1.7750066E-2,7.5343777E-3,-1.7433567E-2,-3.7736155E-2,-4.745257E-2,8.842398E-3],"split_indices":[2,2,2,1,1,1,1,2,2,2,2,2,2,0,0,0,0,0,0,0,0,0,0,0,0,0,0],"split_type":[0,0,0,0,0,0,0,0,0,0,0,0,0,0,0,0,0,0,0,0,0,0,0,0,0,0,0],"sum_hessian":[6.59E2,5.48E2,1.11E2,1.97E2,3.51E2,9.7E1,1.4E1,8.3E1,1.14E2,6.6E1,2.85E2,7.4E1,2.3E1,1E0,1.3E1,4.8E1,3.5E1,9.5E1,1.9E1,2E1,4.6E1,1.06E2,1.79E2,3.7E1,3.7E1,2.1E1,2E0],"tree_param":{"num_deleted":"0","num_feature":"3","num_nodes":"27","size_leaf_vector":"1"}},{"base_weights":[1.3537231E-2,1.9352311E-1,-7.065081E-1,1.2833056E-1,7.928327E-1,-8.5594285E-1,1.3191908E-2,1.7424306E-1,-2.537985E-1,5.00643E-1,8.679735E-1,-3.518728E-1,-1.0315095E0,-7.3175965E-4,1.0175151E-2,-1.1955264E-2,2.7661959E-2,3.0119183E-2,-1.5164378E-2,3.0776348E-2,1.609221E-2,-3.200357E-2,2.325181E-2,-2.6135834E-2,-4.3191765E-2],"categories":[],"categories_nodes":[],"categories_segments":[],"categories_sizes":[],"default_left":[0,0,0,0,0,0,0,0,0,0,0,0,0,0,0,0,0,0,0,0,0,0,0,0,0],"id":12,"left_children":[1,3,5,7,9,11,-1,13,15,17,19,21,23,-1,-1,-1,-1,-1,-1,-1,-1,-1,-1,-1,-1],"loss_changes":[8.61898E1,2.0683771E1,2.315767E1,8.48313E0,7.0713806E-1,1.0079788E1,0E0,1.4095333E1,9.215752E0,7.090835E0,1.543951E0,2.660791E1,4.4392776E0,0E0,0E0,0E0,0E0,0E0,0E0,0E0,0E0,0E0,0E0,0E0,0E0],"parents":[2147483647,0,0,1,1,2,2,3,3,4,4,5,5,7,7,8,8,9,9,10,10,11,11,12,12],"right_children":[2,4,6,8,10,12,-1,14,16,18,20,22,24,-1,-1,-1,-1,-1,-1,-1,-1,-1,-1,-1,-1],"split_conditions":[-3.4791017E-1,-4.2039305E-1,-6.135507E-2,-4.6179408E-1,-6.5783495E-1,-2.1664166E-1,1.3191908E-2,-6.8994904E-1,9.74713E-1,-8.330057E-1,-3.7173113E-1,-3.099272E-1,3.5437986E-1,-7.3175965E-4,1.0175151E-2,-1.1955264E-2,2.7661959E-2,3.0119183E-2,-1.5164378E-2,3.0776348E-2,1.609221E-2,-3.200357E-2,2.325181E-2,-2.6135834E-2,-4.3191765E-2],"split_indices":[2,2,2,2,1,2,0,2,1,1,2,1,1,0,0,0,0,0,0,0,0,0,0,0,0],"split_type":[0,0,0,0,0,0,0,0,0,0,0,0,0,0,0,0,0,0,0,0,0,0,0,0,0],"sum_hessian":[6.63E2,5.31E2,1.32E2,4.8E2,5.1E1,1.17E2,1.5E1,4.29E2,5.1E1,1.2E1,3.9E1,3.1E1,8.6E1,1.95E2,2.34E2,4.6E1,5E0,8E0,4E0,2.5E1,1.4E1,1.9E1,1.2E1,6.4E1,2.2E1],"tree_param":{"num_deleted":"0","num_feature":"3","num_nodes":"25","size_leaf_vector":"1"}},{"base_weights":[-5.006456E-2,6.678373E-2,-4.6773267E-1,-1.060396E-1,1.5792525E-1,-3.600851E-2,-2.0761828E-1,1.9686776E-1,-3.1763765E-1,4.0645006E-1,-9.376002E-3,-3.5780624E-1,3.8209063E-1,8.206815E-3,5.47513E-4,-1.1549958E-2,-4.64151E-4,1.5239993E-2,7.6780315E-3,-1.3636934E-2,5.539978E-3,-1.418257E-2,2.4229327E-2,1.4916013E-2,-2.3206919E-4],"categories":[],"categories_nodes":[],"categories_segments":[],"categories_sizes":[],"default_left":[0,0,0,0,0,0,0,0,0,0,0,0,0,0,0,0,0,0,0,0,0,0,0,0,0],"id":13,"left_children":[1,3,5,7,9,-1,11,13,15,17,19,21,23,-1,-1,-1,-1,-1,-1,-1,-1,-1,-1,-1,-1],"loss_changes":[3.1704905E1,8.018448E0,2.6808481E1,1.1343185E1,1.3849456E1,0E0,9.524837E0,9.9500966E-1,2.11088E0,1.9181538E0,1.736099E1,1.1768758E1,9.910486E-1,0E0,0E0,0E0,0E0,0E0,0E0,0E0,0E0,0E0,0E0,0E0,0E0],"parents":[2147483647,0,0,1,1,2,2,3,3,4,4,6,6,7,7,8,8,9,9,10,10,11,11,12,12],"right_children":[2,4,6,8,10,-1,12,14,16,18,20,22,24,-1,-1,-1,-1,-1,-1,-1,-1,-1,-1,-1,-1],"split_conditions":[-3.287106E-1,-7.9476285E-1,-4.835018E-1,-1.0242833E0,-6.23061E-1,-3.600851E-2,-3.4558352E-2,-1.0947919E0,1.1714216E0,1.2776989E-1,-6.1553496E-1,2.2429242E0,9.74713E-1,8.206815E-3,5.47513E-4,-1.1549958E-2,-4.64151E-4,1.5239993E-2,7.6780315E-3,-1.3636934E-2,5.539978E-3,-1.418257E-2,2.4229327E-2,1.4916013E-2,-2.3206919E-4],"split_indices":[0,0,1,0,0,0,0,0,1,1,1,1,1,0,0,0,0,0,0,0,0,0,0,0,0],"split_type":[0,0,0,0,0,0,0,0,0,0,0,0,0,0,0,0,0,0,0,0,0,0,0,0,0],"sum_hessian":[6.48E2,5.07E2,1.41E2,1.75E2,3.32E2,3.6E1,1.05E2,7.2E1,1.03E2,1.33E2,1.99E2,8.4E1,2.1E1,5E1,2.2E1,8.4E1,1.9E1,7.8E1,5.5E1,6E1,1.39E2,7.7E1,7E0,1.6E1,5E0],"tree_param":{"num_deleted":"0","num_feature":"3","num_nodes":"25","size_leaf_vector":"1"}},{"base_weights":[-3.1582445E-2,1.3274173E-1,-9.1572356E-1,8.230079E-2,8.492391E-1,-1.1328286E0,1.25702135E-2,1.2711076E-1,-3.092583E-2,1.0421308E-2,9.1897887E-1,-4.592874E-1,-1.223084E0,1.9968096E-3,2.2387201E-2,2.8756535E-2,1.2366851E-2,-3.1006925E-2,2.8429719E-2,-3.7229713E-2,-1.10317655E-2],"categories":[],"categories_nodes":[],"categories_segments":[],"categories_sizes":[],"default_left":[0,0,0,0,0,0,0,0,0,0,0,0,0,0,0,0,0,0,0,0,0],"id":14,"left_children":[1,3,5,7,9,11,-1,13,-1,-1,15,17,19,-1,-1,-1,-1,-1,-1,-1,-1],"loss_changes":[9.4557304E1,1.9771408E1,3.0031883E1,2.5769735E1,9.4075775E-1,4.787842E0,0E0,1.8507164E1,0E0,0E0,2.265091E-1,1.0675173E1,7.2301483E-1,0E0,0E0,0E0,0E0,0E0,0E0,0E0,0E0],"parents":[2147483647,0,0,1,1,2,2,3,3,4,4,5,5,7,7,10,10,11,11,12,12],"right_children":[2,4,6,8,10,12,-1,14,-1,-1,16,18,20,-1,-1,-1,-1,-1,-1,-1,-1],"split_conditions":[-2.1664166E-1,-3.287106E-1,-7.690464E-3,-3.4791017E-1,-4.7779554E-1,-1.9303691E-1,1.25702135E-2,-4.3203568E-1,-3.092583E-2,1.0421308E-2,-6.043153E-2,-1.384958E-1,-3.4558352E-2,1.9968096E-3,2.2387201E-2,2.8756535E-2,1.2366851E-2,-3.1006925E-2,2.8429719E-2,-3.7229713E-2,-1.10317655E-2],"split_indices":[2,0,0,2,2,2,0,2,0,0,0,0,0,0,0,0,0,0,0,0,0],"split_type":[0,0,0,0,0,0,0,0,0,0,0,0,0,0,0,0,0,0,0,0,0],"sum_hessian":[6.49E2,5.48E2,1.01E2,5.13E2,3.5E1,8.7E1,1.4E1,4.94E2,1.9E1,5E0,3E1,1.1E1,7.6E1,4.51E2,4.3E1,2.7E1,3E0,8E0,3E0,7.4E1,2E0],"tree_param":{"num_deleted":"0","num_feature":"3","num_nodes":"21","size_leaf_vector":"1"}},{"base_weights":[3.5123844E-2,1.9496307E-1,-6.045053E-1,1.3917637E-1,7.359837E-1,-7.1030736E-1,1.1826415E-2,-2.9094968E-2,2.5489193E-1,3.6197044E-2,6.657813E-1,-3.229543E-2,-5.060893E-1,2.4069038E-3,-3.1380036E-3,1.0891584E-2,-5.707568E-3,-1.8764587E-2,2.131071E-2,1.579983E-2,-2.2933286E-2],"categories":[],"categories_nodes":[],"categories_segments":[],"categories_sizes":[],"default_left":[0,0,0,0,0,0,0,0,0,0,0,0,0,0,0,0,0,0,0,0,0],"id":15,"left_children":[1,3,5,7,9,11,-1,13,15,-1,17,-1,19,-1,-1,-1,-1,-1,-1,-1,-1],"loss_changes":[6.595901E1,1.5471354E1,1.3911003E1,9.1396E0,7.824249E-1,8.205151E0,0E0,1.5932769E0,1.3453991E1,0E0,2.976921E0,0E0,2.0947332E1,0E0,0E0,0E0,0E0,0E0,0E0,0E0,0E0],"parents":[2147483647,0,0,1,1,2,2,3,3,4,4,5,5,7,7,8,8,10,10,12,12],"right_children":[2,4,6,8,10,12,-1,14,16,-1,18,-1,20,-1,-1,-1,-1,-1,-1,-1,-1],"split_conditions":[-3.4791017E-1,-4.1520202E-1,-4.484806E-2,-7.021123E-1,-1.0496653E0,-6.6576815E-1,1.1826415E-2,-2.8903955E-1,-4.633318E-1,3.6197044E-2,-1.0071288E0,-3.229543E-2,-2.1664166E-1,2.4069038E-3,-3.1380036E-3,1.0891584E-2,-5.707568E-3,-1.8764587E-2,2.131071E-2,1.579983E-2,-2.2933286E-2],"split_indices":[2,2,2,2,1,1,0,1,2,0,1,0,2,0,0,0,0,0,0,0,0],"split_type":[0,0,0,0,0,0,0,0,0,0,0,0,0,0,0,0,0,0,0,0,0],"sum_hessian":[6.43E2,5.15E2,1.28E2,4.68E2,4.7E1,1.16E2,1.2E1,1.91E2,2.77E2,4E0,4.3E1,4E1,7.6E1,7.8E1,1.13E2,2.23E2,5.4E1,1E0,4.2E1,1.5E1,6.1E1],"tree_param":{"num_deleted":"0","num_feature":"3","num_nodes":"21","size_leaf_vector":"1"}},{"base_weights":[-1.595424E-2,9.104002E-2,-4.6380863E-1,-8.813981E-2,1.8513165E-1,-6.1052215E-1,1.2778144E-2,2.1406752E-1,-2.555583E-1,4.136788E-1,1.540898E-2,-7.1508336E-1,7.597382E-1,8.135618E-3,2.7808205E-3,-9.656539E-3,-1.17241936E-4,1.1017551E-2,4.260879E-2,-1.3571055E-2,4.8857857E-3,-2.3911763E-2,-7.2005945E-3,5.830649E-3,2.4382267E-2],"categories":[],"categories_nodes":[],"categories_segments":[],"categories_sizes":[],"default_left":[0,0,0,0,0,0,0,0,0,0,0,0,0,0,0,0,0,0,0,0,0,0,0,0,0],"id":16,"left_children":[1,3,5,7,9,11,-1,13,15,17,19,21,23,-1,-1,-1,-1,-1,-1,-1,-1,-1,-1,-1,-1],"loss_changes":[3.0565899E1,8.698868E0,1.631621E1,9.060635E0,1.3104522E1,1.5730545E1,0E0,4.1856313E-1,1.9182119E0,6.2081146E0,1.3523611E1,3.6641006E0,8.178043E-2,0E0,0E0,0E0,0E0,0E0,0E0,0E0,0E0,0E0,0E0,0E0,0E0],"parents":[2147483647,0,0,1,1,2,2,3,3,4,4,5,5,7,7,8,8,9,9,10,10,11,11,12,12],"right_children":[2,4,6,8,10,12,-1,14,16,18,20,22,24,-1,-1,-1,-1,-1,-1,-1,-1,-1,-1,-1,-1],"split_conditions":[-3.1689814E-1,-7.758021E-1,-7.690464E-3,-1.0588435E0,-6.038773E-1,2.2429242E0,1.2778144E-2,-1.1012443E0,1.1714216E0,-6.113994E-1,-5.5552316E-1,1.073445E0,-3.0377474E-1,8.135618E-3,2.7808205E-3,-9.656539E-3,-1.17241936E-4,1.1017551E-2,4.260879E-2,-1.3571055E-2,4.8857857E-3,-2.3911763E-2,-7.2005945E-3,5.830649E-3,2.4382267E-2],"split_indices":[0,0,0,0,0,1,0,0,1,0,0,1,0,0,0,0,0,0,0,0,0,0,0,0,0],"split_type":[0,0,0,0,0,0,0,0,0,0,0,0,0,0,0,0,0,0,0,0,0,0,0,0,0],"sum_hessian":[6.36E2,5.14E2,1.22E2,1.77E2,3.37E2,1.05E2,1.7E1,6.3E1,1.14E2,1.43E2,1.94E2,9.8E1,7E0,4.2E1,2.1E1,9E1,2.4E1,1.38E2,5E0,4.6E1,1.48E2,8.3E1,1.5E1,1E0,6E0],"tree_param":{"num_deleted":"0","num_feature":"3","num_nodes":"25","size_leaf_vector":"1"}},{"base_weights":[-7.013973E-3,1.4733617E-1,-8.2173723E-1,6.7545615E-2,5.5897784E-1,-1.031416E0,3.1199667E-1,1.0262989E-1,-2.7439507E-2,3.646463E-1,8.483853E-1,-4.0075114E-1,-3.2945734E-2,-3.29141E-1,1.2582732E-2,-3.1655326E-3,7.122958E-3,2.364093E-2,3.433255E-4,2.7052285E-2,-6.402981E-4,-3.2877088E-2,2.7478568E-2,1.20421415E-2,-2.6853485E-2],"categories":[],"categories_nodes":[],"categories_segments":[],"categories_sizes":[],"default_left":[0,0,0,0,0,0,0,0,0,0,0,0,0,0,0,0,0,0,0,0,0,0,0,0,0],"id":17,"left_children":[1,3,5,7,9,11,13,15,-1,17,19,21,-1,23,-1,-1,-1,-1,-1,-1,-1,-1,-1,-1,-1],"loss_changes":[8.211181E1,1.7994215E1,2.5044685E1,1.5979761E1,4.696089E0,3.2658234E0,1.3089415E0,1.25392475E1,0E0,8.215702E0,1.6434746E0,1.0156881E1,0E0,1.5997163E0,0E0,0E0,0E0,0E0,0E0,0E0,0E0,0E0,0E0,0E0,0E0],"parents":[2147483647,0,0,1,1,2,2,3,3,4,4,5,5,6,6,7,7,9,9,10,10,11,11,13,13],"right_children":[2,4,6,8,10,12,14,16,-1,18,20,22,-1,24,-1,-1,-1,-1,-1,-1,-1,-1,-1,-1,-1],"split_conditions":[-2.3253459E-1,-4.364819E-1,-3.4558352E-2,-3.4791017E-1,-4.2039305E-1,-1.9932418E-1,-1.6274238E-1,-7.758021E-1,-2.7439507E-2,-4.8812878E-1,-2.4461542E-1,-9.603222E-2,-3.2945734E-2,-1.738159E-1,1.2582732E-2,-3.1655326E-3,7.122958E-3,2.364093E-2,3.433255E-4,2.7052285E-2,-6.402981E-4,-3.2877088E-2,2.7478568E-2,1.20421415E-2,-2.6853485E-2],"split_indices":[2,0,0,2,2,2,2,0,0,2,2,0,0,2,0,0,0,0,0,0,0,0,0,0,0],"split_type":[0,0,0,0,0,0,0,0,0,0,0,0,0,0,0,0,0,0,0,0,0,0,0,0,0],"sum_hessian":[6.51E2,5.48E2,1.03E2,4.6E2,8.8E1,8.7E1,1.6E1,4.45E2,1.5E1,5.4E1,3.4E1,9E0,7.8E1,2E0,1.4E1,1.75E2,2.7E2,2.4E1,3E1,3.2E1,2E0,6E0,3E0,1E0,1E0],"tree_param":{"num_deleted":"0","num_feature":"3","num_nodes":"25","size_leaf_vector":"1"}},{"base_weights":[-7.586938E-3,8.6647294E-2,-2.7326146E-1,-7.527328E-2,1.782969E-1,-1.0009997E0,-9.977127E-2,2.0015599E-1,-2.634222E-1,3.7722522E-1,-1.0556085E-2,-3.2151666E-2,1.893175E-2,-1.8151885E-1,1.1993704E-2,7.905554E-3,1.3251649E-3,-1.0481093E-2,3.3490694E-4,1.0738397E-2,3.6269702E-2,-4.248634E-3,1.9209178E-2,-7.601069E-3,1.4767014E-2],"categories":[],"categories_nodes":[],"categories_segments":[],"categories_sizes":[],"default_left":[0,0,0,0,0,0,0,0,0,0,0,0,0,0,0,0,0,0,0,0,0,0,0,0,0],"id":18,"left_children":[1,3,5,7,9,11,13,15,17,19,21,-1,-1,23,-1,-1,-1,-1,-1,-1,-1,-1,-1,-1,-1],"loss_changes":[1.6447054E1,7.2107997E0,2.1616068E1,9.173347E0,1.1650126E1,4.485279E0,5.789881E0,6.9997406E-1,2.4818988E0,1.9885769E0,1.3739524E1,0E0,0E0,5.982231E0,0E0,0E0,0E0,0E0,0E0,0E0,0E0,0E0,0E0,0E0,0E0],"parents":[2147483647,0,0,1,1,2,2,3,3,4,4,5,5,6,6,7,7,8,8,9,9,10,10,13,13],"right_children":[2,4,6,8,10,12,14,16,18,20,22,-1,-1,24,-1,-1,-1,-1,-1,-1,-1,-1,-1,-1,-1],"split_conditions":[-4.000172E-1,-7.758021E-1,-6.500429E-1,-1.039157E0,-6.038773E-1,-9.603222E-2,-7.690464E-3,-1.0947919E0,1.1714216E0,-6.05569E-1,5.114046E-1,-3.2151666E-2,1.893175E-2,2.0146751E0,1.1993704E-2,7.905554E-3,1.3251649E-3,-1.0481093E-2,3.3490694E-4,1.0738397E-2,3.6269702E-2,-4.248634E-3,1.9209178E-2,-7.601069E-3,1.4767014E-2],"split_indices":[0,0,1,0,0,0,0,0,1,0,1,0,0,1,0,0,0,0,0,0,0,0,0,0,0],"split_type":[0,0,0,0,0,0,0,0,0,0,0,0,0,0,0,0,0,0,0,0,0,0,0,0,0],"sum_hessian":[6.55E2,4.84E2,1.71E2,1.75E2,3.09E2,3.2E1,1.39E2,7.1E1,1.04E2,1.5E2,1.59E2,3.1E1,1E0,1.2E2,1.9E1,5E1,2.1E1,7.9E1,2.5E1,1.48E2,2E0,1.33E2,2.6E1,1.09E2,1.1E1],"tree_param":{"num_deleted":"0","num_feature":"3","num_nodes":"25","size_leaf_vector":"1"}},{"base_weights":[-2.0458452E-2,1.2103356E-1,-6.939296E-1,6.80996E-2,4.145675E-1,-8.2173574E-1,1.0572137E-2,1.183176E-1,-4.73168E-1,7.0223E-1,-2.320221E-1,-6.6221374E-1,-1.3059431E0,-1.1731375E-3,7.473019E-3,-2.1232214E-2,2.1008076E-2,4.1865855E-2,1.629489E-2,-2.7111577E-2,1.8808033E-2,-2.8070731E-2,-9.514965E-3,-4.1435756E-2,6.3716634E-3],"categories":[],"categories_nodes":[],"categories_segments":[],"categories_sizes":[],"default_left":[0,0,0,0,0,0,0,0,0,0,0,0,0,0,0,0,0,0,0,0,0,0,0,0,0],"id":19,"left_children":[1,3,5,7,9,11,-1,13,15,17,19,21,23,-1,-1,-1,-1,-1,-1,-1,-1,-1,-1,-1,-1],"loss_changes":[6.2023006E1,8.331165E0,1.5400833E1,1.2477871E1,1.54149E1,6.9365997E0,0E0,8.636177E0,1.1230596E1,5.528017E0,1.5567499E1,7.063534E0,3.035408E0,0E0,0E0,0E0,0E0,0E0,0E0,0E0,0E0,0E0,0E0,0E0,0E0],"parents":[2147483647,0,0,1,1,2,2,3,3,4,4,5,5,7,7,8,8,9,9,10,10,11,11,12,12],"right_children":[2,4,6,8,10,12,-1,14,16,18,20,22,24,-1,-1,-1,-1,-1,-1,-1,-1,-1,-1,-1,-1],"split_conditions":[-2.4461542E-1,-4.3519577E-1,-4.484806E-2,-4.633318E-1,-3.4791017E-1,3.5437986E-1,1.0572137E-2,-6.8994904E-1,6.586425E-1,-9.097526E-1,-3.099272E-1,-4.835018E-1,-1.10916466E-1,-1.1731375E-3,7.473019E-3,-2.1232214E-2,2.1008076E-2,4.1865855E-2,1.629489E-2,-2.7111577E-2,1.8808033E-2,-2.8070731E-2,-9.514965E-3,-4.1435756E-2,6.3716634E-3],"split_indices":[2,2,2,2,2,1,0,2,1,1,1,1,2,0,0,0,0,0,0,0,0,0,0,0,0],"split_type":[0,0,0,0,0,0,0,0,0,0,0,0,0,0,0,0,0,0,0,0,0,0,0,0,0],"sum_hessian":[6.49E2,5.37E2,1.12E2,4.56E2,8.1E1,1E2,1.2E1,4.18E2,3.8E1,5.6E1,2.5E1,7.7E1,2.3E1,1.9E2,2.28E2,3.2E1,6E0,9E0,4.7E1,1.4E1,1.1E1,4.2E1,3.5E1,2.2E1,1E0],"tree_param":{"num_deleted":"0","num_feature":"3","num_nodes":"25","size_leaf_vector":"1"}},{"base_weights":[3.371401E-2,1.9677983E-1,-5.906034E-1,-3.3605978E-2,3.3410555E-1,-7.008304E-1,2.592333E-1,3.141441E-2,-1.0847669E-1,2.30526E-1,5.400671E-1,-2.6685604E-1,-8.806165E-1,-1.9629776E-2,1.0912769E-2,5.7261954E-3,-1.9423248E-3,-6.351272E-4,-5.0213784E-3,3.080079E-3,1.9769056E-2,1.9136075E-2,5.3799576E-3,-2.7724884E-2,1.5664304E-2,-2.0085365E-2,-3.3749267E-2],"categories":[],"categories_nodes":[],"categories_segments":[],"categories_sizes":[],"default_left":[0,0,0,0,0,0,0,0,0,0,0,0,0,0,0,0,0,0,0,0,0,0,0,0,0,0,0],"id":20,"left_children":[1,3,5,7,9,11,13,15,17,19,21,23,25,-1,-1,-1,-1,-1,-1,-1,-1,-1,-1,-1,-1,-1,-1],"loss_changes":[6.5373116E1,1.6114922E1,1.2640446E1,9.3321925E-1,6.680855E0,8.971664E0,1.7658632E0,1.5916907E0,4.541422E-1,1.1655104E1,3.6253605E0,1.9152678E1,3.5283813E0,0E0,0E0,0E0,0E0,0E0,0E0,0E0,0E0,0E0,0E0,0E0,0E0,0E0,0E0],"parents":[2147483647,0,0,1,1,2,2,3,3,4,4,5,5,6,6,7,7,8,8,9,9,10,10,11,11,12,12],"right_children":[2,4,6,8,10,12,14,16,18,20,22,24,26,-1,-1,-1,-1,-1,-1,-1,-1,-1,-1,-1,-1,-1,-1],"split_conditions":[-3.4791017E-1,-6.8994904E-1,-6.135507E-2,1.5193602E-1,2.3641838E-1,-2.0523697E-1,-4.835018E-1,-9.5665485E-1,-1.0520052E0,-4.4967642E-1,-4.633318E-1,-3.099272E-1,-2.1931897E-1,-1.9629776E-2,1.0912769E-2,5.7261954E-3,-1.9423248E-3,-6.351272E-4,-5.0213784E-3,3.080079E-3,1.9769056E-2,1.9136075E-2,5.3799576E-3,-2.7724884E-2,1.5664304E-2,-2.0085365E-2,-3.3749267E-2],"split_indices":[2,2,2,1,1,2,1,2,2,2,2,1,1,0,0,0,0,0,0,0,0,0,0,0,0,0,0],"split_type":[0,0,0,0,0,0,0,0,0,0,0,0,0,0,0,0,0,0,0,0,0,0,0,0,0,0,0],"sum_hessian":[6.4E2,5.08E2,1.32E2,1.9E2,3.18E2,1.17E2,1.5E1,1.02E2,8.8E1,2.13E2,1.05E2,3.5E1,8.2E1,1E0,1.4E1,3.8E1,6.4E1,3.6E1,5.2E1,1.65E2,4.8E1,8.2E1,2.3E1,1.9E1,1.6E1,4.6E1,3.6E1],"tree_param":{"num_deleted":"0","num_feature":"3","num_nodes":"27","size_leaf_vector":"1"}},{"base_weights":[3.6636833E-3,7.3980935E-2,-2.5139487E-1,-8.532429E-2,1.517022E-1,-7.9755145E-1,-5.025314E-2,1.9463776E-1,-3.0523518E-1,3.2711986E-1,4.011144E-2,-9.201213E-1,2.572271E-2,-1.6948952E-1,1.1243347E-2,7.580788E-3,1.6154109E-3,-1.1392605E-2,-7.6300354E-4,1.2304763E-2,6.103195E-3,-1.1876513E-2,4.7330945E-3,-2.366802E-2,-3.4682322E-2,-7.6629985E-3,1.8433426E-2],"categories":[],"categories_nodes":[],"categories_segments":[],"categories_sizes":[],"default_left":[0,0,0,0,0,0,0,0,0,0,0,0,0,0,0,0,0,0,0,0,0,0,0,0,0,0,0],"id":21,"left_children":[1,3,5,7,9,11,13,15,17,19,21,23,-1,25,-1,-1,-1,-1,-1,-1,-1,-1,-1,-1,-1,-1,-1],"loss_changes":[1.1120375E1,6.030307E0,1.4680475E1,9.910083E0,6.3879004E0,8.091536E0,5.080762E0,5.6672096E-1,1.8668737E0,1.2208796E0,1.0373454E1,1.4038277E-1,0E0,5.412161E0,0E0,0E0,0E0,0E0,0E0,0E0,0E0,0E0,0E0,0E0,0E0,0E0,0E0],"parents":[2147483647,0,0,1,1,2,2,3,3,4,4,5,5,6,6,7,7,8,8,9,9,10,10,11,11,13,13],"right_children":[2,4,6,8,10,12,14,16,18,20,22,24,-1,26,-1,-1,-1,-1,-1,-1,-1,-1,-1,-1,-1,-1,-1],"split_conditions":[-3.499948E-1,-7.989109E-1,-4.32494E-1,-1.039157E0,-6.23061E-1,-9.603222E-2,-7.690464E-3,-1.0947919E0,8.961702E-1,1.2776989E-1,-5.7058555E-1,-1.4899547E-1,2.572271E-2,2.2429242E0,1.1243347E-2,7.580788E-3,1.6154109E-3,-1.1392605E-2,-7.6300354E-4,1.2304763E-2,6.103195E-3,-1.1876513E-2,4.7330945E-3,-2.366802E-2,-3.4682322E-2,-7.6629985E-3,1.8433426E-2],"split_indices":[0,0,1,0,0,0,0,0,1,1,0,0,0,1,0,0,0,0,0,0,0,0,0,0,0,0,0],"split_type":[0,0,0,0,0,0,0,0,0,0,0,0,0,0,0,0,0,0,0,0,0,0,0,0,0,0,0],"sum_hessian":[6.18E2,4.85E2,1.33E2,1.59E2,3.26E2,3.5E1,9.8E1,7E1,8.9E1,1.26E2,2E2,3.3E1,2E0,7.7E1,2.1E1,4.9E1,2.1E1,7E1,1.9E1,7.4E1,5.2E1,4.2E1,1.58E2,2.4E1,9E0,7E1,7E0],"tree_param":{"num_deleted":"0","num_feature":"3","num_nodes":"27","size_leaf_vector":"1"}},{"base_weights":[-1.4571227E-2,1.3855977E-1,-5.979275E-1,8.229491E-2,7.634104E-1,-7.760274E-1,3.1856862E-1,1.4187342E-1,-1.6386652E-1,-2.3506068E-1,9.316776E-1,-9.225177E-1,-3.8406596E-1,9.1766655E-2,3.76471E-1,-1.7918701E-3,9.257168E-3,-8.331605E-3,2.4608282E-2,3.6237534E-2,-3.1615067E-2,3.5014912E-2,1.2214563E-2,-2.114011E-2,-2.9548172E-2,1.767595E-2,-2.9048221E-2,1.3341177E-2,-2.5093947E-2,1.312391E-2,8.006138E-3],"categories":[],"categories_nodes":[],"categories_segments":[],"categories_sizes":[],"default_left":[0,0,0,0,0,0,0,0,0,0,0,0,0,0,0,0,0,0,0,0,0,0,0,0,0,0,0,0,0,0,0],"id":22,"left_children":[1,3,5,7,9,11,13,15,17,19,21,23,25,27,29,-1,-1,-1,-1,-1,-1,-1,-1,-1,-1,-1,-1,-1,-1,-1,-1],"loss_changes":[5.886195E1,1.8289202E1,2.2609428E1,7.062895E0,7.443426E0,6.2488327E0,2.674973E-1,1.3024297E1,1.076034E1,9.54327E0,4.0949707E0,4.3460083E-1,1.9333937E1,2.3376372E0,3.5796165E-3,0E0,0E0,0E0,0E0,0E0,0E0,0E0,0E0,0E0,0E0,0E0,0E0,0E0,0E0,0E0,0E0],"parents":[2147483647,0,0,1,1,2,2,3,3,4,4,5,5,6,6,7,7,8,8,9,9,10,10,11,11,12,12,13,13,14,14],"right_children":[2,4,6,8,10,12,14,16,18,20,22,24,26,28,30,-1,-1,-1,-1,-1,-1,-1,-1,-1,-1,-1,-1,-1,-1,-1,-1],"split_conditions":[-3.4791017E-1,-4.1268778E-1,-3.4558352E-2,-4.8238304E-1,-5.7058555E-1,-1.00750595E-1,-1.6274238E-1,-7.758021E-1,-3.287106E-1,-6.038773E-1,-3.6809516E-1,-2.3253459E-1,-1.7941338E-1,-1.738159E-1,8.932193E-2,-1.7918701E-3,9.257168E-3,-8.331605E-3,2.4608282E-2,3.6237534E-2,-3.1615067E-2,3.5014912E-2,1.2214563E-2,-2.114011E-2,-2.9548172E-2,1.767595E-2,-2.9048221E-2,1.3341177E-2,-2.5093947E-2,1.312391E-2,8.006138E-3],"split_indices":[2,2,0,2,0,0,2,0,0,0,2,2,2,2,0,0,0,0,0,0,0,0,0,0,0,0,0,0,0,0,0],"split_type":[0,0,0,0,0,0,0,0,0,0,0,0,0,0,0,0,0,0,0,0,0,0,0,0,0,0,0,0,0,0,0],"sum_hessian":[6.57E2,5.21E2,1.36E2,4.79E2,4.2E1,1.14E2,2.2E1,3.86E2,9.3E1,6E0,3.6E1,8.2E1,3.2E1,5E0,1.7E1,1.75E2,2.11E2,8.4E1,9E0,2E0,4E0,2.4E1,1.2E1,2.1E1,6.1E1,1.2E1,2E1,4E0,1E0,9E0,8E0],"tree_param":{"num_deleted":"0","num_feature":"3","num_nodes":"31","size_leaf_vector":"1"}},{"base_weights":[-7.903553E-3,1.0649914E-1,-6.2315786E-1,-4.8374683E-2,1.9209723E-1,-7.2141916E-1,1.8210897E-1,1.0045126E-2,-1.3113984E-1,4.406591E-1,6.2789425E-2,-6.0633177E-1,-1.1608713E0,-1.8371873E-2,9.300271E-3,5.040436E-3,-1.953477E-3,-6.233681E-3,-5.045181E-4,8.531471E-4,1.4316318E-2,-1.798217E-2,5.088043E-3,-1.05134025E-2,-2.7641518E-2,-3.7638683E-2,6.493585E-3],"categories":[],"categories_nodes":[],"categories_segments":[],"categories_sizes":[],"default_left":[0,0,0,0,0,0,0,0,0,0,0,0,0,0,0,0,0,0,0,0,0,0,0,0,0,0,0],"id":23,"left_children":[1,3,5,7,9,11,13,15,17,19,21,23,25,-1,-1,-1,-1,-1,-1,-1,-1,-1,-1,-1,-1,-1,-1],"loss_changes":[4.624007E1,7.3536186E0,8.281414E0,9.5867205E-1,1.1446666E1,3.9490623E0,1.4092547E0,1.4000982E0,7.1505296E-1,1.8246403E0,1.6794033E1,5.7233887E0,2.5958405E0,0E0,0E0,0E0,0E0,0E0,0E0,0E0,0E0,0E0,0E0,0E0,0E0,0E0,0E0],"parents":[2147483647,0,0,1,1,2,2,3,3,4,4,5,5,6,6,7,7,8,8,9,9,10,10,11,11,12,12],"right_children":[2,4,6,8,10,12,14,16,18,20,22,24,26,-1,-1,-1,-1,-1,-1,-1,-1,-1,-1,-1,-1,-1,-1],"split_conditions":[-2.1664166E-1,-6.8994904E-1,-6.135507E-2,-9.2351997E-1,-6.1939734E-1,3.5437986E-1,-4.835018E-1,-2.8903955E-1,-8.633379E-1,-1.4942793E0,-4.9963614E-1,-1.10916466E-1,-1.2208437E-1,-1.8371873E-2,9.300271E-3,5.040436E-3,-1.953477E-3,-6.233681E-3,-5.045181E-4,8.531471E-4,1.4316318E-2,-1.798217E-2,5.088043E-3,-1.05134025E-2,-2.7641518E-2,-3.7638683E-2,6.493585E-3],"split_indices":[2,2,2,2,2,1,1,1,2,1,2,2,2,0,0,0,0,0,0,0,0,0,0,0,0,0,0],"split_type":[0,0,0,0,0,0,0,0,0,0,0,0,0,0,0,0,0,0,0,0,0,0,0,0,0,0,0],"sum_hessian":[6.55E2,5.53E2,1.02E2,1.97E2,3.56E2,9.1E1,1.1E1,1.16E2,8.1E1,1.21E2,2.35E2,7.4E1,1.7E1,1E0,1E1,3.7E1,7.9E1,4.8E1,3.3E1,1E1,1.11E2,3.2E1,2.03E2,4.2E1,3.2E1,1.6E1,1E0],"tree_param":{"num_deleted":"0","num_feature":"3","num_nodes":"27","size_leaf_vector":"1"}},{"base_weights":[-3.3757952E-3,1.4501385E-1,-5.8647436E-1,8.9143485E-2,7.561352E-1,-6.8041515E-1,2.270728E-1,-5.187982E-2,1.8351601E-1,4.5779344E-1,8.3506095E-1,-4.1661608E-1,-8.0020934E-1,-1.8096294E-2,1.0120244E-2,7.9722115E-4,-3.2263545E-3,8.228554E-3,-7.333083E-3,2.5833245E-2,-2.7142454E-2,3.7804812E-2,2.0654801E-2,-2.592916E-2,3.8650031E-3,-2.0342387E-2,-3.508912E-2],"categories":[],"categories_nodes":[],"categories_segments":[],"categories_sizes":[],"default_left":[0,0,0,0,0,0,0,0,0,0,0,0,0,0,0,0,0,0,0,0,0,0,0,0,0,0,0],"id":24,"left_children":[1,3,5,7,9,11,13,15,17,19,21,23,25,-1,-1,-1,-1,-1,-1,-1,-1,-1,-1,-1,-1,-1,-1],"loss_changes":[5.45963E1,1.7106813E1,9.936932E0,6.1581516E0,6.066818E-1,3.3008041E0,1.4852456E0,8.1514955E-1,1.0827071E1,6.8239517E0,1.1261749E0,9.390644E0,2.7261124E0,0E0,0E0,0E0,0E0,0E0,0E0,0E0,0E0,0E0,0E0,0E0,0E0,0E0,0E0],"parents":[2147483647,0,0,1,1,2,2,3,3,4,4,5,5,6,6,7,7,8,8,9,9,10,10,11,11,12,12],"right_children":[2,4,6,8,10,12,14,16,18,20,22,24,26,-1,-1,-1,-1,-1,-1,-1,-1,-1,-1,-1,-1,-1,-1],"split_conditions":[-3.4791017E-1,-4.1520202E-1,-6.135507E-2,-7.114492E-1,-7.418471E-1,-1.9932418E-1,-4.835018E-1,-2.8903955E-1,-4.633318E-1,-8.330057E-1,-5.357328E-1,-6.210706E-1,3.5437986E-1,-1.8096294E-2,1.0120244E-2,7.9722115E-4,-3.2263545E-3,8.228554E-3,-7.333083E-3,2.5833245E-2,-2.7142454E-2,3.7804812E-2,2.0654801E-2,-2.592916E-2,3.8650031E-3,-2.0342387E-2,-3.508912E-2],"split_indices":[2,2,2,2,1,2,1,1,2,1,1,1,1,0,0,0,0,0,0,0,0,0,0,0,0,0,0],"split_type":[0,0,0,0,0,0,0,0,0,0,0,0,0,0,0,0,0,0,0,0,0,0,0,0,0,0,0],"sum_hessian":[6.29E2,5.02E2,1.27E2,4.61E2,4.1E1,1.14E2,1.3E1,1.85E2,2.76E2,1E1,3.1E1,3.7E1,7.7E1,1E0,1.2E1,7.7E1,1.08E2,2.28E2,4.8E1,8E0,2E0,6E0,2.5E1,2E1,1.7E1,6E1,1.7E1],"tree_param":{"num_deleted":"0","num_feature":"3","num_nodes":"27","size_leaf_vector":"1"}},{"base_weights":[1.6319333E-2,1.5442044E-1,-5.247003E-1,9.034618E-2,7.381117E-1,-6.1413014E-1,2.1379462E-1,1.2399553E-1,-2.7196047E-1,9.295234E-1,4.6467456E-1,-2.9569623E-1,-7.6169E-1,-1.782485E-2,9.418377E-3,3.020522E-3,3.2650385E-2,-1.1335315E-2,2.3263533E-2,3.2704204E-2,8.069802E-3,-2.8273249E-2,1.9306913E-2,-2.2635534E-2,8.445399E-3,-1.9568982E-2,-3.3861242E-2],"categories":[],"categories_nodes":[],"categories_segments":[],"categories_sizes":[],"default_left":[0,0,0,0,0,0,0,0,0,0,0,0,0,0,0,0,0,0,0,0,0,0,0,0,0,0,0],"id":25,"left_children":[1,3,5,7,9,11,13,15,17,19,21,23,25,-1,-1,-1,-1,-1,-1,-1,-1,-1,-1,-1,-1,-1,-1],"loss_changes":[4.8496597E1,1.9268894E1,8.849041E0,5.7270975E0,2.2373676E0,5.3193703E0,1.4003023E0,9.512043E0,4.7291393E0,2.783434E0,6.396034E0,1.0541019E1,2.4756088E0,0E0,0E0,0E0,0E0,0E0,0E0,0E0,0E0,0E0,0E0,0E0,0E0,0E0,0E0],"parents":[2147483647,0,0,1,1,2,2,3,3,4,4,5,5,6,6,7,7,8,8,9,9,10,10,11,11,12,12],"right_children":[2,4,6,8,10,12,14,16,18,20,22,24,26,-1,-1,-1,-1,-1,-1,-1,-1,-1,-1,-1,-1,-1,-1],"split_conditions":[-3.4791017E-1,-4.2850363E-1,-6.135507E-2,-4.6179408E-1,-2.1931897E-1,-1.9932418E-1,-4.835018E-1,-4.6516097E-1,6.586425E-1,-3.6809516E-1,-1.6088597E-1,-3.099272E-1,3.5437986E-1,-1.782485E-2,9.418377E-3,3.020522E-3,3.2650385E-2,-1.1335315E-2,2.3263533E-2,3.2704204E-2,8.069802E-3,-2.8273249E-2,1.9306913E-2,-2.2635534E-2,8.445399E-3,-1.9568982E-2,-3.3861242E-2],"split_indices":[2,2,2,2,1,2,1,2,1,2,1,1,1,0,0,0,0,0,0,0,0,0,0,0,0,0,0],"split_type":[0,0,0,0,0,0,0,0,0,0,0,0,0,0,0,0,0,0,0,0,0,0,0,0,0,0,0],"sum_hessian":[6.47E2,5.16E2,1.31E2,4.66E2,5E1,1.17E2,1.4E1,4.27E2,3.9E1,2.8E1,2.2E1,3.8E1,7.9E1,1E0,1.3E1,4.18E2,9E0,3.6E1,3E0,2.2E1,6E0,2E0,2E1,2.1E1,1.7E1,6.3E1,1.6E1],"tree_param":{"num_deleted":"0","num_feature":"3","num_nodes":"27","size_leaf_vector":"1"}},{"base_weights":[2.3944331E-2,1.5855452E-1,-5.329949E-1,-3.7930768E-2,2.7571374E-1,-6.295325E-1,8.321296E-3,3.94165E-2,-1.4184599E-1,1.6076034E-1,4.6472874E-1,-3.237044E-1,-7.4781746E-1,6.1713154E-3,-1.3609405E-3,-6.6008E-3,-3.110912E-4,1.2533715E-3,1.8895876E-2,1.7885027E-2,2.2927995E-3,-2.4497163E-2,1.2105423E-2,-1.6763443E-2,-3.0003533E-2],"categories":[],"categories_nodes":[],"categories_segments":[],"categories_sizes":[],"default_left":[0,0,0,0,0,0,0,0,0,0,0,0,0,0,0,0,0,0,0,0,0,0,0,0,0],"id":26,"left_children":[1,3,5,7,9,11,-1,13,15,17,19,21,23,-1,-1,-1,-1,-1,-1,-1,-1,-1,-1,-1,-1],"loss_changes":[4.814009E1,1.1911832E1,9.953529E0,1.5648775E0,6.9651394E0,3.809513E0,0E0,1.5883757E0,8.5086775E-1,1.1304005E1,6.181072E0,1.2157442E1,3.2566566E0,0E0,0E0,0E0,0E0,0E0,0E0,0E0,0E0,0E0,0E0,0E0,0E0],"parents":[2147483647,0,0,1,1,2,2,3,3,4,4,5,5,7,7,8,8,9,9,10,10,11,11,12,12],"right_children":[2,4,6,8,10,12,-1,14,16,18,20,22,24,-1,-1,-1,-1,-1,-1,-1,-1,-1,-1,-1,-1],"split_conditions":[-3.4791017E-1,-6.8994904E-1,-6.135507E-2,-9.345857E-1,1.5193602E-1,-2.0523697E-1,8.321296E-3,-2.8903955E-1,-8.633379E-1,-4.4533947E-1,-4.633318E-1,-3.099272E-1,-2.1931897E-1,6.1713154E-3,-1.3609405E-3,-6.6008E-3,-3.110912E-4,1.2533715E-3,1.8895876E-2,1.7885027E-2,2.2927995E-3,-2.4497163E-2,1.2105423E-2,-1.6763443E-2,-3.0003533E-2],"split_indices":[2,2,2,2,1,2,0,1,2,2,2,1,1,0,0,0,0,0,0,0,0,0,0,0,0],"split_type":[0,0,0,0,0,0,0,0,0,0,0,0,0,0,0,0,0,0,0,0,0,0,0,0,0],"sum_hessian":[6.4E2,5.16E2,1.24E2,1.93E2,3.23E2,1.11E2,1.3E1,1.11E2,8.2E1,2.02E2,1.21E2,3.2E1,7.9E1,3.7E1,7.4E1,5.1E1,3.1E1,1.62E2,4E1,9E1,3.1E1,1.9E1,1.3E1,4.7E1,3.2E1],"tree_param":{"num_deleted":"0","num_feature":"3","num_nodes":"25","size_leaf_vector":"1"}},{"base_weights":[-1.2110383E-3,6.1815888E-2,-2.2545023E-1,-9.176974E-2,1.4198355E-1,-3.735724E-1,2.5716797E-1,1.7279196E-1,-2.629723E-1,3.2201892E-1,2.5199408E-2,-5.15744E-1,3.0456802E-1,2.6214458E-2,6.104646E-1,-1.5933968E-3,5.7560033E-3,-1.0428162E-2,-1.050768E-3,1.0212136E-2,-3.1647724E-3,-7.837675E-3,6.6989753E-3,-2.4256406E-2,-1.2176768E-2,1.2163393E-2,-2.266865E-2,1.2313624E-2,-2.4027037E-2,8.648023E-3,2.1649007E-2],"categories":[],"categories_nodes":[],"categories_segments":[],"categories_sizes":[],"default_left":[0,0,0,0,0,0,0,0,0,0,0,0,0,0,0,0,0,0,0,0,0,0,0,0,0,0,0,0,0,0,0],"id":27,"left_children":[1,3,5,7,9,11,13,15,17,19,21,23,25,27,29,-1,-1,-1,-1,-1,-1,-1,-1,-1,-1,-1,-1,-1,-1,-1,-1],"loss_changes":[8.889528E0,6.058517E0,9.961203E0,7.700064E0,6.7830505E0,1.0376781E1,2.6766348E0,2.9890037E-1,1.9748831E0,1.0341396E0,1.1237442E1,2.5023289E0,2.3384192E0,7.002758E0,2.576151E-1,0E0,0E0,0E0,0E0,0E0,0E0,0E0,0E0,0E0,0E0,0E0,0E0,0E0,0E0,0E0,0E0],"parents":[2147483647,0,0,1,1,2,2,3,3,4,4,5,5,6,6,7,7,8,8,9,9,10,10,11,11,12,12,13,13,14,14],"right_children":[2,4,6,8,10,12,14,16,18,20,22,24,26,28,30,-1,-1,-1,-1,-1,-1,-1,-1,-1,-1,-1,-1,-1,-1,-1,-1],"split_conditions":[-3.499948E-1,-7.6664966E-1,1.073445E0,-1.039157E0,-6.1262643E-1,-3.4558352E-2,1.8661078E0,-2.2829387E0,6.321495E-1,1.0079267E0,-5.316953E-1,-6.736831E-1,9.74713E-1,1.473501E0,-3.0158713E-1,-1.5933968E-3,5.7560033E-3,-1.0428162E-2,-1.050768E-3,1.0212136E-2,-3.1647724E-3,-7.837675E-3,6.6989753E-3,-2.4256406E-2,-1.2176768E-2,1.2163393E-2,-2.266865E-2,1.2313624E-2,-2.4027037E-2,8.648023E-3,2.1649007E-2],"split_indices":[0,0,1,0,0,0,1,1,1,1,0,1,1,1,0,0,0,0,0,0,0,0,0,0,0,0,0,0,0,0,0],"split_type":[0,0,0,0,0,0,0,0,0,0,0,0,0,0,0,0,0,0,0,0,0,0,0,0,0,0,0,0,0,0,0],"sum_hessian":[6.27E2,4.9E2,1.37E2,1.68E2,3.22E2,1.05E2,3.2E1,6.6E1,1.02E2,1.26E2,1.96E2,8.7E1,1.8E1,2E1,1.2E1,5E0,6.1E1,7.4E1,2.8E1,1.21E2,5E0,8E1,1.16E2,2.2E1,6.5E1,1.7E1,1E0,1.4E1,6E0,4E0,8E0],"tree_param":{"num_deleted":"0","num_feature":"3","num_nodes":"31","size_leaf_vector":"1"}},{"base_weights":[-2.1523466E-2,-2.1043289E-1,6.7373484E-2,7.799159E-2,-5.549173E-1,1.198328E-1,-1.2329364E-1,-7.30926E-2,4.3118995E-1,-3.8209784E-1,-2.4682043E-2,3.881391E-2,3.8241494E-1,-2.6223326E-1,3.7879038E-1,5.5440976E-3,-8.33355E-3,1.0742692E-2,1.9859763E-2,-1.3688404E-2,2.2559365E-2,1.8451487E-3,-2.8414557E-2,1.8566633E-2,-6.1498526E-3,-1.0097919E-2,1.9471591E-2,1.2844083E-2,6.5680984E-3],"categories":[],"categories_nodes":[],"categories_segments":[],"categories_sizes":[],"default_left":[0,0,0,0,0,0,0,0,0,0,0,0,0,0,0,0,0,0,0,0,0,0,0,0,0,0,0,0,0],"id":28,"left_children":[1,3,5,7,9,11,13,15,17,19,-1,21,23,25,27,-1,-1,-1,-1,-1,-1,-1,-1,-1,-1,-1,-1,-1,-1],"loss_changes":[1.081238E1,2.0510971E1,4.395767E0,6.061501E0,4.036339E0,7.303452E0,6.7264705E0,4.2744813E0,3.3658457E-1,5.306691E0,0E0,5.96462E0,1.1378298E1,5.300991E0,7.191563E-2,0E0,0E0,0E0,0E0,0E0,0E0,0E0,0E0,0E0,0E0,0E0,0E0,0E0,0E0],"parents":[2147483647,0,0,1,1,2,2,3,3,4,4,5,5,6,6,7,7,8,8,9,9,11,11,12,12,13,13,14,14],"right_children":[2,4,6,8,10,12,14,16,18,20,-1,22,24,26,28,-1,-1,-1,-1,-1,-1,-1,-1,-1,-1,-1,-1,-1,-1],"split_conditions":[-6.500429E-1,-6.4326435E-1,-2.8190115E-1,-7.758021E-1,-4.2579284E-1,-5.0282204E-1,-3.4558352E-2,-1.0823482E0,-6.828241E-1,-4.364819E-1,-2.4682043E-2,-5.09482E-1,8.6817575E-1,2.2429242E0,8.932193E-2,5.5440976E-3,-8.33355E-3,1.0742692E-2,1.9859763E-2,-1.3688404E-2,2.2559365E-2,1.8451487E-3,-2.8414557E-2,1.8566633E-2,-6.1498526E-3,-1.0097919E-2,1.9471591E-2,1.2844083E-2,6.5680984E-3],"split_indices":[1,0,0,0,0,0,0,0,0,0,0,0,1,1,0,0,0,0,0,0,0,0,0,0,0,0,0,0,0],"split_type":[0,0,0,0,0,0,0,0,0,0,0,0,0,0,0,0,0,0,0,0,0,0,0,0,0,0,0,0,0],"sum_hessian":[6.42E2,2.05E2,4.37E2,1.12E2,9.3E1,3.43E2,9.4E1,7.9E1,3.3E1,5.8E1,3.5E1,2.63E2,8E1,7.4E1,2E1,3.5E1,4.4E1,2.7E1,6E0,5.5E1,3E0,2.58E2,5E0,5.7E1,2.3E1,6.9E1,5E0,1.4E1,6E0],"tree_param":{"num_deleted":"0","num_feature":"3","num_nodes":"29","size_leaf_vector":"1"}},{"base_weights":[2.3165323E-2,8.315228E-2,-2.0252371E-1,-6.2859066E-2,1.6335928E-1,-3.144205E-1,2.9344723E-1,1.9127461E-1,-2.0374338E-1,-6.466545E-1,1.8863566E-1,-3.9064577E-1,5.759322E-1,3.8820484E-1,-5.6729997E-3,-3.6761125E-3,6.598371E-3,-8.6291805E-3,9.859907E-4,4.742598E-3,-2.6028017E-2,4.21927E-2,5.2896463E-3,-2.1579027E-2,-9.018484E-3,5.6455834E-3,1.979499E-2,1.6668739E-2,9.662612E-3,-2.252128E-2,7.3085385E-3],"categories":[],"categories_nodes":[],"categories_segments":[],"categories_sizes":[],"default_left":[0,0,0,0,0,0,0,0,0,0,0,0,0,0,0,0,0,0,0,0,0,0,0,0,0,0,0,0,0,0,0],"id":29,"left_children":[1,3,5,7,9,11,13,15,17,19,21,23,25,27,29,-1,-1,-1,-1,-1,-1,-1,-1,-1,-1,-1,-1,-1,-1,-1,-1],"loss_changes":[8.573108E0,5.865835E0,7.47344E0,6.411984E0,6.7351494E0,7.622531E0,7.108002E-1,6.027806E-1,2.2922735E0,1.9151998E0,4.4607487E0,2.7722273E0,1.6861868E-1,3.1359434E-2,1.4830021E0,0E0,0E0,0E0,0E0,0E0,0E0,0E0,0E0,0E0,0E0,0E0,0E0,0E0,0E0,0E0,0E0],"parents":[2147483647,0,0,1,1,2,2,3,3,4,4,5,5,6,6,7,7,8,8,9,9,10,10,11,11,12,12,13,13,14,14],"right_children":[2,4,6,8,10,12,14,16,18,20,22,24,26,28,30,-1,-1,-1,-1,-1,-1,-1,-1,-1,-1,-1,-1,-1,-1,-1,-1],"split_conditions":[-3.499948E-1,-7.6664966E-1,-3.4558352E-2,-1.0588435E0,-1.7633266E0,2.0146751E0,9.74713E-1,-2.2829387E0,8.961702E-1,-6.910839E-1,-1.6780206E0,-6.736831E-1,-3.0158713E-1,-7.690464E-3,-7.690464E-3,-3.6761125E-3,6.598371E-3,-8.6291805E-3,9.859907E-4,4.742598E-3,-2.6028017E-2,4.21927E-2,5.2896463E-3,-2.1579027E-2,-9.018484E-3,5.6455834E-3,1.979499E-2,1.6668739E-2,9.662612E-3,-2.252128E-2,7.3085385E-3],"split_indices":[0,0,0,0,1,1,1,1,1,0,1,1,0,0,0,0,0,0,0,0,0,0,0,0,0,0,0,0,0,0,0],"split_type":[0,0,0,0,0,0,0,0,0,0,0,0,0,0,0,0,0,0,0,0,0,0,0,0,0,0,0,0,0,0,0],"sum_hessian":[6.31E2,4.99E2,1.32E2,1.77E2,3.22E2,1.08E2,2.4E1,6.3E1,1.14E2,9E0,3.13E2,1E2,8E0,1.8E1,6E0,5E0,5.8E1,8.4E1,3E1,2E0,7E0,2E0,3.11E2,2E1,8E1,2E0,6E0,3E0,1.5E1,1E0,5E0],"tree_param":{"num_deleted":"0","num_feature":"3","num_nodes":"31","size_leaf_vector":"1"}},{"base_weights":[2.2221942E-2,1.1259324E-1,-4.8762676E-1,7.019454E-2,7.1246946E-1,-6.7297393E-1,3.6322874E-1,1.00201614E-1,-2.4283053E-2,3.180038E-1,7.8076243E-1,-4.8752317E-1,-9.2232734E-1,1.6501883E-2,7.471708E-3,1.3816109E-3,2.8192924E-2,1.1012475E-2,3.9061399E-3,2.5446117E-2,8.217436E-3,-2.0239022E-2,2.0439604E-3,-2.1354258E-2,-3.3045463E-2],"categories":[],"categories_nodes":[],"categories_segments":[],"categories_sizes":[],"default_left":[0,0,0,0,0,0,0,0,0,0,0,0,0,0,0,0,0,0,0,0,0,0,0,0,0],"id":30,"left_children":[1,3,5,7,9,11,13,15,-1,17,19,21,23,-1,-1,-1,-1,-1,-1,-1,-1,-1,-1,-1,-1],"loss_changes":[2.9681574E1,1.3862372E1,1.55417E1,1.3595406E1,7.21529E-1,3.2497673E0,2.4696422E-1,2.2505161E1,0E0,1.6722739E-2,7.931404E-1,5.0364847E0,4.6077347E-1,0E0,0E0,0E0,0E0,0E0,0E0,0E0,0E0,0E0,0E0,0E0,0E0],"parents":[2147483647,0,0,1,1,2,2,3,3,4,4,5,5,6,6,7,7,9,9,10,10,11,11,12,12],"right_children":[2,4,6,8,10,12,14,16,-1,18,20,22,24,-1,-1,-1,-1,-1,-1,-1,-1,-1,-1,-1,-1],"split_conditions":[-2.1664166E-1,-3.287106E-1,-3.4558352E-2,-3.4791017E-1,-4.7779554E-1,-1.1500589E-1,-6.9269374E-2,-4.0502056E-1,-2.4283053E-2,-2.4427876E-1,-6.043153E-2,-8.7796405E-2,-1.8979484E-1,1.6501883E-2,7.471708E-3,1.3816109E-3,2.8192924E-2,1.1012475E-2,3.9061399E-3,2.5446117E-2,8.217436E-3,-2.0239022E-2,2.0439604E-3,-2.1354258E-2,-3.3045463E-2],"split_indices":[2,0,0,2,2,2,2,2,0,0,0,0,0,0,0,0,0,0,0,0,0,0,0,0,0],"split_type":[0,0,0,0,0,0,0,0,0,0,0,0,0,0,0,0,0,0,0,0,0,0,0,0,0],"sum_hessian":[6.42E2,5.46E2,9.6E1,5.11E2,3.5E1,7.9E1,1.7E1,4.95E2,1.6E1,6E0,2.9E1,4.7E1,3.2E1,5E0,1.2E1,4.66E2,2.9E1,4E0,2E0,2.5E1,4E0,3.5E1,1.2E1,1.7E1,1.5E1],"tree_param":{"num_deleted":"0","num_feature":"3","num_nodes":"25","size_leaf_vector":"1"}},{"base_weights":[2.953144E-3,1.315286E-1,-4.9218035E-1,7.108046E-2,7.476057E-1,-6.2365013E-1,2.4494989E-1,1.2879209E-1,-3.8650924E-1,1.0739468E-1,8.4095246E-1,-2.3405248E-2,-3.8391954E-1,-5.3820565E-2,8.93205E-3,3.2358745E-3,4.65441E-2,-1.7282005E-2,2.2552824E-2,3.717013E-2,-3.153191E-2,3.1443574E-2,1.2773999E-2,2.4235519E-2,-1.947298E-2,1.280117E-2,-2.243099E-2],"categories":[],"categories_nodes":[],"categories_segments":[],"categories_sizes":[],"default_left":[0,0,0,0,0,0,0,0,0,0,0,0,0,0,0,0,0,0,0,0,0,0,0,0,0,0,0],"id":31,"left_children":[1,3,5,7,9,11,13,15,17,19,21,-1,23,25,-1,-1,-1,-1,-1,-1,-1,-1,-1,-1,-1,-1,-1],"loss_changes":[4.1381386E1,1.9163067E1,1.3138752E1,1.2488066E1,2.658722E0,3.9781876E0,3.4720755E-1,1.230884E1,1.1868757E1,1.0478732E1,2.9939442E0,0E0,1.5377943E1,1.6527562E0,0E0,0E0,0E0,0E0,0E0,0E0,0E0,0E0,0E0,0E0,0E0,0E0,0E0],"parents":[2147483647,0,0,1,1,2,2,3,3,4,4,5,5,6,6,7,7,8,8,9,9,10,10,12,12,13,13],"right_children":[2,4,6,8,10,12,14,16,18,20,22,-1,24,26,-1,-1,-1,-1,-1,-1,-1,-1,-1,-1,-1,-1,-1],"split_conditions":[-3.4791017E-1,-4.2266774E-1,-3.4558352E-2,-4.633318E-1,-5.7058555E-1,-1.4103465E-1,-7.690464E-3,-4.6516097E-1,-3.7477463E-1,-6.038773E-1,-3.6809516E-1,-2.3405248E-2,-2.1664166E-1,-1.738159E-1,8.93205E-3,3.2358745E-3,4.65441E-2,-1.7282005E-2,2.2552824E-2,3.717013E-2,-3.153191E-2,3.1443574E-2,1.2773999E-2,2.4235519E-2,-1.947298E-2,1.280117E-2,-2.243099E-2],"split_indices":[2,2,0,2,0,0,0,2,0,0,2,0,2,2,0,0,0,0,0,0,0,0,0,0,0,0,0],"split_type":[0,0,0,0,0,0,0,0,0,0,0,0,0,0,0,0,0,0,0,0,0,0,0,0,0,0,0],"sum_hessian":[6.48E2,5.15E2,1.33E2,4.7E2,4.5E1,1.13E2,2E1,4.18E2,5.2E1,6E0,3.9E1,6.7E1,4.6E1,3E0,1.7E1,4.13E2,5E0,4.5E1,7E0,3E0,3E0,2.5E1,1.4E1,8E0,3.8E1,2E0,1E0],"tree_param":{"num_deleted":"0","num_feature":"3","num_nodes":"27","size_leaf_vector":"1"}},{"base_weights":[3.5384316E-3,6.667896E-2,-2.287708E-1,-1.8043494E-1,1.2601677E-1,-7.151965E-1,-4.831019E-2,-4.996404E-2,-7.202895E-1,-5.7370268E-2,1.9756451E-1,-7.7419806E-1,2.1132907E-2,-1.3816878E-1,9.0176305E-3,-3.5512063E-3,2.99956E-2,-1.3603304E-2,-2.8992077E-2,4.6933414E-3,-6.727505E-3,9.573603E-3,2.9598158E-3,-1.9778522E-2,-2.9262943E-2,-2.2829346E-4,-2.1363629E-2],"categories":[],"categories_nodes":[],"categories_segments":[],"categories_sizes":[],"default_left":[0,0,0,0,0,0,0,0,0,0,0,0,0,0,0,0,0,0,0,0,0,0,0,0,0,0,0],"id":32,"left_children":[1,3,5,7,9,11,13,15,17,19,21,23,-1,25,-1,-1,-1,-1,-1,-1,-1,-1,-1,-1,-1,-1,-1],"loss_changes":[9.402857E0,7.412988E0,1.1991401E1,6.8666735E0,5.351553E0,3.644495E0,3.2080305E0,5.8637567E0,8.0960274E-1,4.138447E0,3.4910593E0,1.8939781E-1,0E0,6.064286E0,0E0,0E0,0E0,0E0,0E0,0E0,0E0,0E0,0E0,0E0,0E0,0E0,0E0],"parents":[2147483647,0,0,1,1,2,2,3,3,4,4,5,5,6,6,7,7,8,8,9,9,10,10,11,11,13,13],"right_children":[2,4,6,8,10,12,14,16,18,20,22,24,-1,26,-1,-1,-1,-1,-1,-1,-1,-1,-1,-1,-1,-1,-1],"split_conditions":[-3.5539535E-1,-1.2027706E0,-4.835018E-1,-5.478813E-1,-8.1273717E-1,-8.7796405E-2,-7.690464E-3,-5.94803E-1,-1.3815554E0,-1.0015349E0,-6.038773E-1,-1.8979484E-1,2.1132907E-2,-6.043153E-2,9.0176305E-3,-3.5512063E-3,2.99956E-2,-1.3603304E-2,-2.8992077E-2,4.6933414E-3,-6.727505E-3,9.573603E-3,2.9598158E-3,-1.9778522E-2,-2.9262943E-2,-2.2829346E-4,-2.1363629E-2],"split_indices":[0,1,1,0,0,0,0,0,1,0,0,0,0,0,0,0,0,0,0,0,0,0,0,0,0,0,0],"split_type":[0,0,0,0,0,0,0,0,0,0,0,0,0,0,0,0,0,0,0,0,0,0,0,0,0,0,0],"sum_hessian":[6.39E2,5.03E2,1.36E2,9.7E1,4.06E2,3.6E1,1E2,7.9E1,1.8E1,1.14E2,2.92E2,3.5E1,1E0,8E1,2E1,7.5E1,4E0,1E1,8E0,5E1,6.4E1,1.3E2,1.62E2,2.5E1,1E1,6.6E1,1.4E1],"tree_param":{"num_deleted":"0","num_feature":"3","num_nodes":"27","size_leaf_vector":"1"}},{"base_weights":[-9.125E-4,6.4016104E-2,-2.7504826E-1,-7.0615865E-2,1.2909117E-1,-4.0103683E-1,2.7711308E-1,1.932234E-1,-2.2210322E-1,-6.365404E-1,1.4612515E-1,-5.655343E-1,1.6399778E-1,3.8408813E-1,-3.755315E-2,7.284431E-3,1.2550722E-3,-8.567419E-3,2.3046898E-4,3.8982546E-3,-2.293803E-2,4.0861767E-2,4.058561E-3,-1.54061E-2,-3.1032972E-2,2.0491092E-2,-2.562181E-4,1.644143E-2,9.4427895E-3,-2.177407E-2,5.9436634E-3],"categories":[],"categories_nodes":[],"categories_segments":[],"categories_sizes":[],"default_left":[0,0,0,0,0,0,0,0,0,0,0,0,0,0,0,0,0,0,0,0,0,0,0,0,0,0,0,0,0,0,0],"id":33,"left_children":[1,3,5,7,9,11,13,15,17,19,21,23,25,27,29,-1,-1,-1,-1,-1,-1,-1,-1,-1,-1,-1,-1,-1,-1,-1,-1],"loss_changes":[1.1711717E1,4.670066E0,8.876452E0,6.9974027E0,4.7750044E0,9.666262E0,8.2229805E-1,4.7031927E-1,1.6212611E0,8.84603E-1,4.4552584E0,1.4193039E0,2.1551318E0,3.2103777E-2,1.2792206E0,0E0,0E0,0E0,0E0,0E0,0E0,0E0,0E0,0E0,0E0,0E0,0E0,0E0,0E0,0E0,0E0],"parents":[2147483647,0,0,1,1,2,2,3,3,4,4,5,5,6,6,7,7,8,8,9,9,10,10,11,11,12,12,13,13,14,14],"right_children":[2,4,6,8,10,12,14,16,18,20,22,24,26,28,30,-1,-1,-1,-1,-1,-1,-1,-1,-1,-1,-1,-1,-1,-1,-1,-1],"split_conditions":[-2.8190115E-1,-7.758021E-1,-3.4558352E-2,-1.0588435E0,-1.7633266E0,8.4387296E-1,9.272772E-1,-1.0947919E0,1.1714216E0,-7.400714E-1,-1.6780206E0,-5.097772E-2,-1.765345E-1,-7.690464E-3,-7.690464E-3,7.284431E-3,1.2550722E-3,-8.567419E-3,2.3046898E-4,3.8982546E-3,-2.293803E-2,4.0861767E-2,4.058561E-3,-1.54061E-2,-3.1032972E-2,2.0491092E-2,-2.562181E-4,1.644143E-2,9.4427895E-3,-2.177407E-2,5.9436634E-3],"split_indices":[0,0,0,0,1,1,1,0,1,0,1,0,0,0,0,0,0,0,0,0,0,0,0,0,0,0,0,0,0,0,0],"split_type":[0,0,0,0,0,0,0,0,0,0,0,0,0,0,0,0,0,0,0,0,0,0,0,0,0,0,0,0,0,0,0],"sum_hessian":[6.56E2,5.31E2,1.25E2,1.73E2,3.58E2,1.02E2,2.3E1,6.3E1,1.1E2,7E0,3.51E2,7.9E1,2.3E1,1.7E1,6E0,4.7E1,1.6E1,8.6E1,2.4E1,1E0,6E0,2E0,3.49E2,7.3E1,6E0,5E0,1.8E1,3E0,1.4E1,1E0,5E0],"tree_param":{"num_deleted":"0","num_feature":"3","num_nodes":"31","size_leaf_vector":"1"}},{"base_weights":[1.0757292E-2,5.4116562E-2,-1.8135272E-1,-1.3375416E-1,8.903601E-2,-4.028558E-1,1.433018E-1,-2.1337068E-2,-6.419559E-1,1.4762396E-1,7.4140066E-3,-4.8519635E-1,1.7100977E-2,5.978845E-1,-1.6453002E-1,-2.9779181E-3,2.9879391E-2,-2.7827246E-2,-5.4907063E-3,-5.748472E-4,8.305279E-3,-1.7029045E-2,4.7364114E-3,-1.7924484E-2,-7.47876E-3,2.5465686E-2,7.860812E-3,-1.9727342E-2,6.021024E-3],"categories":[],"categories_nodes":[],"categories_segments":[],"categories_sizes":[],"default_left":[0,0,0,0,0,0,0,0,0,0,0,0,0,0,0,0,0,0,0,0,0,0,0,0,0,0,0,0,0],"id":34,"left_children":[1,3,5,7,9,11,13,15,17,19,21,23,-1,25,27,-1,-1,-1,-1,-1,-1,-1,-1,-1,-1,-1,-1,-1,-1],"loss_changes":[5.382503E0,3.4692094E0,8.615255E0,4.72814E0,2.1269243E0,5.9642544E0,6.955185E0,5.5689316E0,1.7964282E0,5.587222E0,1.6269888E1,1.5993176E0,0E0,1.4633908E0,5.5342674E0,0E0,0E0,0E0,0E0,0E0,0E0,0E0,0E0,0E0,0E0,0E0,0E0,0E0,0E0],"parents":[2147483647,0,0,1,1,2,2,3,3,4,4,5,5,6,6,7,7,8,8,9,9,10,10,11,11,13,13,14,14],"right_children":[2,4,6,8,10,12,14,16,18,20,22,24,-1,26,28,-1,-1,-1,-1,-1,-1,-1,-1,-1,-1,-1,-1,-1,-1],"split_conditions":[-2.8190115E-1,-1.2971481E0,-9.603222E-2,-5.478813E-1,-6.038773E-1,2.2429242E0,1.6666186E-1,-5.6329715E-1,-1.4575005E0,-7.9476285E-1,-5.592554E-1,1.23346694E-1,1.7100977E-2,-5.097772E-2,-3.4558352E-2,-2.9779181E-3,2.9879391E-2,-2.7827246E-2,-5.4907063E-3,-5.748472E-4,8.305279E-3,-1.7029045E-2,4.7364114E-3,-1.7924484E-2,-7.47876E-3,2.5465686E-2,7.860812E-3,-1.9727342E-2,6.021024E-3],"split_indices":[0,1,0,0,0,1,1,0,1,0,0,1,0,0,0,0,0,0,0,0,0,0,0,0,0,0,0,0,0],"split_type":[0,0,0,0,0,0,0,0,0,0,0,0,0,0,0,0,0,0,0,0,0,0,0,0,0,0,0,0,0],"sum_hessian":[6.44E2,5.26E2,1.18E2,8.2E1,4.44E2,7E1,4.8E1,6.8E1,1.4E1,2.58E2,1.86E2,6.5E1,5E0,1.9E1,2.9E1,6.4E1,4E0,8E0,6E0,1.13E2,1.45E2,3.8E1,1.48E2,4.3E1,2.2E1,1E1,9E0,1.2E1,1.7E1],"tree_param":{"num_deleted":"0","num_feature":"3","num_nodes":"29","size_leaf_vector":"1"}},{"base_weights":[1.035419E-2,1.0855254E-1,-5.6745476E-1,5.9116162E-2,6.0470015E-1,-7.484173E-1,2.962237E-1,9.2732094E-2,-7.59026E-1,2.927509E-1,7.300284E-1,-3.349258E-1,-7.9088885E-1,1.2391004E-2,5.848823E-3,1.633669E-3,1.4854831E-2,-9.540824E-3,-2.371073E-2,1.0937932E-2,-4.20354E-3,2.3354445E-2,8.508408E-3,-2.4538347E-2,2.7112825E-2,-2.1320892E-2,-2.9062109E-2],"categories":[],"categories_nodes":[],"categories_segments":[],"categories_sizes":[],"default_left":[0,0,0,0,0,0,0,0,0,0,0,0,0,0,0,0,0,0,0,0,0,0,0,0,0,0,0],"id":35,"left_children":[1,3,5,7,9,11,13,15,17,19,21,23,25,-1,-1,-1,-1,-1,-1,-1,-1,-1,-1,-1,-1,-1,-1],"loss_changes":[3.6715565E1,1.3528094E1,1.4913286E1,1.3931704E1,1.741087E0,1.1049156E0,1.20559216E-1,7.4437594E0,2.4989128E-2,5.4869115E-1,5.3626823E-1,6.124011E0,3.0987167E-1,0E0,0E0,0E0,0E0,0E0,0E0,0E0,0E0,0E0,0E0,0E0,0E0,0E0,0E0],"parents":[2147483647,0,0,1,1,2,2,3,3,4,4,5,5,6,6,7,7,8,8,9,9,10,10,11,11,12,12],"right_children":[2,4,6,8,10,12,14,16,18,20,22,24,26,-1,-1,-1,-1,-1,-1,-1,-1,-1,-1,-1,-1,-1,-1],"split_conditions":[-2.1664166E-1,-3.6095315E-1,-3.4558352E-2,-3.4791017E-1,-4.6994314E-1,-1.9932418E-1,-4.484806E-2,-4.2266774E-1,-5.6329715E-1,-4.7237402E-1,-6.043153E-2,-9.603222E-2,-1.2133929E-1,1.2391004E-2,5.848823E-3,1.633669E-3,1.4854831E-2,-9.540824E-3,-2.371073E-2,1.0937932E-2,-4.20354E-3,2.3354445E-2,8.508408E-3,-2.4538347E-2,2.7112825E-2,-2.1320892E-2,-2.9062109E-2],"split_indices":[2,0,0,2,2,2,2,2,0,2,0,0,0,0,0,0,0,0,0,0,0,0,0,0,0,0,0],"split_type":[0,0,0,0,0,0,0,0,0,0,0,0,0,0,0,0,0,0,0,0,0,0,0,0,0,0,0],"sum_hessian":[6.45E2,5.52E2,9.3E1,5.03E2,4.9E1,7.7E1,1.6E1,4.84E2,1.9E1,1.5E1,3.4E1,8E0,6.9E1,6E0,1E1,4.43E2,4.1E1,2E0,1.7E1,1.3E1,2E0,3E1,4E0,6E0,2E0,5.1E1,1.8E1],"tree_param":{"num_deleted":"0","num_feature":"3","num_nodes":"27","size_leaf_vector":"1"}},{"base_weights":[3.2988254E-2,1.475152E-1,-3.9167765E-1,3.197466E-2,4.333571E-1,-6.478658E-1,1.587127E-1,1.19848825E-1,-5.282032E-1,2.78424E-1,8.330958E-1,-7.6263493E-1,-4.6939993E-1,8.514694E-1,-9.800831E-2,-9.491082E-4,1.0493278E-2,-2.9924082E-2,-4.218888E-3,1.5137634E-2,-1.9400069E-3,2.678231E-2,7.1103587E-3,-1.5692592E-2,-2.7553918E-2,7.1375202E-3,-2.1645194E-2,7.5231544E-3,2.8395953E-2,-1.7869031E-2,5.3363703E-3],"categories":[],"categories_nodes":[],"categories_segments":[],"categories_sizes":[],"default_left":[0,0,0,0,0,0,0,0,0,0,0,0,0,0,0,0,0,0,0,0,0,0,0,0,0,0,0,0,0,0,0],"id":36,"left_children":[1,3,5,7,9,11,13,15,17,19,21,23,25,27,29,-1,-1,-1,-1,-1,-1,-1,-1,-1,-1,-1,-1,-1,-1,-1,-1],"loss_changes":[3.113598E1,1.6631413E1,1.9279299E1,1.7784363E1,8.748295E0,1.5468788E0,7.908641E0,1.0878238E1,8.771611E0,8.257672E0,1.2106152E0,1.5726376E0,7.126113E0,4.478817E-1,4.636479E0,0E0,0E0,0E0,0E0,0E0,0E0,0E0,0E0,0E0,0E0,0E0,0E0,0E0,0E0,0E0,0E0],"parents":[2147483647,0,0,1,1,2,2,3,3,4,4,5,5,6,6,7,7,8,8,9,9,10,10,11,11,12,12,13,13,14,14],"right_children":[2,4,6,8,10,12,14,16,18,20,22,24,26,28,30,-1,-1,-1,-1,-1,-1,-1,-1,-1,-1,-1,-1,-1,-1,-1,-1],"split_conditions":[-3.4791017E-1,-5.5552316E-1,-8.7796405E-2,-6.2804645E-1,-4.1520202E-1,-1.5002659E-1,-1.738159E-1,-6.8606895E-1,-4.9447155E-1,-4.644553E-1,-3.5488313E-1,-2.2520897E-1,-1.1500589E-1,-2.8396097E-1,-3.5982776E-2,-9.491082E-4,1.0493278E-2,-2.9924082E-2,-4.218888E-3,1.5137634E-2,-1.9400069E-3,2.678231E-2,7.1103587E-3,-1.5692592E-2,-2.7553918E-2,7.1375202E-3,-2.1645194E-2,7.5231544E-3,2.8395953E-2,-1.7869031E-2,5.3363703E-3],"split_indices":[2,0,0,2,2,2,2,2,2,2,2,2,2,2,0,0,0,0,0,0,0,0,0,0,0,0,0,0,0,0,0],"split_type":[0,0,0,0,0,0,0,0,0,0,0,0,0,0,0,0,0,0,0,0,0,0,0,0,0,0,0,0,0,0,0],"sum_hessian":[6.38E2,5.03E2,1.35E2,3.59E2,1.44E2,9.2E1,4.3E1,3.11E2,4.8E1,1.05E2,3.9E1,5.4E1,3.8E1,1.1E1,3.2E1,1.88E2,1.23E2,2.1E1,2.7E1,6.3E1,4.2E1,3.5E1,4E0,2.3E1,3.1E1,1E1,2.8E1,2E0,9E0,1.1E1,2.1E1],"tree_param":{"num_deleted":"0","num_feature":"3","num_nodes":"31","size_leaf_vector":"1"}},{"base_weights":[-1.6627578E-2,3.025607E-2,-1.4191741E-1,-5.416211E-4,6.741002E-1,-2.0144587E-2,-2.9826624E-2,1.1499084E-2,-7.4698794E-1,1.9606927E-1,3.8690683E-2,1.1640031E-1,-1.839833E-1,-5.4512564E-3,1.6702537E-3,-6.2215547E-3,-3.299531E-2,2.0993195E-2,-2.2494348E-2,2.2944385E-2,-1.8423976E-3,-2.4221085E-2,-4.115825E-4],"categories":[],"categories_nodes":[],"categories_segments":[],"categories_sizes":[],"default_left":[0,0,0,0,0,0,0,0,0,0,0,0,0,0,0,0,0,0,0,0,0,0,0],"id":37,"left_children":[1,3,5,7,9,-1,11,13,15,17,-1,19,21,-1,-1,-1,-1,-1,-1,-1,-1,-1,-1],"loss_changes":[3.710816E0,9.121665E0,1.0189856E1,3.963195E0,5.926816E0,0E0,3.2449012E0,3.714371E0,1.1047223E0,6.718469E0,0E0,8.578914E0,7.4187346E0,0E0,0E0,0E0,0E0,0E0,0E0,0E0,0E0,0E0,0E0],"parents":[2147483647,0,0,1,1,2,2,3,3,4,4,6,6,7,7,8,8,9,9,11,11,12,12],"right_children":[2,4,6,8,10,-1,12,14,16,18,-1,20,22,-1,-1,-1,-1,-1,-1,-1,-1,-1,-1],"split_conditions":[-4.189899E-1,-4.680643E-1,-6.6576815E-1,-4.772963E-1,2.0976706E-1,-2.0144587E-2,3.2454494E-1,-1.2856303E0,-7.23956E-1,-9.5013425E-2,3.8690683E-2,-3.227852E-1,-3.7477463E-1,-5.4512564E-3,1.6702537E-3,-6.2215547E-3,-3.299531E-2,2.0993195E-2,-2.2494348E-2,2.2944385E-2,-1.8423976E-3,-2.4221085E-2,-4.115825E-4],"split_indices":[0,0,1,0,1,0,1,1,1,1,0,0,0,0,0,0,0,0,0,0,0,0,0],"split_type":[0,0,0,0,0,0,0,0,0,0,0,0,0,0,0,0,0,0,0,0,0,0,0],"sum_hessian":[6.3E2,4.59E2,1.71E2,4.39E2,2E1,2.9E1,1.42E2,4.33E2,6E0,1.2E1,8E0,7.3E1,6.9E1,8E1,3.53E2,3E0,3E0,8E0,4E0,1.5E1,5.8E1,1.4E1,5.5E1],"tree_param":{"num_deleted":"0","num_feature":"3","num_nodes":"23","size_leaf_vector":"1"}},{"base_weights":[-1.5113984E-3,1.084044E-1,-4.0399793E-1,-4.2002287E-2,1.973696E-1,-2.0110177E-2,-2.5614384E-1,4.6359092E-2,-1.039536E-1,3.7765267E-1,9.160225E-2,4.6086353E-1,-4.1525027E-1,5.5038054E-3,-2.363656E-3,5.791845E-4,-5.1020747E-3,9.085839E-3,1.7902238E-2,-1.3601183E-3,1.2797879E-2,-1.9587616E-2,1.9586883E-2,-3.676883E-3,-1.8560292E-2],"categories":[],"categories_nodes":[],"categories_segments":[],"categories_sizes":[],"default_left":[0,0,0,0,0,0,0,0,0,0,0,0,0,0,0,0,0,0,0,0,0,0,0,0,0],"id":38,"left_children":[1,3,5,7,9,-1,11,13,15,17,19,21,23,-1,-1,-1,-1,-1,-1,-1,-1,-1,-1,-1,-1],"loss_changes":[2.866683E1,6.819199E0,5.302067E0,1.0448989E0,6.0671864E0,0E0,1.0572697E1,1.3699267E0,9.160149E-1,1.7528114E0,9.331739E0,4.062298E0,4.389695E0,0E0,0E0,0E0,0E0,0E0,0E0,0E0,0E0,0E0,0E0,0E0,0E0],"parents":[2147483647,0,0,1,1,2,2,3,3,4,4,6,6,7,7,8,8,9,9,10,10,11,11,12,12],"right_children":[2,4,6,8,10,-1,12,14,16,18,20,22,24,-1,-1,-1,-1,-1,-1,-1,-1,-1,-1,-1,-1],"split_conditions":[-3.4791017E-1,-6.8994904E-1,-6.500429E-1,-2.8903955E-1,-6.1939734E-1,-2.0110177E-2,-2.1664166E-1,-9.2823505E-1,-1.0569719E0,-6.4714026E-1,3.973845E-1,-3.099272E-1,-2.1931897E-1,5.5038054E-3,-2.363656E-3,5.791845E-4,-5.1020747E-3,9.085839E-3,1.7902238E-2,-1.3601183E-3,1.2797879E-2,-1.9587616E-2,1.9586883E-2,-3.676883E-3,-1.8560292E-2],"split_indices":[2,2,1,1,2,0,2,2,2,2,1,1,1,0,0,0,0,0,0,0,0,0,0,0,0],"split_type":[0,0,0,0,0,0,0,0,0,0,0,0,0,0,0,0,0,0,0,0,0,0,0,0,0],"sum_hessian":[6.46E2,5.08E2,1.38E2,1.89E2,3.19E2,4.8E1,9E1,7.8E1,1.11E2,1.17E2,2.02E2,1.6E1,7.4E1,3.7E1,4.1E1,3.9E1,7.2E1,8.9E1,2.8E1,1.44E2,5.8E1,2E0,1.4E1,3.1E1,4.3E1],"tree_param":{"num_deleted":"0","num_feature":"3","num_nodes":"25","size_leaf_vector":"1"}},{"base_weights":[1.775869E-2,1.1336079E-1,-3.64027E-1,6.1730985E-2,6.45857E-1,-6.1156833E-1,8.9636944E-2,3.3842202E-2,5.852963E-1,1.3336548E-1,8.564707E-1,-7.435303E-1,-3.9709252E-1,6.801621E-1,-1.7151894E-1,2.206126E-3,-9.077339E-3,8.400643E-3,2.2846283E-2,1.8542029E-2,-3.6987204E-2,2.8693447E-2,1.6526189E-2,-1.4689863E-2,-2.7493304E-2,1.0330531E-2,-2.0684453E-2,1.0149551E-2,2.682765E-2,-1.5669612E-2,7.826321E-3],"categories":[],"categories_nodes":[],"categories_segments":[],"categories_sizes":[],"default_left":[0,0,0,0,0,0,0,0,0,0,0,0,0,0,0,0,0,0,0,0,0,0,0,0,0,0,0,0,0,0,0],"id":39,"left_children":[1,3,5,7,9,11,13,15,17,19,21,23,25,27,29,-1,-1,-1,-1,-1,-1,-1,-1,-1,-1,-1,-1,-1,-1,-1,-1],"loss_changes":[2.2780464E1,1.3678977E1,1.4092392E1,6.6385217E0,4.6350365E0,1.997261E0,7.056521E0,5.8180227E0,1.0242357E0,1.0033311E1,4.2025948E-1,1.7022133E0,7.391499E0,7.220659E-1,4.990189E0,0E0,0E0,0E0,0E0,0E0,0E0,0E0,0E0,0E0,0E0,0E0,0E0,0E0,0E0,0E0,0E0],"parents":[2147483647,0,0,1,1,2,2,3,3,4,4,5,5,6,6,7,7,8,8,9,9,10,10,11,11,12,12,13,13,14,14],"right_children":[2,4,6,8,10,12,14,16,18,20,22,24,26,28,30,-1,-1,-1,-1,-1,-1,-1,-1,-1,-1,-1,-1,-1,-1,-1,-1],"split_conditions":[-3.4791017E-1,-4.1268778E-1,-8.7796405E-2,-3.7477463E-1,-5.206673E-1,-1.5002659E-1,-1.738159E-1,-4.633318E-1,-4.7779554E-1,-3.6809516E-1,-3.7477463E-1,-2.1664166E-1,-1.1500589E-1,-2.6238677E-1,-7.690464E-3,2.206126E-3,-9.077339E-3,8.400643E-3,2.2846283E-2,1.8542029E-2,-3.6987204E-2,2.8693447E-2,1.6526189E-2,-1.4689863E-2,-2.7493304E-2,1.0330531E-2,-2.0684453E-2,1.0149551E-2,2.682765E-2,-1.5669612E-2,7.826321E-3],"split_indices":[2,2,0,0,0,2,2,2,2,2,0,2,2,2,0,0,0,0,0,0,0,0,0,0,0,0,0,0,0,0,0],"split_type":[0,0,0,0,0,0,0,0,0,0,0,0,0,0,0,0,0,0,0,0,0,0,0,0,0,0,0,0,0,0,0],"sum_hessian":[6.22E2,4.98E2,1.24E2,4.55E2,4.3E1,8E1,4.4E1,4.33E2,2.2E1,1.3E1,3E1,4.8E1,3.2E1,1.3E1,3.1E1,3.88E2,4.5E1,9E0,1.3E1,1E1,3E0,2.1E1,9E0,2.1E1,2.7E1,9E0,2.3E1,6E0,7E0,1.7E1,1.4E1],"tree_param":{"num_deleted":"0","num_feature":"3","num_nodes":"31","size_leaf_vector":"1"}},{"base_weights":[-1.9729383E-2,7.8320354E-2,-3.9047024E-1,3.7929807E-2,5.1624656E-1,-6.4038205E-1,-7.3797956E-2,9.785124E-2,-4.1643834E-1,-5.7976705E-1,7.759098E-1,-7.7641785E-1,-4.7233206E-1,6.510474E-1,-2.7939054E-1,5.2732957E-4,1.5317949E-2,-1.9339385E-2,2.093347E-2,3.0279575E-2,-3.53394E-2,2.751064E-2,1.2518048E-2,-1.984872E-2,-2.9961027E-2,-1.584806E-2,1.0131161E-2,2.3696681E-2,7.2946185E-3,-1.5107115E-2,7.869659E-3],"categories":[],"categories_nodes":[],"categories_segments":[],"categories_sizes":[],"default_left":[0,0,0,0,0,0,0,0,0,0,0,0,0,0,0,0,0,0,0,0,0,0,0,0,0,0,0,0,0,0,0],"id":40,"left_children":[1,3,5,7,9,11,13,15,17,19,21,23,25,27,29,-1,-1,-1,-1,-1,-1,-1,-1,-1,-1,-1,-1,-1,-1,-1,-1],"loss_changes":[2.398592E1,9.213598E0,1.0874081E1,1.30821905E1,1.2972004E1,1.3935547E0,9.421312E0,1.4039284E1,1.4689159E1,9.744468E0,1.4392605E0,3.8542175E-1,1.8548956E0,6.0079384E-1,6.0827103E0,0E0,0E0,0E0,0E0,0E0,0E0,0E0,0E0,0E0,0E0,0E0,0E0,0E0,0E0,0E0,0E0],"parents":[2147483647,0,0,1,1,2,2,3,3,4,4,5,5,6,6,7,7,8,8,9,9,10,10,11,11,12,12,13,13,14,14],"right_children":[2,4,6,8,10,12,14,16,18,20,22,24,26,28,30,-1,-1,-1,-1,-1,-1,-1,-1,-1,-1,-1,-1,-1,-1,-1,-1],"split_conditions":[-3.4791017E-1,-4.1520202E-1,-1.2691544E-1,-4.633318E-1,-5.6056803E-1,-1.6274238E-1,-2.0523697E-1,-5.478813E-1,-3.7477463E-1,-6.038773E-1,-3.6337158E-1,-2.797139E-1,-1.4103465E-1,-6.043153E-2,-7.690464E-3,5.2732957E-4,1.5317949E-2,-1.9339385E-2,2.093347E-2,3.0279575E-2,-3.53394E-2,2.751064E-2,1.2518048E-2,-1.984872E-2,-2.9961027E-2,-1.584806E-2,1.0131161E-2,2.3696681E-2,7.2946185E-3,-1.5107115E-2,7.869659E-3],"split_indices":[2,2,0,2,0,2,2,0,0,0,2,0,0,0,0,0,0,0,0,0,0,0,0,0,0,0,0,0,0,0,0],"split_type":[0,0,0,0,0,0,0,0,0,0,0,0,0,0,0,0,0,0,0,0,0,0,0,0,0,0,0,0,0,0,0],"sum_hessian":[6.58E2,5.21E2,1.37E2,4.78E2,4.3E1,7.6E1,6.1E1,4.23E2,5.5E1,8E0,3.5E1,4E1,3.6E1,1.3E1,4.8E1,3.55E2,6.8E1,4.6E1,9E0,2E0,6E0,2.4E1,1.1E1,2.9E1,1.1E1,3.4E1,2E0,9E0,4E0,3.4E1,1.4E1],"tree_param":{"num_deleted":"0","num_feature":"3","num_nodes":"31","size_leaf_vector":"1"}},{"base_weights":[1.2284554E-2,5.9744447E-2,-1.2677826E-1,-7.938574E-2,1.3680176E-1,-1.6066821E-2,-4.4702467E-2,1.2888592E-1,-2.5832143E-1,7.014475E-2,3.7985253E-1,-1.03871815E-1,2.3399818E-1,6.525384E-3,2.879532E-4,-1.01025775E-2,5.170297E-4,9.368883E-3,-3.2207998E-3,4.84542E-3,2.057989E-2,1.2078297E-3,-6.9714277E-3,1.0790052E-2,2.857798E-4],"categories":[],"categories_nodes":[],"categories_segments":[],"categories_sizes":[],"default_left":[0,0,0,0,0,0,0,0,0,0,0,0,0,0,0,0,0,0,0,0,0,0,0,0,0],"id":41,"left_children":[1,3,5,7,9,-1,11,13,15,17,19,21,23,-1,-1,-1,-1,-1,-1,-1,-1,-1,-1,-1,-1],"loss_changes":[4.356913E0,5.285592E0,5.612652E0,6.5923276E0,5.1090837E0,0E0,2.3494716E0,8.6482227E-1,2.058958E0,1.0779282E1,4.4345255E0,2.176474E0,7.018105E-1,0E0,0E0,0E0,0E0,0E0,0E0,0E0,0E0,0E0,0E0,0E0,0E0],"parents":[2147483647,0,0,1,1,2,2,3,3,4,4,6,6,7,7,8,8,9,9,10,10,11,11,12,12],"right_children":[2,4,6,8,10,-1,12,14,16,18,20,22,24,-1,-1,-1,-1,-1,-1,-1,-1,-1,-1,-1,-1],"split_conditions":[-4.000172E-1,-7.9476285E-1,-6.6576815E-1,-1.0015349E0,3.973845E-1,-1.6066821E-2,-3.4558352E-2,-1.0947919E0,1.1714216E0,-6.23061E-1,-5.7058555E-1,2.525067E-1,7.6845735E-1,6.525384E-3,2.879532E-4,-1.01025775E-2,5.170297E-4,9.368883E-3,-3.2207998E-3,4.84542E-3,2.057989E-2,1.2078297E-3,-6.9714277E-3,1.0790052E-2,2.857798E-4],"split_indices":[0,0,1,0,1,0,0,0,1,0,0,1,1,0,0,0,0,0,0,0,0,0,0,0,0],"split_type":[0,0,0,0,0,0,0,0,0,0,0,0,0,0,0,0,0,0,0,0,0,0,0,0,0],"sum_hessian":[6.58E2,4.91E2,1.67E2,1.75E2,3.16E2,2.7E1,1.4E2,8.1E1,9.4E1,2.49E2,6.7E1,1.16E2,2.4E1,4.6E1,3.5E1,7.3E1,2.1E1,1.05E2,1.44E2,4E1,2.7E1,5.5E1,6.1E1,1.5E1,9E0],"tree_param":{"num_deleted":"0","num_feature":"3","num_nodes":"25","size_leaf_vector":"1"}},{"base_weights":[6.1707124E-3,8.144433E-2,-4.2176533E-1,4.7156118E-2,6.24296E-1,-5.740214E-1,2.1747066E-1,7.701978E-2,-6.8686134E-1,2.487603E-1,6.8462634E-1,-7.7849334E-1,-4.5451623E-1,-2.1544458E-1,2.8107506E-1,1.4290349E-3,1.4475537E-2,-7.7697397E-3,-2.1600422E-2,8.286595E-3,1.6719375E-3,2.2098588E-2,6.045302E-3,-2.5389152E-2,-5.3099925E-3,-7.4905716E-4,-1.8984023E-2,1.1366739E-2,-2.1061745E-2,1.3527573E-2,5.823878E-3],"categories":[],"categories_nodes":[],"categories_segments":[],"categories_sizes":[],"default_left":[0,0,0,0,0,0,0,0,0,0,0,0,0,0,0,0,0,0,0,0,0,0,0,0,0,0,0,0,0,0,0],"id":42,"left_children":[1,3,5,7,9,11,13,15,17,19,21,23,25,27,29,-1,-1,-1,-1,-1,-1,-1,-1,-1,-1,-1,-1,-1,-1,-1,-1],"loss_changes":[2.0456945E1,1.0021803E1,9.370953E0,1.1210409E1,5.5469036E-1,1.5276928E0,5.837272E-1,5.815697E0,9.722328E-2,1.640886E-2,5.2977085E-1,9.514885E-1,3.8898678E0,1.1336396E0,1.6350627E-1,0E0,0E0,0E0,0E0,0E0,0E0,0E0,0E0,0E0,0E0,0E0,0E0,0E0,0E0,0E0,0E0],"parents":[2147483647,0,0,1,1,2,2,3,3,4,4,5,5,6,6,7,7,8,8,9,9,10,10,11,11,12,12,13,13,14,14],"right_children":[2,4,6,8,10,12,14,16,18,20,22,24,26,28,30,-1,-1,-1,-1,-1,-1,-1,-1,-1,-1,-1,-1,-1,-1,-1,-1],"split_conditions":[-2.1664166E-1,-3.287106E-1,-3.4558352E-2,-3.4791017E-1,-4.7779554E-1,-1.6699766E-1,-1.6274238E-1,-4.0502056E-1,-5.6329715E-1,-2.4427876E-1,-6.043153E-2,-8.7796405E-2,-1.274126E-1,-1.738159E-1,-6.9269374E-2,1.4290349E-3,1.4475537E-2,-7.7697397E-3,-2.1600422E-2,8.286595E-3,1.6719375E-3,2.2098588E-2,6.045302E-3,-2.5389152E-2,-5.3099925E-3,-7.4905716E-4,-1.8984023E-2,1.1366739E-2,-2.1061745E-2,1.3527573E-2,5.823878E-3],"split_indices":[2,0,0,2,2,2,2,2,0,0,0,0,2,2,2,0,0,0,0,0,0,0,0,0,0,0,0,0,0,0,0],"split_type":[0,0,0,0,0,0,0,0,0,0,0,0,0,0,0,0,0,0,0,0,0,0,0,0,0,0,0,0,0,0,0],"sum_hessian":[6.33E2,5.39E2,9.4E1,5.08E2,3.1E1,7.6E1,1.8E1,4.89E2,1.9E1,5E0,2.6E1,2.6E1,5E1,2E0,1.6E1,4.57E2,3.2E1,2E0,1.7E1,4E0,1E0,2.3E1,3E0,2.3E1,3E0,1.5E1,3.5E1,1E0,1E0,4E0,1.2E1],"tree_param":{"num_deleted":"0","num_feature":"3","num_nodes":"31","size_leaf_vector":"1"}},{"base_weights":[1.6673515E-2,5.2384906E-2,-1.333339E-1,-6.0108606E-2,1.104736E-1,-1.4995581E-2,-4.7701247E-2,1.6548797E-1,-1.9492012E-1,2.4542972E-1,2.910614E-2,-9.4334655E-2,1.50112435E-2,-2.2713144E-3,5.594985E-3,-7.7377893E-3,-3.012989E-4,9.723805E-3,3.1374267E-3,-1.0183508E-2,5.004893E-3,5.727996E-3,-6.7974E-3],"categories":[],"categories_nodes":[],"categories_segments":[],"categories_sizes":[],"default_left":[0,0,0,0,0,0,0,0,0,0,0,0,0,0,0,0,0,0,0,0,0,0,0],"id":43,"left_children":[1,3,5,7,9,-1,11,13,15,17,19,21,-1,-1,-1,-1,-1,-1,-1,-1,-1,-1,-1],"loss_changes":[3.397949E0,3.3523564E0,3.8052459E0,5.3545346E0,3.7044468E0,0E0,2.6030679E0,3.4860444E-1,1.2787318E0,1.3738203E0,1.0817523E1,3.5517192E0,0E0,0E0,0E0,0E0,0E0,0E0,0E0,0E0,0E0,0E0,0E0],"parents":[2147483647,0,0,1,1,2,2,3,3,4,4,6,6,7,7,8,8,9,9,10,10,11,11],"right_children":[2,4,6,8,10,-1,12,14,16,18,20,22,-1,-1,-1,-1,-1,-1,-1,-1,-1,-1,-1],"split_conditions":[-3.0158713E-1,-7.758021E-1,-6.6576815E-1,-1.0588435E0,-6.177162E-1,-1.4995581E-2,2.0146751E0,-2.2829387E0,8.961702E-1,1.8035446E-1,-5.5552316E-1,-2.794719E-2,1.50112435E-2,-2.2713144E-3,5.594985E-3,-7.7377893E-3,-3.012989E-4,9.723805E-3,3.1374267E-3,-1.0183508E-2,5.004893E-3,5.727996E-3,-6.7974E-3],"split_indices":[0,0,1,0,0,0,1,1,1,1,0,1,0,0,0,0,0,0,0,0,0,0,0],"split_type":[0,0,0,0,0,0,0,0,0,0,0,0,0,0,0,0,0,0,0,0,0,0,0],"sum_hessian":[6.32E2,5.11E2,1.21E2,1.74E2,3.37E2,2.2E1,9.9E1,6.5E1,1.09E2,1.26E2,2.11E2,9.2E1,7E0,5E0,6E1,8.1E1,2.8E1,8E1,4.6E1,5.7E1,1.54E2,2.9E1,6.3E1],"tree_param":{"num_deleted":"0","num_feature":"3","num_nodes":"23","size_leaf_vector":"1"}},{"base_weights":[-3.8666239E-3,8.489667E-2,-4.325905E-1,4.215839E-2,3.0743715E-1,-5.219785E-1,1.3636108E-1,8.55051E-2,-4.4985315E-1,4.713318E-1,-1.4242516E-1,-4.1078344E-1,-9.0483767E-1,-1.3971245E-2,2.0754623E-1,-1.0815242E-3,5.566472E-3,-1.793929E-2,2.764971E-2,2.3586947E-2,2.6471291E-3,-1.7489662E-2,1.2937196E-2,-1.0212895E-3,-1.5041436E-2,-2.9137274E-2,6.3488903E-3,1.6489532E-3,6.4355643E-3],"categories":[],"categories_nodes":[],"categories_segments":[],"categories_sizes":[],"default_left":[0,0,0,0,0,0,0,0,0,0,0,0,0,0,0,0,0,0,0,0,0,0,0,0,0,0,0,0,0],"id":44,"left_children":[1,3,5,7,9,11,13,15,17,19,21,23,25,-1,27,-1,-1,-1,-1,-1,-1,-1,-1,-1,-1,-1,-1,-1,-1],"loss_changes":[2.4848549E1,5.1324887E0,5.767212E0,9.742285E0,6.481642E0,3.7577972E0,7.823903E-1,5.102122E0,8.067769E0,7.651346E0,6.31707E0,2.611085E0,1.7624607E0,0E0,4.167199E-3,0E0,0E0,0E0,0E0,0E0,0E0,0E0,0E0,0E0,0E0,0E0,0E0,0E0,0E0],"parents":[2147483647,0,0,1,1,2,2,3,3,4,4,5,5,6,6,7,7,8,8,9,9,10,10,11,11,12,12,14,14],"right_children":[2,4,6,8,10,12,14,16,18,20,22,24,26,-1,28,-1,-1,-1,-1,-1,-1,-1,-1,-1,-1,-1,-1,-1,-1],"split_conditions":[-2.4461542E-1,-4.4218147E-1,-6.135507E-2,-4.633318E-1,-3.4791017E-1,3.5437986E-1,-4.835018E-1,-6.8994904E-1,6.586425E-1,-2.1931897E-1,-3.099272E-1,-1.9303691E-1,-1.10916466E-1,-1.3971245E-2,-3.7893108E-1,-1.0815242E-3,5.566472E-3,-1.793929E-2,2.764971E-2,2.3586947E-2,2.6471291E-3,-1.7489662E-2,1.2937196E-2,-1.0212895E-3,-1.5041436E-2,-2.9137274E-2,6.3488903E-3,1.6489532E-3,6.4355643E-3],"split_indices":[2,2,2,2,2,1,1,2,1,1,1,2,2,0,1,0,0,0,0,0,0,0,0,0,0,0,0,0,0],"split_type":[0,0,0,0,0,0,0,0,0,0,0,0,0,0,0,0,0,0,0,0,0,0,0,0,0,0,0,0,0],"sum_hessian":[6.51E2,5.4E2,1.11E2,4.54E2,8.6E1,9.6E1,1.5E1,4.18E2,3.6E1,6.3E1,2.3E1,7.6E1,2E1,1E0,1.4E1,1.89E2,2.29E2,3.3E1,3E0,3.4E1,2.9E1,1.3E1,1E1,1.5E1,6.1E1,1.9E1,1E0,1E0,1.3E1],"tree_param":{"num_deleted":"0","num_feature":"3","num_nodes":"29","size_leaf_vector":"1"}},{"base_weights":[-3.3221813E-3,7.483272E-2,-3.9555374E-1,4.0632527E-2,5.855681E-1,-5.3484815E-1,1.5427732E-1,6.0455777E-2,-1.934268E-2,6.14846E-1,8.7839924E-2,-6.8611926E-1,-4.8007476E-1,-1.9713025E-1,1.992746E-1,8.390504E-4,1.3179292E-2,6.9155768E-3,1.9897366E-2,-1.4958245E-2,1.8911041E-2,-2.3810403E-2,2.0363072E-2,-1.0157246E-2,-1.8462481E-2,1.1335939E-2,-2.02068E-2,-3.909448E-3,7.9530915E-3],"categories":[],"categories_nodes":[],"categories_segments":[],"categories_sizes":[],"default_left":[0,0,0,0,0,0,0,0,0,0,0,0,0,0,0,0,0,0,0,0,0,0,0,0,0,0,0,0,0],"id":45,"left_children":[1,3,5,7,9,11,13,15,-1,17,19,21,23,25,27,-1,-1,-1,-1,-1,-1,-1,-1,-1,-1,-1,-1,-1,-1],"loss_changes":[1.9372793E1,9.181448E0,8.124296E0,6.764361E0,4.2688274E-1,3.6660576E-1,3.8715547E-1,5.920165E0,0E0,4.2374802E-1,1.2688004E0,3.4748983E0,1.0364361E0,1.0763487E0,4.684742E-1,0E0,0E0,0E0,0E0,0E0,0E0,0E0,0E0,0E0,0E0,0E0,0E0,0E0,0E0],"parents":[2147483647,0,0,1,1,2,2,3,3,4,4,5,5,6,6,7,7,9,9,10,10,11,11,12,12,13,13,14,14],"right_children":[2,4,6,8,10,12,14,16,-1,18,20,22,24,26,28,-1,-1,-1,-1,-1,-1,-1,-1,-1,-1,-1,-1,-1,-1],"split_conditions":[-2.0523697E-1,-3.227852E-1,-3.5982776E-2,-3.4791017E-1,-2.1664166E-1,-1.8525536E-1,-1.6274238E-1,-4.1520202E-1,-1.934268E-2,-4.8975885E-1,-1.619317E-1,-8.7796405E-2,-1.10916466E-1,-1.738159E-1,-3.4558352E-2,8.390504E-4,1.3179292E-2,6.9155768E-3,1.9897366E-2,-1.4958245E-2,1.8911041E-2,-2.3810403E-2,2.0363072E-2,-1.0157246E-2,-1.8462481E-2,1.1335939E-2,-2.02068E-2,-3.909448E-3,7.9530915E-3],"split_indices":[2,0,0,2,2,2,2,2,0,2,0,0,2,2,0,0,0,0,0,0,0,0,0,0,0,0,0,0,0],"split_type":[0,0,0,0,0,0,0,0,0,0,0,0,0,0,0,0,0,0,0,0,0,0,0,0,0,0,0,0,0],"sum_hessian":[6.3E2,5.26E2,1.04E2,4.94E2,3.2E1,8.3E1,2.1E1,4.81E2,1.3E1,3E1,2E0,1.9E1,6.4E1,2E0,1.9E1,4.44E2,3.7E1,4E0,2.6E1,1E0,1E0,1.8E1,1E0,3.3E1,3.1E1,1E0,1E0,3E0,1.6E1],"tree_param":{"num_deleted":"0","num_feature":"3","num_nodes":"29","size_leaf_vector":"1"}},{"base_weights":[-8.691585E-3,3.23607E-2,-1.5387179E-1,2.9628763E-3,2.5426486E-1,-4.5811927E-1,-3.3604942E-2,2.0595362E-2,-7.81979E-1,3.675963E-1,-1.8374851E-1,-5.0300163E-1,2.0057624E-2,-9.5797345E-2,2.3550262E-1,4.035588E-4,3.2057174E-2,1.648188E-2,-2.9728606E-2,-7.4090906E-3,1.5472553E-2,-3.0994773E-2,1.9383997E-3,-1.2167566E-2,-2.2640737E-2,2.2998686E-4,-2.0321243E-2,8.097933E-3,4.503555E-3],"categories":[],"categories_nodes":[],"categories_segments":[],"categories_sizes":[],"default_left":[0,0,0,0,0,0,0,0,0,0,0,0,0,0,0,0,0,0,0,0,0,0,0,0,0,0,0,0,0],"id":46,"left_children":[1,3,5,7,9,11,13,15,17,19,21,23,-1,25,27,-1,-1,-1,-1,-1,-1,-1,-1,-1,-1,-1,-1,-1,-1],"loss_changes":[3.9206855E0,3.3458018E0,5.2902827E0,6.2996817E0,3.0459867E0,2.4096394E0,1.7798873E0,3.3169496E0,3.326661E0,4.497839E0,2.809251E0,6.7465305E-1,0E0,5.179992E0,1.8271327E-2,0E0,0E0,0E0,0E0,0E0,0E0,0E0,0E0,0E0,0E0,0E0,0E0,0E0,0E0],"parents":[2147483647,0,0,1,1,2,2,3,3,4,4,5,5,6,6,7,7,8,8,9,9,10,10,11,11,13,13,14,14],"right_children":[2,4,6,8,10,12,14,16,18,20,22,24,-1,26,28,-1,-1,-1,-1,-1,-1,-1,-1,-1,-1,-1,-1,-1,-1],"split_conditions":[-3.5627052E-1,-4.614586E-1,-4.32494E-1,-4.821549E-1,8.6817575E-1,-8.7796405E-2,-7.690464E-3,-4.8633632E-1,-1.3815554E0,-8.441536E-1,9.74713E-1,-1.4899547E-1,2.0057624E-2,-6.043153E-2,7.6845735E-1,4.035588E-4,3.2057174E-2,1.648188E-2,-2.9728606E-2,-7.4090906E-3,1.5472553E-2,-3.0994773E-2,1.9383997E-3,-1.2167566E-2,-2.2640737E-2,2.2998686E-4,-2.0321243E-2,8.097933E-3,4.503555E-3],"split_indices":[0,0,1,0,1,0,0,0,1,1,1,0,0,0,1,0,0,0,0,0,0,0,0,0,0,0,0,0,0],"split_type":[0,0,0,0,0,0,0,0,0,0,0,0,0,0,0,0,0,0,0,0,0,0,0,0,0,0,0,0,0],"sum_hessian":[6.56E2,5.12E2,1.44E2,4.53E2,5.9E1,4E1,1.04E2,4.44E2,9E0,4.7E1,1.2E1,3.9E1,1E0,8.5E1,1.9E1,4.42E2,2E0,1E0,8E0,9E0,3.8E1,2E0,1E1,3E1,9E0,7.3E1,1.2E1,1.2E1,7E0],"tree_param":{"num_deleted":"0","num_feature":"3","num_nodes":"29","size_leaf_vector":"1"}},{"base_weights":[-2.1764883E-3,8.893711E-2,-3.702292E-1,4.478418E-2,4.4530302E-1,-5.837385E-1,1.2102835E-1,9.285E-2,-4.0521207E-1,-4.585191E-1,5.83778E-1,-6.202269E-1,-2.3710617E-1,6.991297E-1,-1.6179927E-1,9.649342E-4,1.2641301E-2,-1.8552147E-2,1.8943693E-2,3.0361185E-2,-3.3521358E-2,2.239906E-2,7.85465E-3,-2.0326873E-2,-1.45412395E-2,1.9535983E-2,-1.6217476E-2,1.1448955E-2,3.0178156E-2,-1.9527635E-2,3.5677191E-3],"categories":[],"categories_nodes":[],"categories_segments":[],"categories_sizes":[],"default_left":[0,0,0,0,0,0,0,0,0,0,0,0,0,0,0,0,0,0,0,0,0,0,0,0,0,0,0,0,0,0,0],"id":47,"left_children":[1,3,5,7,9,11,13,15,17,19,21,23,25,27,29,-1,-1,-1,-1,-1,-1,-1,-1,-1,-1,-1,-1,-1,-1,-1,-1],"loss_changes":[2.1293869E1,7.9889693E0,1.3286545E1,9.8573885E0,7.27645E0,9.659691E-1,6.4897366E0,8.180479E0,1.0114949E1,8.881963E0,2.3737297E0,2.8541565E-1,3.0478249E0,8.8244677E-1,3.784723E0,0E0,0E0,0E0,0E0,0E0,0E0,0E0,0E0,0E0,0E0,0E0,0E0,0E0,0E0,0E0,0E0],"parents":[2147483647,0,0,1,1,2,2,3,3,4,4,5,5,6,6,7,7,8,8,9,9,10,10,11,11,12,12,13,13,14,14],"right_children":[2,4,6,8,10,12,14,16,18,20,22,24,26,28,30,-1,-1,-1,-1,-1,-1,-1,-1,-1,-1,-1,-1,-1,-1,-1,-1],"split_conditions":[-3.4791017E-1,-4.3203568E-1,-8.7796405E-2,-4.633318E-1,-5.7058555E-1,-1.1147337E-1,-1.7941338E-1,-5.297713E-1,-3.7477463E-1,-6.038773E-1,-3.7173113E-1,-1.2208437E-1,-2.1664166E-1,-2.4461542E-1,-3.5982776E-2,9.649342E-4,1.2641301E-2,-1.8552147E-2,1.8943693E-2,3.0361185E-2,-3.3521358E-2,2.239906E-2,7.85465E-3,-2.0326873E-2,-1.45412395E-2,1.9535983E-2,-1.6217476E-2,1.1448955E-2,3.0178156E-2,-1.9527635E-2,3.5677191E-3],"split_indices":[2,2,0,2,0,0,2,0,0,0,2,2,2,2,0,0,0,0,0,0,0,0,0,0,0,0,0,0,0,0,0],"split_type":[0,0,0,0,0,0,0,0,0,0,0,0,0,0,0,0,0,0,0,0,0,0,0,0,0,0,0,0,0,0,0],"sum_hessian":[6.33E2,5.08E2,1.25E2,4.53E2,5.5E1,8.7E1,3.8E1,4.1E2,4.3E1,7E0,4.8E1,7.8E1,9E0,1.2E1,2.6E1,3.47E2,6.3E1,3.6E1,7E0,2E0,5E0,3.1E1,1.7E1,5.2E1,2.6E1,2E0,7E0,7E0,5E0,9E0,1.7E1],"tree_param":{"num_deleted":"0","num_feature":"3","num_nodes":"31","size_leaf_vector":"1"}},{"base_weights":[-4.0739053E-3,7.835761E-2,-3.1013155E-1,-3.799044E-2,1.5228061E-1,-3.7302652E-1,1.2290367E-1,1.0029086E-2,-1.0834436E-1,3.5047382E-1,2.9681232E-2,-1.3226555E-1,-4.526958E-1,-1.2927008E-2,1.8082744E-1,4.2528813E-3,-1.5568708E-3,-4.9086683E-3,-7.3970895E-4,8.22169E-3,1.7266387E-2,-1.2573045E-2,4.1854167E-3,-1.8089272E-2,1.6976092E-2,-8.63391E-3,-1.9161856E-2,1.3299376E-3,5.5976324E-3],"categories":[],"categories_nodes":[],"categories_segments":[],"categories_sizes":[],"default_left":[0,0,0,0,0,0,0,0,0,0,0,0,0,0,0,0,0,0,0,0,0,0,0,0,0,0,0,0,0],"id":48,"left_children":[1,3,5,7,9,11,13,15,17,19,21,23,25,-1,27,-1,-1,-1,-1,-1,-1,-1,-1,-1,-1,-1,-1,-1,-1],"loss_changes":[1.617073E1,4.349188E0,3.7499084E0,6.6662383E-1,7.4977927E0,2.2226925E0,6.5533006E-1,9.699509E-1,3.6605084E-1,1.8718061E0,9.522344E0,1.0528407E1,2.5463924E0,0E0,5.0947666E-3,0E0,0E0,0E0,0E0,0E0,0E0,0E0,0E0,0E0,0E0,0E0,0E0,0E0,0E0],"parents":[2147483647,0,0,1,1,2,2,3,3,4,4,5,5,6,6,7,7,8,8,9,9,10,10,11,11,12,12,14,14],"right_children":[2,4,6,8,10,12,14,16,18,20,22,24,26,-1,28,-1,-1,-1,-1,-1,-1,-1,-1,-1,-1,-1,-1,-1,-1],"split_conditions":[-3.4791017E-1,-6.8606895E-1,-6.135507E-2,-9.2351997E-1,-6.1939734E-1,-2.1664166E-1,-4.835018E-1,-2.8903955E-1,-8.633379E-1,-6.4714026E-1,-4.9963614E-1,-3.099272E-1,-3.319762E-1,-1.2927008E-2,-3.7893108E-1,4.2528813E-3,-1.5568708E-3,-4.9086683E-3,-7.3970895E-4,8.22169E-3,1.7266387E-2,-1.2573045E-2,4.1854167E-3,-1.8089272E-2,1.6976092E-2,-8.63391E-3,-1.9161856E-2,1.3299376E-3,5.5976324E-3],"split_indices":[2,2,2,2,2,2,1,1,2,2,2,1,1,0,1,0,0,0,0,0,0,0,0,0,0,0,0,0,0],"split_type":[0,0,0,0,0,0,0,0,0,0,0,0,0,0,0,0,0,0,0,0,0,0,0,0,0,0,0,0,0],"sum_hessian":[6.39E2,5.04E2,1.35E2,1.96E2,3.08E2,1.18E2,1.7E1,1.17E2,7.9E1,1.17E2,1.91E2,3E1,8.8E1,1E0,1.6E1,3.7E1,8E1,4.7E1,3.2E1,8.9E1,2.8E1,3.7E1,1.54E2,1.8E1,1.2E1,4.8E1,4E1,1E0,1.5E1],"tree_param":{"num_deleted":"0","num_feature":"3","num_nodes":"29","size_leaf_vector":"1"}},{"base_weights":[-1.3330771E-3,6.782624E-2,-6.7772135E-2,-6.757643E-2,2.3827906E-1,-4.360509E-1,-9.791943E-3,1.290833E-1,-2.258108E-1,2.0498684E-1,7.661389E-1,-6.5800446E-1,4.0658712E-1,8.4232163E-1,-4.359504E-2,5.18197E-3,-3.15011E-4,-8.583176E-3,3.5299323E-4,6.4774468E-3,-1.8726673E-2,-1.435033E-2,3.0367712E-2,2.0790216E-2,-2.5456123E-2,1.313583E-2,1.876836E-3,3.4529902E-2,4.31727E-4,-1.2624524E-2,2.217735E-4],"categories":[],"categories_nodes":[],"categories_segments":[],"categories_sizes":[],"default_left":[0,0,0,0,0,0,0,0,0,0,0,0,0,0,0,0,0,0,0,0,0,0,0,0,0,0,0,0,0,0,0],"id":49,"left_children":[1,3,5,7,9,11,13,15,17,19,21,23,25,27,29,-1,-1,-1,-1,-1,-1,-1,-1,-1,-1,-1,-1,-1,-1,-1,-1],"loss_changes":[2.9820788E0,7.355468E0,7.063532E0,5.5682116E0,2.3208332E0,8.68373E0,8.303492E0,4.8922908E-1,1.4215155E0,1.34904E0,2.9345279E0,9.854883E0,8.019698E-2,2.7946148E0,5.330825E0,0E0,0E0,0E0,0E0,0E0,0E0,0E0,0E0,0E0,0E0,0E0,0E0,0E0,0E0,0E0,0E0],"parents":[2147483647,0,0,1,1,2,2,3,3,4,4,5,5,6,6,7,7,8,8,9,9,10,10,11,11,12,12,13,13,14,14],"right_children":[2,4,6,8,10,12,14,16,18,20,22,24,26,28,30,-1,-1,-1,-1,-1,-1,-1,-1,-1,-1,-1,-1,-1,-1,-1,-1],"split_conditions":[-6.038773E-1,-7.758021E-1,-5.5552316E-1,-1.0015349E0,-6.113994E-1,3.601832E-1,-5.43862E-1,-1.0759046E0,1.1714216E0,-6.1262643E-1,-1.5988232E0,-1.6780206E0,1.2426454E0,-5.036476E-2,-1.0638754E0,5.18197E-3,-3.15011E-4,-8.583176E-3,3.5299323E-4,6.4774468E-3,-1.8726673E-2,-1.435033E-2,3.0367712E-2,2.0790216E-2,-2.5456123E-2,1.313583E-2,1.876836E-3,3.4529902E-2,4.31727E-4,-1.2624524E-2,2.217735E-4],"split_indices":[0,0,0,0,0,1,0,0,1,0,1,1,1,1,1,0,0,0,0,0,0,0,0,0,0,0,0,0,0,0,0],"split_type":[0,0,0,0,0,0,0,0,0,0,0,0,0,0,0,0,0,0,0,0,0,0,0,0,0,0,0,0,0,0,0],"sum_hessian":[6.47E2,3.17E2,3.3E2,1.77E2,1.4E2,4.4E1,2.86E2,7.9E1,9.8E1,1.33E2,7E0,3.5E1,9E0,1E1,2.76E2,6E1,1.9E1,7.8E1,2E1,1.32E2,1E0,1E0,6E0,4E0,3.1E1,8E0,1E0,7E0,3E0,3.2E1,2.44E2],"tree_param":{"num_deleted":"0","num_feature":"3","num_nodes":"31","size_leaf_vector":"1"}},{"base_weights":[-1.6468162E-2,1.9257781E-1,-3.608243E-2,-6.353145E-2,2.1893227E-1,-1.9270979E-1,4.6374975E-3,9.2073604E-2,-7.494831E-3,2.35085E-1,-2.9633503E-2,-2.6683956E-1,-1.987107E-2,2.0492133E-1,-7.084522E-2,4.1747335E-3,-7.3768414E-4,5.1781656E-3,8.8647865E-3,-6.575145E-5,-1.1415058E-3,-5.2283617E-4,-1.0569076E-2,3.0191167E-4,-6.583603E-3,9.692357E-3,4.2213616E-3,-5.2195257E-3,2.4977978E-3],"categories":[],"categories_nodes":[],"categories_segments":[],"categories_sizes":[],"default_left":[0,0,0,0,0,0,0,0,0,0,0,0,0,0,0,0,0,0,0,0,0,0,0,0,0,0,0,0,0],"id":50,"left_children":[1,3,5,7,9,11,13,15,-1,17,19,21,23,25,27,-1,-1,-1,-1,-1,-1,-1,-1,-1,-1,-1,-1,-1,-1],"loss_changes":[2.6762338E0,3.918879E-1,3.8020957E0,1.9693437E-1,2.1173215E-1,1.5706348E0,7.180434E0,2.5393762E-2,0E0,1.3016057E-1,8.404809E-4,1.8269897E0,2.2923788E-1,9.408212E-1,5.498001E0,0E0,0E0,0E0,0E0,0E0,0E0,0E0,0E0,0E0,0E0,0E0,0E0,0E0,0E0],"parents":[2147483647,0,0,1,1,2,2,3,3,4,4,5,5,6,6,7,7,9,9,10,10,11,11,12,12,13,13,14,14],"right_children":[2,4,6,8,10,12,14,16,-1,18,20,22,24,26,28,-1,-1,-1,-1,-1,-1,-1,-1,-1,-1,-1,-1,-1,-1],"split_conditions":[-1.0947919E0,-2.2829387E0,-7.9476285E-1,-1.2355801E0,5.025537E-1,6.321495E-1,-6.23061E-1,-1.3012003E0,-7.494831E-3,-7.354961E-1,-1.1044703E0,-9.754256E-1,1.7490561E0,-5.357328E-1,1.300869E-1,4.1747335E-3,-7.3768414E-4,5.1781656E-3,8.8647865E-3,-6.575145E-5,-1.1415058E-3,-5.2283617E-4,-1.0569076E-2,3.0191167E-4,-6.583603E-3,9.692357E-3,4.2213616E-3,-5.2195257E-3,2.4977978E-3],"split_indices":[0,1,0,0,1,1,0,0,0,1,0,0,1,1,1,0,0,0,0,0,0,0,0,0,0,0,0,0,0],"split_type":[0,0,0,0,0,0,0,0,0,0,0,0,0,0,0,0,0,0,0,0,0,0,0,0,0,0,0,0,0],"sum_hessian":[6.5E2,5.5E1,5.95E2,5E0,5E1,1.22E2,4.73E2,3E0,2E0,4.7E1,3E0,8.5E1,3.7E1,1.29E2,3.44E2,2E0,1E0,2.5E1,2.2E1,1E0,2E0,2.2E1,6.3E1,3.3E1,4E0,4.4E1,8.5E1,2.06E2,1.38E2],"tree_param":{"num_deleted":"0","num_feature":"3","num_nodes":"29","size_leaf_vector":"1"}},{"base_weights":[1.0156709E-2,9.232407E-2,-3.111199E-1,1.6484931E-2,3.0623686E-1,-5.0790524E-1,-2.6385825E-2,8.982652E-2,-3.2350162E-1,7.0164716E-1,1.8658012E-1,-6.2197906E-1,-3.7145966E-1,5.228682E-1,-1.9182575E-1,-1.6176344E-3,9.091287E-3,-2.8274603E-2,-1.378679E-3,8.8623995E-3,3.5214905E-2,-4.2235234E-4,2.0660872E-2,-1.956725E-2,-5.3696795E-3,-1.2765335E-2,1.2029355E-2,2.0242428E-2,4.347347E-3,-1.234619E-2,6.1398833E-3],"categories":[],"categories_nodes":[],"categories_segments":[],"categories_sizes":[],"default_left":[0,0,0,0,0,0,0,0,0,0,0,0,0,0,0,0,0,0,0,0,0,0,0,0,0,0,0,0,0,0,0],"id":51,"left_children":[1,3,5,7,9,11,13,15,17,19,21,23,25,27,29,-1,-1,-1,-1,-1,-1,-1,-1,-1,-1,-1,-1,-1,-1,-1,-1],"loss_changes":[1.710852E1,8.365999E0,7.3827553E0,9.554288E0,6.2564106E0,9.830189E-1,5.0980697E0,9.670889E0,1.1638861E1,5.599554E0,1.0588843E1,4.329033E-1,1.7571764E0,6.484711E-1,3.8301315E0,0E0,0E0,0E0,0E0,0E0,0E0,0E0,0E0,0E0,0E0,0E0,0E0,0E0,0E0,0E0,0E0],"parents":[2147483647,0,0,1,1,2,2,3,3,4,4,5,5,6,6,7,7,8,8,9,9,10,10,11,11,12,12,13,13,14,14],"right_children":[2,4,6,8,10,12,14,16,18,20,22,24,26,28,30,-1,-1,-1,-1,-1,-1,-1,-1,-1,-1,-1,-1,-1,-1,-1,-1],"split_conditions":[-3.4791017E-1,-5.316953E-1,-1.2691544E-1,-6.1939734E-1,-4.8812878E-1,-1.6274238E-1,-2.0523697E-1,-6.8994904E-1,-4.9447155E-1,-5.0820637E-1,-4.1520202E-1,-1.3357136E-1,-1.4103465E-1,-6.043153E-2,-7.690464E-3,-1.6176344E-3,9.091287E-3,-2.8274603E-2,-1.378679E-3,8.8623995E-3,3.5214905E-2,-4.2235234E-4,2.0660872E-2,-1.956725E-2,-5.3696795E-3,-1.2765335E-2,1.2029355E-2,2.0242428E-2,4.347347E-3,-1.234619E-2,6.1398833E-3],"split_indices":[2,0,0,2,2,2,2,2,2,2,2,0,0,0,0,0,0,0,0,0,0,0,0,0,0,0,0,0,0,0,0],"split_type":[0,0,0,0,0,0,0,0,0,0,0,0,0,0,0,0,0,0,0,0,0,0,0,0,0,0,0,0,0,0,0],"sum_hessian":[6.46E2,5.15E2,1.31E2,3.81E2,1.34E2,7.7E1,5.4E1,3.14E2,6.7E1,3E1,1.04E2,4E1,3.7E1,1.2E1,4.2E1,1.88E2,1.26E2,2E1,4.7E1,1.7E1,1.3E1,7.5E1,2.9E1,3.7E1,3E0,3.5E1,2E0,8E0,4E0,2.7E1,1.5E1],"tree_param":{"num_deleted":"0","num_feature":"3","num_nodes":"31","size_leaf_vector":"1"}},{"base_weights":[9.18525E-3,6.903778E-2,-3.224409E-1,3.5694245E-2,4.9431384E-1,-4.6576923E-1,1.6278331E-1,5.6544285E-2,-5.2255124E-1,5.232611E-1,2.8720978E-3,-3.3367717E-1,-6.1427706E-1,-1.6474879E-1,2.0004754E-1,7.9273136E-4,1.2519169E-2,-3.7796625E-3,-1.6127493E-2,8.507473E-3,1.7635962E-2,-1.6420262E-2,6.5380377E-3,-1.2088819E-2,-2.3464235E-2,1.1806871E-2,-1.9220566E-2,-2.73891E-3,7.5256317E-3],"categories":[],"categories_nodes":[],"categories_segments":[],"categories_sizes":[],"default_left":[0,0,0,0,0,0,0,0,0,0,0,0,0,0,0,0,0,0,0,0,0,0,0,0,0,0,0,0,0],"id":52,"left_children":[1,3,5,7,9,11,13,15,17,19,-1,21,23,25,27,-1,-1,-1,-1,-1,-1,-1,-1,-1,-1,-1,-1,-1,-1],"loss_changes":[1.3241471E1,7.9941726E0,7.169551E0,6.1402535E0,4.229517E-1,1.3447475E0,3.2588315E-1,5.4980845E0,4.5530796E-2,4.216938E-1,0E0,5.305127E0,9.6183586E-1,1.0493122E0,3.48553E-1,0E0,0E0,0E0,0E0,0E0,0E0,0E0,0E0,0E0,0E0,0E0,0E0,0E0,0E0],"parents":[2147483647,0,0,1,1,2,2,3,3,4,4,5,5,6,6,7,7,8,8,9,9,11,11,12,12,13,13,14,14],"right_children":[2,4,6,8,10,12,14,16,18,20,-1,22,24,26,28,-1,-1,-1,-1,-1,-1,-1,-1,-1,-1,-1,-1,-1,-1],"split_conditions":[-2.1664166E-1,-3.6095315E-1,-3.5982776E-2,-3.5488313E-1,-7.690464E-3,-1.274126E-1,-1.6274238E-1,-4.1520202E-1,-5.9775263E-1,-3.1689814E-1,2.8720978E-3,-1.00750595E-1,-1.8979484E-1,-1.738159E-1,-3.4558352E-2,7.9273136E-4,1.2519169E-2,-3.7796625E-3,-1.6127493E-2,8.507473E-3,1.7635962E-2,-1.6420262E-2,6.5380377E-3,-1.2088819E-2,-2.3464235E-2,1.1806871E-2,-1.9220566E-2,-2.73891E-3,7.5256317E-3],"split_indices":[2,0,0,2,0,2,2,2,0,0,0,0,0,2,0,0,0,0,0,0,0,0,0,0,0,0,0,0,0],"split_type":[0,0,0,0,0,0,0,0,0,0,0,0,0,0,0,0,0,0,0,0,0,0,0,0,0,0,0,0,0],"sum_hessian":[6.65E2,5.64E2,1.01E2,5.24E2,4E1,7.8E1,2.3E1,5.06E2,1.8E1,3.7E1,3E0,4.3E1,3.5E1,2E0,2.1E1,4.68E2,3.8E1,1E0,1.7E1,9E0,2.8E1,3.1E1,1.2E1,1.7E1,1.8E1,1E0,1E0,3E0,1.8E1],"tree_param":{"num_deleted":"0","num_feature":"3","num_nodes":"29","size_leaf_vector":"1"}},{"base_weights":[6.856117E-3,4.87087E-2,-1.2029405E-1,-7.329569E-2,1.11058466E-1,-3.9883342E-1,-3.4655724E-2,1.4964837E-1,-2.0636408E-1,4.011728E-2,2.5791645E-1,-4.9891296E-1,2.8051957E-2,-5.3436685E-1,3.3185016E-2,-1.8484311E-3,5.06769E-3,-8.626884E-3,-9.776022E-5,8.577207E-3,-3.4681049E-3,3.3312514E-3,1.7383685E-2,-1.1958465E-2,-1.9988697E-2,3.4900277E-3,-2.6140524E-2,1.0572256E-2,-8.488776E-4],"categories":[],"categories_nodes":[],"categories_segments":[],"categories_sizes":[],"default_left":[0,0,0,0,0,0,0,0,0,0,0,0,0,0,0,0,0,0,0,0,0,0,0,0,0,0,0,0,0],"id":53,"left_children":[1,3,5,7,9,11,13,15,17,19,21,23,-1,25,27,-1,-1,-1,-1,-1,-1,-1,-1,-1,-1,-1,-1,-1,-1],"loss_changes":[3.4808402E0,3.7507572E0,3.8504689E0,4.985239E0,3.386012E0,