{"learner":{"attributes":{"scikit_learn":"{\"_estimator_type\": \"regressor\"}"},"feature_names":[],"feature_types":[],"gradient_booster":{"model":{"cats":{"enc":[],"feature_segments":[],"sorted_idx":[]},"gbtree_model_param":{"num_parallel_tree":"1","num_trees":"400"},"iteration_indptr":[0,1,2,3,4,5,6,7,8,9,10,11,12,13,14,15,16,17,18,19,20,21,22,23,24,25,26,27,28,29,30,31,32,33,34,35,36,37,38,39,40,41,42,43,44,45,46,47,48,49,50,51,52,53,54,55,56,57,58,59,60,61,62,63,64,65,66,67,68,69,70,71,72,73,74,75,76,77,78,79,80,81,82,83,84,85,86,87,88,89,90,91,92,93,94,95,96,97,98,99,100,101,102,103,104,105,106,107,108,109,110,111,112,113,114,115,116,117,118,119,120,121,122,123,124,125,126,127,128,129,130,131,132,133,134,135,136,137,138,139,140,141,142,143,144,145,146,147,148,149,150,151,152,153,154,155,156,157,158,159,160,161,162,163,164,165,166,167,168,169,170,171,172,173,174,175,176,177,178,179,180,181,182,183,184,185,186,187,188,189,190,191,192,193,194,195,196,197,198,199,200,201,202,203,204,205,206,207,208,209,210,211,212,213,214,215,216,217,218,219,220,221,222,223,224,225,226,227,228,229,230,231,232,233,234,235,236,237,238,239,240,241,242,243,244,245,246,247,248,249,250,251,252,253,254,255,256,257,258,259,260,261,262,263,264,265,266,267,268,269,270,271,272,273,274,275,276,277,278,279,280,281,282,283,284,285,286,287,288,289,290,291,292,293,294,295,296,297,298,299,300,301,302,303,304,305,306,307,308,309,310,311,312,313,314,315,316,317,318,319,320,321,322,323,324,325,326,327,328,329,330,331,332,333,334,335,336,337,338,339,340,341,342,343,344,345,346,347,348,349,350,351,352,353,354,355,356,357,358,359,360,361,362,363,364,365,366,367,368,369,370,371,372,373,374,375,376,377,378,379,380,381,382,383,384,385,386,387,388,389,390,391,392,393,394,395,396,397,398,399,400],"tree_info":[0,0,0,0,0,0,0,0,0,0,0,0,0,0,0,0,0,0,0,0,0,0,0,0,0,0,0,0,0,0,0,0,0,0,0,0,0,0,0,0,0,0,0,0,0,0,0,0,0,0,0,0,0,0,0,0,0,0,0,0,0,0,0,0,0,0,0,0,0,0,0,0,0,0,0,0,0,0,0,0,0,0,0,0,0,0,0,0,0,0,0,0,0,0,0,0,0,0,0,0,0,0,0,0,0,0,0,0,0,0,0,0,0,0,0,0,0,0,0,0,0,0,0,0,0,0,0,0,0,0,0,0,0,0,0,0,0,0,0,0,0,0,0,0,0,0,0,0,0,0,0,0,0,0,0,0,0,0,0,0,0,0,0,0,0,0,0,0,0,0,0,0,0,0,0,0,0,0,0,0,0,0,0,0,0,0,0,0,0,0,0,0,0,0,0,0,0,0,0,0,0,0,0,0,0,0,0,0,0,0,0,0,0,0,0,0,0,0,0,0,0,0,0,0,0,0,0,0,0,0,0,0,0,0,0,0,0,0,0,0,0,0,0,0,0,0,0,0,0,0,0,0,0,0,0,0,0,0,0,0,0,0,0,0,0,0,0,0,0,0,0,0,0,0,0,0,0,0,0,0,0,0,0,0,0,0,0,0,0,0,0,0,0,0,0,0,0,0,0,0,0,0,0,0,0,0,0,0,0,0,0,0,0,0,0,0,0,0,0,0,0,0,0,0,0,0,0,0,0,0,0,0,0,0,0,0,0,0,0,0,0,0,0,0,0,0,0,0,0,0,0,0,0,0,0,0,0,0,0,0,0,0,0,0,0,0,0,0,0,0,0,0,0,0,0,0,0,0,0,0,0,0,0,0,0,0,0,0,0,0,0,0,0,0,0,0,0,0,0,0],"trees":[{"base_weights":[1.7323634E-2,-2.115218E-1,8.788014E-2,-3.2699642E-1,8.726445E-1,2.598294E-1,-7.6968476E-2,1.6825214E-1,-5.218259E-1,1.4604468E0,4.3269855E-1,1.732462E-1,1.5643442E0,6.5129414E-2,-3.6025876E-1,2.5510136E-2,6.862239E-4,-1.9291941E-2,-3.333253E-3,4.731272E-2,1.3158413E-2,1.6987441E-2,-2.0299898E-3,1.5349488E-2,3.2867005E-3,5.8265816E-2,-1.7833572E-2,3.7579873E-4,1.4475716E-2,-1.4874661E-2,8.01907E-4],"categories":[],"categories_nodes":[],"categories_segments":[],"categories_sizes":[],"default_left":[0,0,0,0,0,0,0,0,0,0,0,0,0,0,0,0,0,0,0,0,0,0,0,0,0,0,0,0,0,0,0],"id":0,"left_children":[1,3,5,7,9,11,13,15,17,19,21,23,25,27,29,-1,-1,-1,-1,-1,-1,-1,-1,-1,-1,-1,-1,-1,-1,-1,-1],"loss_changes":[1.0481544E1,1.9439985E1,1.4079418E1,1.3499771E1,3.2470856E0,2.7175606E1,1.0248221E1,3.9469604E0,4.908045E0,2.340889E-2,7.0655084E-1,4.879526E0,1.3390053E1,3.726495E0,4.4724827E0,0E0,0E0,0E0,0E0,0E0,0E0,0E0,0E0,0E0,0E0,0E0,0E0,0E0,0E0,0E0,0E0],"parents":[2147483647,0,0,1,1,2,2,3,3,4,4,5,5,6,6,7,7,8,8,9,9,10,10,11,11,12,12,13,13,14,14],"right_children":[2,4,6,8,10,12,14,16,18,20,22,24,26,28,30,-1,-1,-1,-1,-1,-1,-1,-1,-1,-1,-1,-1,-1,-1,-1,-1],"split_conditions":[-9.592262E-1,-2.5801092E-1,-6.0008657E-1,-9.006804E-1,-1.5188439E0,-6.324469E-1,6.784307E-1,-9.9931866E-1,-6.3544154E-1,-7.3709716E-3,-2.3086171E-1,-5.8629495E-1,6.844403E-1,-1.643741E-1,-1.020982E-1,2.5510136E-2,6.862239E-4,-1.9291941E-2,-3.333253E-3,4.731272E-2,1.3158413E-2,1.6987441E-2,-2.0299898E-3,1.5349488E-2,3.2867005E-3,5.8265816E-2,-1.7833572E-2,3.7579873E-4,1.4475716E-2,-1.4874661E-2,8.01907E-4],"split_indices":[1,0,0,0,1,0,1,0,0,0,0,1,1,0,0,0,0,0,0,0,0,0,0,0,0,0,0,0,0,0,0],"split_type":[0,0,0,0,0,0,0,0,0,0,0,0,0,0,0,0,0,0,0,0,0,0,0,0,0,0,0,0,0,0,0],"sum_hessian":[6.47E2,1.52E2,4.95E2,1.38E2,1.4E1,2.42E2,2.53E2,3.9E1,9.9E1,5E0,9E0,2.28E2,1.4E1,1.69E2,8.4E1,6E0,3.3E1,7.6E1,2.3E1,4E0,1E0,7E0,2E0,3.5E1,1.93E2,1.2E1,2E0,1.51E2,1.8E1,6.2E1,2.2E1],"tree_param":{"num_deleted":"0","num_feature":"3","num_nodes":"31","size_leaf_vector":"1"}},{"base_weights":[-4.355694E-3,2.7225422E-2,-1.5694112E-2,-2.4645303E-1,5.1391535E-2,-3.640968E-1,8.8036335E-1,1.8286249E-1,-1.8262012E-1,-1.4674126E-5,-1.399401E-2,3.679121E-2,6.438618E-3,4.9800696E-3,4.4199463E-2,2.9364207E-3,-1.785318E-2],"categories":[],"categories_nodes":[],"categories_segments":[],"categories_sizes":[],"default_left":[0,0,0,0,0,0,0,0,0,0,0,0,0,0,0,0,0],"id":1,"left_children":[1,-1,3,5,7,9,11,13,15,-1,-1,-1,-1,-1,-1,-1,-1],"loss_changes":[6.7346973E0,0E0,9.966699E0,1.954216E1,1.5385498E1,4.9131546E0,2.961749E0,6.7177496E0,2.0884722E1,0E0,0E0,0E0,0E0,0E0,0E0,0E0,0E0],"parents":[2147483647,0,0,2,2,3,3,4,4,5,5,6,6,7,7,8,8],"right_children":[2,-1,4,6,8,10,12,14,16,-1,-1,-1,-1,-1,-1,-1,-1],"split_conditions":[-9.9931866E-1,2.7225422E-2,-9.6297497E-1,-2.7289936E-1,-4.881883E-1,-9.098388E-1,-1.1236081E0,-4.8977292E-1,6.784307E-1,-1.4674126E-5,-1.399401E-2,3.679121E-2,6.438618E-3,4.9800696E-3,4.4199463E-2,2.9364207E-3,-1.785318E-2],"split_indices":[0,0,1,0,0,0,1,0,1,0,0,0,0,0,0,0,0],"split_type":[0,0,0,0,0,0,0,0,0,0,0,0,0,0,0,0,0],"sum_hessian":[6.49E2,7E0,6.42E2,1.44E2,4.98E2,1.31E2,1.3E1,3.19E2,1.79E2,2.9E1,1.02E2,8E0,5E0,3.16E2,3E0,1.07E2,7.2E1],"tree_param":{"num_deleted":"0","num_feature":"3","num_nodes":"17","size_leaf_vector":"1"}},{"base_weights":[2.987806E-3,-2.222301E-1,7.054708E-2,-3.240968E-1,8.52711E-1,2.279935E-1,-8.654609E-2,2.6510756E-2,-3.970516E-1,1.4300014E0,3.131544E-1,2.0976502E-1,7.013616E-2,1.130892E-1,-4.3998238E-1,-7.729876E-3,-1.6103275E-2,4.651638E-2,1.2409169E-2,1.3585256E-2,-2.1181619E-3,4.0269336E-3,1.5461958E-2,1.6508782E-3,1.604841E-2,-2.893395E-2,-4.290802E-3],"categories":[],"categories_nodes":[],"categories_segments":[],"categories_sizes":[],"default_left":[0,0,0,0,0,0,0,0,0,0,0,0,0,0,0,0,0,0,0,0,0,0,0,0,0,0,0],"id":2,"left_children":[1,3,5,7,9,11,13,-1,15,17,19,21,-1,23,25,-1,-1,-1,-1,-1,-1,-1,-1,-1,-1,-1,-1],"loss_changes":[9.692774E0,1.6372965E1,1.2139274E1,1.2246257E1,3.6014395E0,8.932271E0,1.7407112E1,0E0,2.3546257E0,9.373665E-2,4.6082473E-1,5.5637293E0,0E0,3.8404617E0,1.3723635E1,0E0,0E0,0E0,0E0,0E0,0E0,0E0,0E0,0E0,0E0,0E0,0E0],"parents":[2147483647,0,0,1,1,2,2,3,3,4,4,5,5,6,6,8,8,9,9,10,10,11,11,13,13,14,14],"right_children":[2,4,6,8,10,12,14,-1,16,18,20,22,-1,24,26,-1,-1,-1,-1,-1,-1,-1,-1,-1,-1,-1,-1],"split_conditions":[-9.592262E-1,-2.5801092E-1,-6.0008657E-1,-9.9931866E-1,-1.1959713E0,-6.046268E-1,6.784307E-1,2.6510756E-2,-1.4549371E0,-7.3709716E-3,-2.3086171E-1,-7.207835E-1,7.013616E-2,5.486183E-1,-3.335866E-1,-7.729876E-3,-1.6103275E-2,4.651638E-2,1.2409169E-2,1.3585256E-2,-2.1181619E-3,4.0269336E-3,1.5461958E-2,1.6508782E-3,1.604841E-2,-2.893395E-2,-4.290802E-3],"split_indices":[1,0,0,0,1,0,1,0,1,0,0,0,0,1,0,0,0,0,0,0,0,0,0,0,0,0,0],"split_type":[0,0,0,0,0,0,0,0,0,0,0,0,0,0,0,0,0,0,0,0,0,0,0,0,0,0,0],"sum_hessian":[6.35E2,1.46E2,4.89E2,1.34E2,1.2E1,2.44E2,2.45E2,7E0,1.27E2,5E0,7E0,2.43E2,1E0,1.57E2,8.8E1,6.5E1,6.2E1,4E0,1E0,5E0,2E0,1.96E2,4.7E1,1.39E2,1.8E1,3.1E1,5.7E1],"tree_param":{"num_deleted":"0","num_feature":"3","num_nodes":"27","size_leaf_vector":"1"}},{"base_weights":[-2.570688E-3,1.0442423E0,-8.268853E-2,9.498248E-2,1.547348E0,1.809466E-2,-3.5823324E-1,4.6795654E-1,-6.66796E-1,1.8316666E0,2.6692118E-2,-2.9961652E-1,1.715588E-1,-4.0091985E-1,1.18613236E-1,1.6808422E-2,1.2670725E-4,-3.9064907E-3,-2.244206E-2,2.5554046E-2,6.5722965E-2,-1.0823089E-2,4.4177834E-2,1.30604E-2,-1.3988925E-3,-7.105049E-3,-1.672414E-2,1.31213665E-2,-1.1379122E-2],"categories":[],"categories_nodes":[],"categories_segments":[],"categories_sizes":[],"default_left":[0,0,0,0,0,0,0,0,0,0,0,0,0,0,0,0,0,0,0,0,0,0,0,0,0,0,0,0,0],"id":3,"left_children":[1,3,5,7,9,11,13,15,17,19,-1,21,23,25,27,-1,-1,-1,-1,-1,-1,-1,-1,-1,-1,-1,-1,-1,-1],"loss_changes":[5.426533E1,2.182162E1,1.6696417E1,5.142133E0,3.9794235E0,2.155336E1,3.3247032E0,5.1139927E-1,1.6424489E-1,5.1712875E0,0E0,1.6137447E1,1.7171837E1,3.669754E0,2.3879647E0,0E0,0E0,0E0,0E0,0E0,0E0,0E0,0E0,0E0,0E0,0E0,0E0,0E0,0E0],"parents":[2147483647,0,0,1,1,2,2,3,3,4,4,5,5,6,6,7,7,8,8,9,9,11,11,12,12,13,13,14,14],"right_children":[2,4,6,8,10,12,14,16,18,20,-1,22,24,26,28,-1,-1,-1,-1,-1,-1,-1,-1,-1,-1,-1,-1,-1,-1],"split_conditions":[-9.020256E-1,1.3861929E-1,6.844403E-1,-9.365818E-1,1.5017778E0,-9.196873E-1,1.6507744E0,-9.4273573E-1,-1.0626612E0,6.569278E-1,2.6692118E-2,-1.2284298E-3,-6.124075E-1,1.0620033E0,-7.6065534E-1,1.6808422E-2,1.2670725E-4,-3.9064907E-3,-2.244206E-2,2.5554046E-2,6.5722965E-2,-1.0823089E-2,4.4177834E-2,1.30604E-2,-1.3988925E-3,-7.105049E-3,-1.672414E-2,1.31213665E-2,-1.1379122E-2],"split_indices":[2,1,1,2,1,1,1,2,1,1,0,2,2,1,2,0,0,0,0,0,0,0,0,0,0,0,0,0,0],"split_type":[0,0,0,0,0,0,0,0,0,0,0,0,0,0,0,0,0,0,0,0,0,0,0,0,0,0,0,0,0],"sum_hessian":[6.45E2,4.5E1,6E2,1.6E1,2.9E1,4.4E2,1.6E2,1.1E1,5E0,1.9E1,1E1,1.43E2,2.97E2,1.47E2,1.3E1,9E0,2E0,1E0,4E0,6E0,1.3E1,1.39E2,4E0,1.34E2,1.63E2,7.3E1,7.4E1,8E0,5E0],"tree_param":{"num_deleted":"0","num_feature":"3","num_nodes":"29","size_leaf_vector":"1"}},{"base_weights":[-8.936927E-3,9.163295E-1,-7.102035E-2,8.465119E-2,1.6647693E0,-2.524808E-1,3.736656E-2,5.6993335E-1,-7.145137E-1,1.0981046E0,7.92368E-2,-1.11185804E-1,-1.0346447E0,1.003221E0,-1.04524516E-1,1.8509235E-2,8.159028E-5,-3.8478933E-3,-2.3398215E-2,4.3357436E-2,2.5214532E-2,-4.541424E-3,3.4400735E-2,-4.1746724E-2,-2.038895E-2,2.055986E-2,9.3427375E-2,-1.52215E-2,1.9528139E-3],"categories":[],"categories_nodes":[],"categories_segments":[],"categories_sizes":[],"default_left":[0,0,0,0,0,0,0,0,0,0,0,0,0,0,0,0,0,0,0,0,0,0,0,0,0,0,0,0,0],"id":4,"left_children":[1,3,5,7,9,11,13,15,17,19,-1,21,23,25,27,-1,-1,-1,-1,-1,-1,-1,-1,-1,-1,-1,-1,-1,-1],"loss_changes":[3.6541832E1,2.4757526E1,1.1731527E1,8.163635E0,8.719463E0,2.4529995E1,5.136012E1,3.451934E-1,2.0681429E-1,1.2676048E-1,0E0,9.780059E0,3.3623466E0,3.0077488E1,2.2377672E1,0E0,0E0,0E0,0E0,0E0,0E0,0E0,0E0,0E0,0E0,0E0,0E0,0E0,0E0],"parents":[2147483647,0,0,1,1,2,2,3,3,4,4,5,5,6,6,7,7,8,8,9,9,11,11,12,12,13,13,14,14],"right_children":[2,4,6,8,10,12,14,16,18,20,-1,22,24,26,28,-1,-1,-1,-1,-1,-1,-1,-1,-1,-1,-1,-1,-1,-1],"split_conditions":[-9.020256E-1,-9.545673E-1,-7.859379E-1,-9.365818E-1,-9.2753273E-1,-7.980841E-1,-6.999107E-1,-9.661283E-1,-9.860459E-1,-8.8795626E-1,7.92368E-2,-7.99093E-1,-8.0350363E-1,-6.3847965E-1,-5.117192E-1,1.8509235E-2,8.159028E-5,-3.8478933E-3,-2.3398215E-2,4.3357436E-2,2.5214532E-2,-4.541424E-3,3.4400735E-2,-4.1746724E-2,-2.038895E-2,2.055986E-2,9.3427375E-2,-1.52215E-2,1.9528139E-3],"split_indices":[2,0,2,2,2,2,2,0,0,0,0,2,0,0,2,0,0,0,0,0,0,0,0,0,0,0,0,0,0],"split_type":[0,0,0,0,0,0,0,0,0,0,0,0,0,0,0,0,0,0,0,0,0,0,0,0,0,0,0,0,0],"sum_hessian":[6.34E2,3.9E1,5.95E2,1.9E1,2E1,2.22E2,3.73E2,1.2E1,7E0,1.4E1,6E0,1.89E2,3.3E1,4.7E1,3.26E2,1.1E1,1E0,1E0,6E0,4E0,1E1,1.84E2,5E0,1.5E1,1.8E1,4.2E1,5E0,9.6E1,2.3E2],"tree_param":{"num_deleted":"0","num_feature":"3","num_nodes":"29","size_leaf_vector":"1"}},{"base_weights":[1.0457553E-2,9.370063E-1,-5.224699E-2,6.936972E-2,1.6831756E0,-2.1738008E-1,4.7932163E-2,5.0176114E-1,-6.419376E-1,1.2028496E0,7.621829E-2,-7.6006606E-2,-1.0853353E0,9.16155E-1,-8.721203E-2,1.7856808E-2,-2.4601188E-4,-3.7901748E-3,-2.0926382E-2,4.767806E-2,2.436214E-2,-3.9643706E-3,2.977868E-2,-4.5604903E-2,-1.6664904E-2,1.8813377E-2,7.930216E-2,-1.5760072E-2,1.5475173E-3],"categories":[],"categories_nodes":[],"categories_segments":[],"categories_sizes":[],"default_left":[0,0,0,0,0,0,0,0,0,0,0,0,0,0,0,0,0,0,0,0,0,0,0,0,0,0,0,0,0],"id":5,"left_children":[1,3,5,7,9,11,13,15,17,19,-1,21,23,25,27,-1,-1,-1,-1,-1,-1,-1,-1,-1,-1,-1,-1,-1,-1],"loss_changes":[3.7580788E1,2.6426792E1,1.0035413E1,6.4733634E0,6.0046806E0,2.8017141E1,4.4432632E1,6.245127E-1,1.412456E-1,1.1254692E0,0E0,1.2009562E1,6.527996E0,2.3803974E1,1.9972712E1,0E0,0E0,0E0,0E0,0E0,0E0,0E0,0E0,0E0,0E0,0E0,0E0,0E0,0E0],"parents":[2147483647,0,0,1,1,2,2,3,3,4,4,5,5,6,6,7,7,8,8,9,9,11,11,12,12,13,13,14,14],"right_children":[2,4,6,8,10,12,14,16,18,20,-1,22,24,26,28,-1,-1,-1,-1,-1,-1,-1,-1,-1,-1,-1,-1,-1,-1],"split_conditions":[-9.020256E-1,-9.545673E-1,-7.859379E-1,-9.365818E-1,-8.1797266E-1,-7.980841E-1,-6.999107E-1,-9.4273573E-1,-9.860459E-1,-8.8795626E-1,7.621829E-2,-8.0008906E-1,-8.0350363E-1,-6.275426E-1,-5.213981E-1,1.7856808E-2,-2.4601188E-4,-3.7901748E-3,-2.0926382E-2,4.767806E-2,2.436214E-2,-3.9643706E-3,2.977868E-2,-4.5604903E-2,-1.6664904E-2,1.8813377E-2,7.930216E-2,-1.5760072E-2,1.5475173E-3],"split_indices":[2,0,2,2,0,2,2,2,0,0,0,2,0,0,2,0,0,0,0,0,0,0,0,0,0,0,0,0,0],"split_type":[0,0,0,0,0,0,0,0,0,0,0,0,0,0,0,0,0,0,0,0,0,0,0,0,0,0,0,0,0],"sum_hessian":[6.45E2,4E1,6.05E2,1.9E1,2.1E1,2.28E2,3.77E2,1.2E1,7E0,1.5E1,6E0,1.97E2,3.1E1,5E1,3.27E2,1E1,2E0,1E0,6E0,6E0,9E0,1.88E2,9E0,1.6E1,1.5E1,4.4E1,6E0,7.8E1,2.49E2],"tree_param":{"num_deleted":"0","num_feature":"3","num_nodes":"29","size_leaf_vector":"1"}},{"base_weights":[5.2306023E-3,1.0091015E0,-6.314804E-2,-1.2353436E-2,1.4837897E0,-1.4229038E-1,1.4908758E-1,4.9893004E-1,-5.9491265E-1,1.8009005E0,2.4899734E-2,-3.891938E-1,-4.7118977E-2,1.9286257E0,2.1009611E-2,1.715974E-2,-1.8748568E-4,-6.0181892E-3,-2.1375416E-2,2.3819722E-2,6.095626E-2,-8.3822E-4,-1.7355071E-2,2.4778266E-3,-1.0999802E-2,3.7178465E-3,6.947699E-2,3.3119414E-2,-1.1421151E-3],"categories":[],"categories_nodes":[],"categories_segments":[],"categories_sizes":[],"default_left":[0,0,0,0,0,0,0,0,0,0,0,0,0,0,0,0,0,0,0,0,0,0,0,0,0,0,0,0,0],"id":6,"left_children":[1,3,5,7,9,11,13,15,17,19,-1,21,23,25,27,-1,-1,-1,-1,-1,-1,-1,-1,-1,-1,-1,-1,-1,-1],"loss_changes":[4.413274E1,1.989811E1,1.0132902E1,4.46676E0,4.3104095E0,1.0297348E1,3.7338303E1,2.9884768E-1,1.816616E-1,2.5729866E0,0E0,8.327215E0,1.3210969E1,7.4010315E0,9.895265E0,0E0,0E0,0E0,0E0,0E0,0E0,0E0,0E0,0E0,0E0,0E0,0E0,0E0,0E0],"parents":[2147483647,0,0,1,1,2,2,3,3,4,4,5,5,6,6,7,7,8,8,9,9,11,11,12,12,13,13,14,14],"right_children":[2,4,6,8,10,12,14,16,18,20,-1,22,24,26,28,-1,-1,-1,-1,-1,-1,-1,-1,-1,-1,-1,-1,-1,-1],"split_conditions":[-9.020256E-1,1.3861929E-1,-4.487306E-1,-9.4273573E-1,1.5017778E0,-9.6297497E-1,-4.2947948E-1,-7.225266E-2,-1.0626612E0,5.0453156E-1,2.4899734E-2,-8.17391E-1,7.785836E-1,-4.446832E-1,-1.1959713E0,1.715974E-2,-1.8748568E-4,-6.0181892E-3,-2.1375416E-2,2.3819722E-2,6.095626E-2,-8.3822E-4,-1.7355071E-2,2.4778266E-3,-1.0999802E-2,3.7178465E-3,6.947699E-2,3.3119414E-2,-1.1421151E-3],"split_indices":[2,1,2,2,1,1,2,1,1,1,0,2,1,2,1,0,0,0,0,0,0,0,0,0,0,0,0,0,0],"split_type":[0,0,0,0,0,0,0,0,0,0,0,0,0,0,0,0,0,0,0,0,0,0,0,0,0,0,0,0,0],"sum_hessian":[6.41E2,4E1,6.01E2,1.3E1,2.7E1,4.38E2,1.63E2,7E0,6E0,1.7E1,1E1,1.21E2,3.17E2,1E1,1.53E2,6E0,1E0,2E0,4E0,4E0,1.3E1,4.2E1,7.9E1,2.26E2,9.1E1,2E0,8E0,7E0,1.46E2],"tree_param":{"num_deleted":"0","num_feature":"3","num_nodes":"29","size_leaf_vector":"1"}},{"base_weights":[1.39072025E-2,2.7649727E-1,-2.3563586E-2,9.528732E-2,4.9532923E-1,-7.666601E-1,-3.411933E-4,2.1669416E-1,-3.5130608E-1,1.8477541E-1,9.177862E-1,-4.2814153E-1,-3.0599823E-2,8.165206E-1,-1.0949154E-2,-6.2459025E-5,1.4708834E-2,-2.0779163E-2,-2.4933397E-4,2.1437604E-2,-7.109559E-3,1.0525945E-2,2.9340459E-2,-1.4824886E-2,1.5004385E-3,-1.2106038E-2,3.2613564E-2,-5.818139E-3,7.848615E-4],"categories":[],"categories_nodes":[],"categories_segments":[],"categories_sizes":[],"default_left":[0,0,0,0,0,0,0,0,0,0,0,0,0,0,0,0,0,0,0,0,0,0,0,0,0,0,0,0,0],"id":7,"left_children":[1,3,5,7,9,11,13,15,17,19,21,23,-1,25,27,-1,-1,-1,-1,-1,-1,-1,-1,-1,-1,-1,-1,-1,-1],"loss_changes":[6.3037677E0,3.125164E0,9.680623E0,2.5160034E0,4.553459E0,1.0211897E0,4.7314954E0,2.1558805E0,1.1649972E0,5.0853267E0,1.6902637E-1,3.0883205E-1,0E0,2.7497044E0,3.6653883E0,0E0,0E0,0E0,0E0,0E0,0E0,0E0,0E0,0E0,0E0,0E0,0E0,0E0,0E0],"parents":[2147483647,0,0,1,1,2,2,3,3,4,4,5,5,6,6,7,7,8,8,9,9,10,10,11,11,13,13,14,14],"right_children":[2,4,6,8,10,12,14,16,18,20,22,24,-1,26,28,-1,-1,-1,-1,-1,-1,-1,-1,-1,-1,-1,-1,-1,-1],"split_conditions":[-8.9650846E-1,-4.4614413E-1,-1.8623464E0,-9.0775084E-1,-9.4526696E-1,-2.1354957E0,-1.7597799E0,-9.2192423E-1,-1.4009537E0,-9.661283E-1,-1.747066E-1,-2.205986E0,-3.0599823E-2,-8.7852067E-1,-9.592262E-1,-6.2459025E-5,1.4708834E-2,-2.0779163E-2,-2.4933397E-4,2.1437604E-2,-7.109559E-3,1.0525945E-2,2.9340459E-2,-1.4824886E-2,1.5004385E-3,-1.2106038E-2,3.2613564E-2,-5.818139E-3,7.848615E-4],"split_indices":[0,1,1,0,0,1,1,0,1,0,1,1,0,0,1,0,0,0,0,0,0,0,0,0,0,0,0,0,0],"split_type":[0,0,0,0,0,0,0,0,0,0,0,0,0,0,0,0,0,0,0,0,0,0,0,0,0,0,0,0,0],"sum_hessian":[6.39E2,7.9E1,5.6E2,4.4E1,3.5E1,1.6E1,5.44E2,3.5E1,9E0,2.1E1,1.4E1,8E0,8E0,6E0,5.38E2,2E1,1.5E1,4E0,5E0,9E0,1.2E1,2E0,1.2E1,7E0,1E0,1E0,5E0,9E1,4.48E2],"tree_param":{"num_deleted":"0","num_feature":"3","num_nodes":"29","size_leaf_vector":"1"}},{"base_weights":[-4.390056E-2,8.782291E-1,-1.0631943E-1,1.2443836E-1,1.4627419E0,-2.8010854E-2,-3.5912046E-1,6.123948E-1,-6.230511E-1,6.675606E-2,2.9702708E-2,-2.2377567E-1,9.616406E-2,-4.9645478E-1,-1.6636853E-1,1.32654635E-2,3.7271015E-2,-5.896576E-3,-2.1973755E-2,-1.9606706E-3,-3.3572048E-2,3.763784E-2,-1.2149703E-3,-1.06510045E-2,-6.7565665E-2,-1.4763245E-2,-1.4835319E-3],"categories":[],"categories_nodes":[],"categories_segments":[],"categories_sizes":[],"default_left":[0,0,0,0,0,0,0,0,0,0,0,0,0,0,0,0,0,0,0,0,0,0,0,0,0,0,0],"id":8,"left_children":[1,3,5,7,9,11,13,15,17,-1,-1,19,21,23,25,-1,-1,-1,-1,-1,-1,-1,-1,-1,-1,-1,-1],"loss_changes":[3.7218464E1,1.7882595E1,1.1966816E1,7.311657E0,6.0855446E0,1.1276623E1,3.7028236E0,7.373991E-1,2.293303E-1,0E0,0E0,2.5456665E1,4.5012184E1,1.9809149E1,2.2988286E0,0E0,0E0,0E0,0E0,0E0,0E0,0E0,0E0,0E0,0E0,0E0,0E0],"parents":[2147483647,0,0,1,1,2,2,3,3,4,4,5,5,6,6,7,7,8,8,11,11,12,12,13,13,14,14],"right_children":[2,4,6,8,10,12,14,16,18,-1,-1,20,22,24,26,-1,-1,-1,-1,-1,-1,-1,-1,-1,-1,-1,-1],"split_conditions":[-9.090474E-1,5.0453156E-1,7.402741E-1,-9.4273573E-1,1.0620033E0,-7.859379E-1,-5.9799564E-1,1.3861929E-1,-1.0626612E0,6.675606E-2,2.9702708E-2,-7.980841E-1,-6.8059605E-1,-6.51735E-1,8.898495E-1,1.32654635E-2,3.7271015E-2,-5.896576E-3,-2.1973755E-2,-1.9606706E-3,-3.3572048E-2,3.763784E-2,-1.2149703E-3,-1.06510045E-2,-6.7565665E-2,-1.4763245E-2,-1.4835319E-3],"split_indices":[2,1,1,2,1,2,2,1,1,0,0,2,2,2,1,0,0,0,0,0,0,0,0,0,0,0,0],"split_type":[0,0,0,0,0,0,0,0,0,0,0,0,0,0,0,0,0,0,0,0,0,0,0,0,0,0,0],"sum_hessian":[6.44E2,4E1,6.04E2,1.8E1,2.2E1,4.62E2,1.42E2,1.1E1,7E0,7E0,1.5E1,1.79E2,2.83E2,8.2E1,6E1,1E1,1E0,2E0,5E0,1.53E2,2.6E1,2.9E1,2.54E2,7.7E1,5E0,1.5E1,4.5E1],"tree_param":{"num_deleted":"0","num_feature":"3","num_nodes":"27","size_leaf_vector":"1"}},{"base_weights":[7.498052E-4,2.9748172E-1,-3.0564869E-2,1.5555008E-1,7.4129295E-1,-2.5376087E-1,2.4367824E-2,6.2061334E-1,-2.962871E-2,4.049283E-1,3.2035884E-2,-3.6820042E-1,7.878053E-1,1.819877E-1,-1.03123315E-1,-4.739393E-3,2.0779721E-2,-9.10472E-3,1.6301583E-2,1.4432512E-2,-3.0647323E-3,-2.067132E-2,-7.027434E-3,3.846862E-2,7.5425995E-3,3.2841198E-3,4.9729202E-2,1.5026381E-3,-1.2567803E-2],"categories":[],"categories_nodes":[],"categories_segments":[],"categories_sizes":[],"default_left":[0,0,0,0,0,0,0,0,0,0,0,0,0,0,0,0,0,0,0,0,0,0,0,0,0,0,0,0,0],"id":9,"left_children":[1,3,5,7,9,11,13,15,17,19,-1,21,23,25,27,-1,-1,-1,-1,-1,-1,-1,-1,-1,-1,-1,-1,-1,-1],"loss_changes":[6.132562E0,3.8531165E0,7.3258553E0,4.2382607E0,1.2152901E0,1.4355242E1,9.6644335E0,8.9472866E-1,5.814283E0,3.9670265E-1,0E0,4.4372215E0,2.8604016E0,2.2825676E1,1.2891297E1,0E0,0E0,0E0,0E0,0E0,0E0,0E0,0E0,0E0,0E0,0E0,0E0,0E0,0E0],"parents":[2147483647,0,0,1,1,2,2,3,3,4,4,5,5,6,6,7,7,8,8,9,9,11,11,12,12,13,13,14,14],"right_children":[2,4,6,8,10,12,14,16,18,20,-1,22,24,26,28,-1,-1,-1,-1,-1,-1,-1,-1,-1,-1,-1,-1,-1,-1],"split_conditions":[-9.131712E-1,-9.4526696E-1,-9.196873E-1,-9.860459E-1,-1.9054147E0,-2.5801092E-1,-6.0008657E-1,-2.1061375E0,2.353157E-1,-9.163031E-1,3.2035884E-2,-8.537473E-1,-1.5188439E0,-6.174153E-1,6.784307E-1,-4.739393E-3,2.0779721E-2,-9.10472E-3,1.6301583E-2,1.4432512E-2,-3.0647323E-3,-2.067132E-2,-7.027434E-3,3.846862E-2,7.5425995E-3,3.2841198E-3,4.9729202E-2,1.5026381E-3,-1.2567803E-2],"split_indices":[0,0,1,0,1,0,0,1,1,0,0,0,1,0,1,0,0,0,0,0,0,0,0,0,0,0,0,0,0],"split_type":[0,0,0,0,0,0,0,0,0,0,0,0,0,0,0,0,0,0,0,0,0,0,0,0,0,0,0,0,0],"sum_hessian":[6.58E2,6.2E1,5.96E2,4.8E1,1.4E1,1.17E2,4.79E2,1.3E1,3.5E1,8E0,6E0,1.06E2,1.1E1,2.14E2,2.65E2,1E0,1.2E1,2.4E1,1.1E1,7E0,1E0,3E1,7.6E1,5E0,6E0,2.05E2,9E0,1.79E2,8.6E1],"tree_param":{"num_deleted":"0","num_feature":"3","num_nodes":"29","size_leaf_vector":"1"}},{"base_weights":[2.7457427E-4,1.0006441E0,-6.951911E-2,1.684062E-1,1.6178057E0,-2.1986128E-1,1.2769103E-2,4.4750294E-1,-2.1076959E-2,1.1395262E0,7.295772E-2,-9.769975E-2,-1.0235107E0,8.5050064E-1,-1.1862895E-1,1.5586751E-2,-4.171416E-4,4.707331E-2,2.2876836E-2,-4.102143E-3,4.0285103E-2,-5.12861E-2,-1.9908706E-2,1.711098E-2,7.8297146E-2,-1.672591E-2,1.5822293E-3],"categories":[],"categories_nodes":[],"categories_segments":[],"categories_sizes":[],"default_left":[0,0,0,0,0,0,0,0,0,0,0,0,0,0,0,0,0,0,0,0,0,0,0,0,0,0,0],"id":10,"left_children":[1,3,5,7,9,11,13,15,-1,17,-1,19,21,23,25,-1,-1,-1,-1,-1,-1,-1,-1,-1,-1,-1,-1],"loss_changes":[4.4963486E1,2.1299812E1,7.450383E0,4.9330215E0,6.573784E0,2.0811293E1,4.3030647E1,5.0592804E-1,0E0,1.5564079E0,0E0,1.064355E1,5.7784863E0,2.4633522E1,2.5451908E1,0E0,0E0,0E0,0E0,0E0,0E0,0E0,0E0,0E0,0E0,0E0,0E0],"parents":[2147483647,0,0,1,1,2,2,3,3,4,4,5,5,6,6,7,7,9,9,11,11,12,12,13,13,14,14],"right_children":[2,4,6,8,10,12,14,16,-1,18,-1,20,22,24,26,-1,-1,-1,-1,-1,-1,-1,-1,-1,-1,-1,-1],"split_conditions":[-9.020256E-1,-9.545673E-1,-7.859379E-1,-9.365818E-1,-9.2753273E-1,-7.980841E-1,-6.999107E-1,-9.4273573E-1,-2.1076959E-2,-8.8795626E-1,7.295772E-2,-7.99093E-1,-8.2918566E-1,-6.174153E-1,-5.176015E-1,1.5586751E-2,-4.171416E-4,4.707331E-2,2.2876836E-2,-4.102143E-3,4.0285103E-2,-5.12861E-2,-1.9908706E-2,1.711098E-2,7.8297146E-2,-1.672591E-2,1.5822293E-3],"split_indices":[2,0,2,2,2,2,2,2,0,0,0,2,0,0,2,0,0,0,0,0,0,0,0,0,0,0,0],"split_type":[0,0,0,0,0,0,0,0,0,0,0,0,0,0,0,0,0,0,0,0,0,0,0,0,0,0,0],"sum_hessian":[6.42E2,4.1E1,6.01E2,1.8E1,2.3E1,2.12E2,3.89E2,1.4E1,4E0,1.6E1,7E0,1.85E2,2.7E1,5.2E1,3.37E2,1.2E1,2E0,6E0,1E1,1.81E2,4E0,8E0,1.9E1,4.6E1,6E0,9.4E1,2.43E2],"tree_param":{"num_deleted":"0","num_feature":"3","num_nodes":"27","size_leaf_vector":"1"}},{"base_weights":[3.0527161E-3,8.3277863E-1,-5.468396E-2,1.455947E-1,1.482109E0,3.1186502E-2,-3.0488396E-1,7.972737E-1,-5.785637E-1,6.452276E-2,2.2370126E-2,-1.9400644E-1,1.3617754E-1,-3.4762133E-2,-2.694068E-1,1.3167143E-2,4.212856E-2,-2.0812019E-3,-2.2825152E-2,-7.6082563E-3,3.746735E-2,9.731144E-3,-7.259537E-4,-1.1394374E-2,-3.9921384E-3],"categories":[],"categories_nodes":[],"categories_segments":[],"categories_sizes":[],"default_left":[0,0,0,0,0,0,0,0,0,0,0,0,0,0,0,0,0,0,0,0,0,0,0,0,0],"id":11,"left_children":[1,3,5,7,9,11,13,15,17,-1,-1,19,21,-1,23,-1,-1,-1,-1,-1,-1,-1,-1,-1,-1],"loss_changes":[3.1663246E1,1.8971214E1,1.3287108E1,1.0843488E1,9.2294655E0,1.0925952E1,4.4740143E0,1.994062E0,9.6815586E-1,0E0,0E0,1.2958881E1,9.515113E0,0E0,2.2524471E0,0E0,0E0,0E0,0E0,0E0,0E0,0E0,0E0,0E0,0E0],"parents":[2147483647,0,0,1,1,2,2,3,3,4,4,5,5,6,6,7,7,8,8,11,11,12,12,14,14],"right_children":[2,4,6,8,10,12,14,16,18,-1,-1,20,22,-1,24,-1,-1,-1,-1,-1,-1,-1,-1,-1,-1],"split_conditions":[-9.020256E-1,6.569278E-1,7.402741E-1,-9.4273573E-1,1.2524154E0,-9.592262E-1,-8.8088495E-1,1.3861929E-1,-1.0626612E0,6.452276E-2,2.2370126E-2,-1.2284298E-3,-6.124075E-1,-3.4762133E-2,-5.9799564E-1,1.3167143E-2,4.212856E-2,-2.0812019E-3,-2.2825152E-2,-7.6082563E-3,3.746735E-2,9.731144E-3,-7.259537E-4,-1.1394374E-2,-3.9921384E-3],"split_indices":[2,1,1,2,1,1,2,1,1,0,0,2,2,0,2,0,0,0,0,0,0,0,0,0,0],"split_type":[0,0,0,0,0,0,0,0,0,0,0,0,0,0,0,0,0,0,0,0,0,0,0,0,0],"sum_hessian":[6.59E2,4.2E1,6.17E2,2.1E1,2.1E1,4.6E2,1.57E2,1.1E1,1E1,1E1,1.1E1,1.46E2,3.14E2,5E0,1.52E2,8E0,3E0,3E0,7E0,1.41E2,5E0,1.44E2,1.7E2,8.3E1,6.9E1],"tree_param":{"num_deleted":"0","num_feature":"3","num_nodes":"25","size_leaf_vector":"1"}},{"base_weights":[1.9851957E-2,7.979603E-1,-3.9356686E-2,-1.788335E-2,1.3522071E0,3.3614613E-2,-2.7978733E-1,3.3841515E-1,-5.94633E-1,1.7826984E0,2.3831408E-2,-1.7118149E-1,1.1375807E-1,-3.5406622E-1,1.0635996E-1,1.2098493E-2,-3.6717442E-4,-3.5179874E-3,-1.9382278E-2,2.1199092E-2,6.3292615E-2,-6.2947073E-3,3.411428E-2,1.0121425E-2,-2.1365052E-3,-1.2013388E-2,1.3754166E-2,1.725346E-2,-1.49972085E-2],"categories":[],"categories_nodes":[],"categories_segments":[],"categories_sizes":[],"default_left":[0,0,0,0,0,0,0,0,0,0,0,0,0,0,0,0,0,0,0,0,0,0,0,0,0,0,0,0,0],"id":12,"left_children":[1,3,5,7,9,11,13,15,17,19,-1,21,23,25,27,-1,-1,-1,-1,-1,-1,-1,-1,-1,-1,-1,-1,-1,-1],"loss_changes":[3.0622374E1,2.1276588E1,1.0851929E1,4.3111334E0,5.30777E0,7.81568E0,4.1679516E0,3.00637E-1,1.206944E-1,3.7881508E0,0E0,7.0131555E0,1.4170721E1,4.7435465E0,7.1080866E0,0E0,0E0,0E0,0E0,0E0,0E0,0E0,0E0,0E0,0E0,0E0,0E0,0E0,0E0],"parents":[2147483647,0,0,1,1,2,2,3,3,4,4,5,5,6,6,7,7,8,8,9,9,11,11,12,12,13,13,14,14],"right_children":[2,4,6,8,10,12,14,16,18,20,-1,22,24,26,28,-1,-1,-1,-1,-1,-1,-1,-1,-1,-1,-1,-1,-1,-1],"split_conditions":[-9.020256E-1,1.3861929E-1,7.785836E-1,-9.365818E-1,1.2524154E0,-9.592262E-1,-1.3480465E-1,-9.4273573E-1,-1.0626612E0,5.0453156E-1,2.3831408E-2,-1.2284298E-3,-6.025554E-1,1.6507744E0,1.2054561E0,1.2098493E-2,-3.6717442E-4,-3.5179874E-3,-1.9382278E-2,2.1199092E-2,6.3292615E-2,-6.2947073E-3,3.411428E-2,1.0121425E-2,-2.1365052E-3,-1.2013388E-2,1.3754166E-2,1.725346E-2,-1.49972085E-2],"split_indices":[2,1,1,2,1,1,2,2,1,1,0,2,2,1,1,0,0,0,0,0,0,0,0,0,0,0,0,0,0],"split_type":[0,0,0,0,0,0,0,0,0,0,0,0,0,0,0,0,0,0,0,0,0,0,0,0,0,0,0,0,0],"sum_hessian":[6.63E2,4.6E1,6.17E2,1.9E1,2.7E1,4.74E2,1.43E2,1.2E1,7E0,1.4E1,1.3E1,1.33E2,3.41E2,1.2E2,2.3E1,1E1,2E0,1E0,6E0,4E0,1E1,1.3E2,3E0,1.54E2,1.87E2,1.14E2,6E0,1.3E1,1E1],"tree_param":{"num_deleted":"0","num_feature":"3","num_nodes":"29","size_leaf_vector":"1"}},{"base_weights":[-2.6362628E-2,2.5851598E-2,-3.4595754E-2,-2.6036653E-1,9.368187E-3,-3.1919384E-1,2.9400546E-2,1.0202823E-1,-1.6609183E-1,-5.2210366E-5,-1.3049937E-2,2.416103E-3,4.00533E-2,5.0276206E-3,-1.2679623E-2],"categories":[],"categories_nodes":[],"categories_segments":[],"categories_sizes":[],"default_left":[0,0,0,0,0,0,0,0,0,0,0,0,0,0,0],"id":13,"left_children":[1,-1,3,5,7,9,-1,11,13,-1,-1,-1,-1,-1,-1],"loss_changes":[4.775102E0,0E0,6.394637E0,7.9745064E0,8.796337E0,3.712247E0,0E0,9.273732E0,1.6079807E1,0E0,0E0,0E0,0E0,0E0,0E0],"parents":[2147483647,0,0,2,2,3,3,4,4,5,5,7,7,8,8],"right_children":[2,-1,4,6,8,10,-1,12,14,-1,-1,-1,-1,-1,-1],"split_conditions":[-9.9931866E-1,2.5851598E-2,-1.142586E0,-2.5801092E-1,-4.8576802E-1,-9.098388E-1,2.9400546E-2,-4.8977292E-1,7.828607E-2,-5.2210366E-5,-1.3049937E-2,2.416103E-3,4.00533E-2,5.0276206E-3,-1.2679623E-2],"split_indices":[0,0,1,0,0,0,0,0,1,0,0,0,0,0,0],"split_type":[0,0,0,0,0,0,0,0,0,0,0,0,0,0,0],"sum_hessian":[6.48E2,5E0,6.43E2,1.04E2,5.39E2,1E2,4E0,3.53E2,1.86E2,2.7E1,7.3E1,3.48E2,5E0,8.1E1,1.05E2],"tree_param":{"num_deleted":"0","num_feature":"3","num_nodes":"15","size_leaf_vector":"1"}},{"base_weights":[3.0783512E-2,8.1722456E-1,-1.8018354E-2,2.0476311E-1,1.3582016E0,-1.6957207E-1,7.795984E-2,6.843178E-1,-5.401643E-1,1.0109932E0,6.5928854E-2,-5.966184E-2,-8.505398E-1,8.721677E-1,-6.0836416E-2,3.4955774E-2,1.1836812E-2,-3.5878687E-4,-2.1427177E-2,4.560657E-2,2.1436991E-2,-3.6350244E-3,3.125042E-2,-5.1329114E-2,-2.0185823E-2,1.6415197E-2,9.206883E-2,-1.3731859E-2,3.7832272E-3],"categories":[],"categories_nodes":[],"categories_segments":[],"categories_sizes":[],"default_left":[0,0,0,0,0,0,0,0,0,0,0,0,0,0,0,0,0,0,0,0,0,0,0,0,0,0,0,0,0],"id":14,"left_children":[1,3,5,7,9,11,13,15,17,19,-1,21,23,25,27,-1,-1,-1,-1,-1,-1,-1,-1,-1,-1,-1,-1,-1,-1],"loss_changes":[2.4961588E1,1.2312342E1,8.929828E0,7.1570797E0,3.6073341E0,1.7762444E1,4.1500698E1,1.2123051E0,7.2703576E-1,1.3288727E0,0E0,1.4080407E1,3.8938122E0,3.8301697E1,2.3874838E1,0E0,0E0,0E0,0E0,0E0,0E0,0E0,0E0,0E0,0E0,0E0,0E0,0E0,0E0],"parents":[2147483647,0,0,1,1,2,2,3,3,4,4,5,5,6,6,7,7,8,8,9,9,11,11,12,12,13,13,14,14],"right_children":[2,4,6,8,10,12,14,16,18,20,-1,22,24,26,28,-1,-1,-1,-1,-1,-1,-1,-1,-1,-1,-1,-1,-1,-1],"split_conditions":[-9.090474E-1,-9.611796E-1,-7.859379E-1,-9.465748E-1,-9.2753273E-1,-7.980841E-1,-6.9054693E-1,-9.718046E-1,-9.925356E-1,-9.2192423E-1,6.5928854E-2,-8.0008906E-1,-8.7422556E-1,-6.174153E-1,-5.1080585E-1,3.4955774E-2,1.1836812E-2,-3.5878687E-4,-2.1427177E-2,4.560657E-2,2.1436991E-2,-3.6350244E-3,3.125042E-2,-5.1329114E-2,-2.0185823E-2,1.6415197E-2,9.206883E-2,-1.3731859E-2,3.7832272E-3],"split_indices":[2,0,2,2,2,2,2,2,0,0,0,2,0,0,2,0,0,0,0,0,0,0,0,0,0,0,0,0,0],"split_type":[0,0,0,0,0,0,0,0,0,0,0,0,0,0,0,0,0,0,0,0,0,0,0,0,0,0,0,0,0],"sum_hessian":[6.49E2,3.7E1,6.12E2,1.8E1,1.9E1,2.37E2,3.75E2,1.1E1,7E0,1.5E1,4E0,2.05E2,3.2E1,5.5E1,3.2E2,3E0,8E0,2E0,5E0,4E0,1.1E1,1.95E2,1E1,4E0,2.8E1,4.9E1,6E0,1.02E2,2.18E2],"tree_param":{"num_deleted":"0","num_feature":"3","num_nodes":"29","size_leaf_vector":"1"}},{"base_weights":[-1.651271E-2,7.320973E-1,-7.263094E-2,-4.21549E-2,1.2498268E0,2.2136139E-2,-3.2260558E-1,3.7086186E-1,-5.422693E-1,1.4889494E0,2.0832699E-2,-6.433535E-2,2.530252E-1,-4.376729E-1,-1.4776571E-1,1.2533154E-2,-1.4735671E-3,-5.704602E-3,-1.847127E-2,1.8935366E-2,5.310927E-2,1.8743818E-3,-9.242013E-3,5.598245E-2,4.066432E-3,-7.852242E-3,-3.812661E-2,3.1370423E-3,-7.7209994E-3],"categories":[],"categories_nodes":[],"categories_segments":[],"categories_sizes":[],"default_left":[0,0,0,0,0,0,0,0,0,0,0,0,0,0,0,0,0,0,0,0,0,0,0,0,0,0,0,0,0],"id":15,"left_children":[1,3,5,7,9,11,13,15,17,19,-1,21,23,25,27,-1,-1,-1,-1,-1,-1,-1,-1,-1,-1,-1,-1,-1,-1],"loss_changes":[2.7108044E1,1.809108E1,1.4220763E1,4.1256638E0,2.551899E0,8.721159E0,3.254856E0,2.3723471E-1,1.1565471E-1,3.2267723E0,0E0,9.84824E0,2.2297295E1,1.4179628E1,1.8798656E0,0E0,0E0,0E0,0E0,0E0,0E0,0E0,0E0,0E0,0E0,0E0,0E0,0E0,0E0],"parents":[2147483647,0,0,1,1,2,2,3,3,4,4,5,5,6,6,7,7,8,8,9,9,11,11,12,12,13,13,14,14],"right_children":[2,4,6,8,10,12,14,16,18,20,-1,22,24,26,28,-1,-1,-1,-1,-1,-1,-1,-1,-1,-1,-1,-1,-1,-1],"split_conditions":[-9.020256E-1,1.3861929E-1,6.844403E-1,-9.4273573E-1,1.5017778E0,-4.487306E-1,-5.5806476E-1,-7.225266E-2,-1.0626612E0,6.569278E-1,2.0832699E-2,-6.124075E-1,-4.2947948E-1,-6.8059605E-1,-3.6290494E-1,1.2533154E-2,-1.4735671E-3,-5.704602E-3,-1.847127E-2,1.8935366E-2,5.310927E-2,1.8743818E-3,-9.242013E-3,5.598245E-2,4.066432E-3,-7.852242E-3,-3.812661E-2,3.1370423E-3,-7.7209994E-3],"split_indices":[2,1,1,2,1,2,2,1,1,1,0,2,2,2,2,0,0,0,0,0,0,0,0,0,0,0,0,0,0],"split_type":[0,0,0,0,0,0,0,0,0,0,0,0,0,0,0,0,0,0,0,0,0,0,0,0,0,0,0,0,0],"sum_hessian":[6.43E2,4.4E1,5.99E2,1.8E1,2.6E1,4.35E2,1.64E2,1E1,8E0,1.7E1,9E0,3.17E2,1.18E2,9.8E1,6.6E1,9E0,1E0,2E0,6E0,5E0,1.2E1,2.09E2,1.08E2,7E0,1.11E2,8.2E1,1.6E1,2E1,4.6E1],"tree_param":{"num_deleted":"0","num_feature":"3","num_nodes":"29","size_leaf_vector":"1"}},{"base_weights":[1.3779832E-2,-1.8354101E-1,6.6711314E-2,-2.6851198E-1,7.097876E-1,1.7292285E-1,-1.5589511E-1,2.3546573E-2,-3.3824423E-1,8.4985465E-1,-1.2464249E-2,4.7236514E-1,1.3268903E-1,7.617428E-2,-5.2546835E-1,-1.0502762E-3,-1.2242956E-2,4.3395504E-2,1.6696168E-2,9.787392E-3,6.4972416E-2,8.714966E-4,7.0432015E-3,8.474369E-3,-2.839516E-3,-5.0052512E-2,-7.5481734E-3],"categories":[],"categories_nodes":[],"categories_segments":[],"categories_sizes":[],"default_left":[0,0,0,0,0,0,0,0,0,0,0,0,0,0,0,0,0,0,0,0,0,0,0,0,0,0,0],"id":16,"left_children":[1,3,5,7,9,11,13,-1,15,17,-1,19,21,23,25,-1,-1,-1,-1,-1,-1,-1,-1,-1,-1,-1,-1],"loss_changes":[6.665381E0,1.0438033E1,1.1919573E1,9.373998E0,2.24444E0,4.0455914E0,1.4019989E1,0E0,2.4640398E0,1.1200719E0,0E0,9.190825E0,3.1883202E0,3.5861745E0,1.9299904E1,0E0,0E0,0E0,0E0,0E0,0E0,0E0,0E0,0E0,0E0,0E0,0E0],"parents":[2147483647,0,0,1,1,2,2,3,3,4,4,5,5,6,6,8,8,9,9,11,11,12,12,13,13,14,14],"right_children":[2,4,6,8,10,12,14,-1,16,18,-1,20,22,24,26,-1,-1,-1,-1,-1,-1,-1,-1,-1,-1,-1,-1],"split_conditions":[-9.592262E-1,-2.7289936E-1,-4.6687225E-1,-9.9931866E-1,-1.9971155E-2,-6.827841E-1,6.784307E-1,2.3546573E-2,-9.098388E-1,-1.7597799E0,-1.2464249E-2,-5.0644934E-1,-7.7882504E-1,-2.5127882E-1,-3.335866E-1,-1.0502762E-3,-1.2242956E-2,4.3395504E-2,1.6696168E-2,9.787392E-3,6.4972416E-2,8.714966E-4,7.0432015E-3,8.474369E-3,-2.839516E-3,-5.0052512E-2,-7.5481734E-3],"split_indices":[1,0,0,0,0,1,1,0,0,1,0,0,0,0,0,0,0,0,0,0,0,0,0,0,0,0,0],"split_type":[0,0,0,0,0,0,0,0,0,0,0,0,0,0,0,0,0,0,0,0,0,0,0,0,0,0,0],"sum_hessian":[6.36E2,1.34E2,5.02E2,1.23E2,1.1E1,3.4E2,1.62E2,7E0,1.16E2,1E1,1E0,3.9E1,3.01E2,1E2,6.2E1,2.2E1,9.4E1,2E0,8E0,3.7E1,2E0,1.5E2,1.51E2,4.5E1,5.5E1,1.1E1,5.1E1],"tree_param":{"num_deleted":"0","num_feature":"3","num_nodes":"27","size_leaf_vector":"1"}},{"base_weights":[1.22819245E-2,8.13712E-1,-4.2828295E-2,9.2272155E-2,1.3509471E0,-1.8300816E-1,4.3463893E-2,6.3296247E-1,-5.7882404E-1,9.57974E-1,6.505372E-2,-5.766732E-2,-9.978851E-1,8.5191435E-1,-9.058454E-2,3.1475373E-2,1.2716833E-2,-3.0787284E-3,-1.8765628E-2,4.3421514E-2,2.1442741E-2,2.0705373E-3,-1.3716882E-2,-4.1883692E-2,-2.0186586E-2,1.6279373E-2,7.6871336E-2,-1.514578E-2,2.535756E-3],"categories":[],"categories_nodes":[],"categories_segments":[],"categories_sizes":[],"default_left":[0,0,0,0,0,0,0,0,0,0,0,0,0,0,0,0,0,0,0,0,0,0,0,0,0,0,0,0,0],"id":17,"left_children":[1,3,5,7,9,11,13,15,17,19,-1,21,23,25,27,-1,-1,-1,-1,-1,-1,-1,-1,-1,-1,-1,-1,-1,-1],"loss_changes":[2.8831726E1,1.6153828E1,7.398871E0,7.260623E0,5.632904E0,2.374046E1,4.1149975E1,5.124521E-1,1.3594007E-1,1.1080513E0,0E0,1.0307136E1,3.0728035E0,2.7175137E1,2.3691874E1,0E0,0E0,0E0,0E0,0E0,0E0,0E0,0E0,0E0,0E0,0E0,0E0,0E0,0E0],"parents":[2147483647,0,0,1,1,2,2,3,3,4,4,5,5,6,6,7,7,8,8,9,9,11,11,12,12,13,13,14,14],"right_children":[2,4,6,8,10,12,14,16,18,20,-1,22,24,26,28,-1,-1,-1,-1,-1,-1,-1,-1,-1,-1,-1,-1,-1,-1],"split_conditions":[-9.020256E-1,-9.545673E-1,-7.859379E-1,-9.365818E-1,-9.2753273E-1,-7.961109E-1,-6.999107E-1,-9.718046E-1,-9.860459E-1,-9.2192423E-1,6.505372E-2,-8.3434767E-1,-8.2918566E-1,-6.174153E-1,-5.1080585E-1,3.1475373E-2,1.2716833E-2,-3.0787284E-3,-1.8765628E-2,4.3421514E-2,2.1442741E-2,2.0705373E-3,-1.3716882E-2,-4.1883692E-2,-2.0186586E-2,1.6279373E-2,7.6871336E-2,-1.514578E-2,2.535756E-3],"split_indices":[2,0,2,2,2,2,2,2,0,0,0,0,0,0,2,0,0,0,0,0,0,0,0,0,0,0,0,0,0],"split_type":[0,0,0,0,0,0,0,0,0,0,0,0,0,0,0,0,0,0,0,0,0,0,0,0,0,0,0,0,0],"sum_hessian":[6.51E2,4.1E1,6.1E2,1.8E1,2.3E1,2.32E2,3.78E2,1E1,8E0,1.7E1,6E0,2.02E2,3E1,5.3E1,3.25E2,2E0,8E0,1E0,7E0,4E0,1.3E1,1.54E2,4.8E1,1.2E1,1.8E1,4.6E1,7E0,9.6E1,2.29E2],"tree_param":{"num_deleted":"0","num_feature":"3","num_nodes":"29","size_leaf_vector":"1"}},{"base_weights":[1.6408479E-2,-1.2615852E-1,6.0767848E-2,-2.1487176E-1,7.220708E-1,1.3071159E-1,-1.10196136E-1,2.0977281E-1,-3.453584E-1,1.0010737E0,2.6019984E-1,5.474363E-1,9.7583026E-2,-1.7279214E0,-4.0575232E-2,9.8440945E-3,-8.8094855E-3,-2.7894894E-2,-8.307859E-3,3.167229E-2,8.455777E-3,1.19659435E-2,-1.7292523E-3,1.0764883E-2,4.4852003E-2,2.434464E-3,2.9227355E-2,3.6414232E-2,-7.677086E-2,4.8601725E-3,-3.8446528E-3],"categories":[],"categories_nodes":[],"categories_segments":[],"categories_sizes":[],"default_left":[0,0,0,0,0,0,0,0,0,0,0,0,0,0,0,0,0,0,0,0,0,0,0,0,0,0,0,0,0,0,0],"id":18,"left_children":[1,3,5,7,9,11,13,15,17,19,21,23,25,27,29,-1,-1,-1,-1,-1,-1,-1,-1,-1,-1,-1,-1,-1,-1,-1,-1],"loss_changes":[4.15633E0,1.1894025E1,6.005293E0,7.94073E0,1.6724706E0,4.861335E0,1.6373503E1,2.1223125E0,4.101985E0,5.6300163E-2,3.3150572E-1,4.110496E0,4.689745E0,1.7775528E1,2.522386E0,0E0,0E0,0E0,0E0,0E0,0E0,0E0,0E0,0E0,0E0,0E0,0E0,0E0,0E0,0E0,0E0],"parents":[2147483647,0,0,1,1,2,2,3,3,4,4,5,5,6,6,7,7,8,8,9,9,10,10,11,11,12,12,13,13,14,14],"right_children":[2,4,6,8,10,12,14,16,18,20,22,24,26,28,30,-1,-1,-1,-1,-1,-1,-1,-1,-1,-1,-1,-1,-1,-1,-1,-1],"split_conditions":[-9.196873E-1,-2.7289936E-1,-4.227522E-1,-9.098388E-1,-1.1236081E0,-7.002195E-1,-3.335866E-1,-1.4294634E0,-8.8675165E-1,-7.3709716E-3,-2.3086171E-1,-5.1335466E-1,-4.4933414E-1,4.3384925E-1,-2.2483878E-1,9.8440945E-3,-8.8094855E-3,-2.7894894E-2,-8.307859E-3,3.167229E-2,8.455777E-3,1.19659435E-2,-1.7292523E-3,1.0764883E-2,4.4852003E-2,2.434464E-3,2.9227355E-2,3.6414232E-2,-7.677086E-2,4.8601725E-3,-3.8446528E-3],"split_indices":[1,0,0,0,1,1,0,1,0,0,0,0,0,1,0,0,0,0,0,0,0,0,0,0,0,0,0,0,0,0,0],"split_type":[0,0,0,0,0,0,0,0,0,0,0,0,0,0,0,0,0,0,0,0,0,0,0,0,0,0,0,0,0,0,0],"sum_hessian":[6.55E2,1.55E2,5E2,1.41E2,1.4E1,3.55E2,1.45E2,3.3E1,1.08E2,8E0,6E0,2.5E1,3.3E2,5E0,1.4E2,2.7E1,6E0,1E1,9.8E1,7E0,1E0,4E0,2E0,2.2E1,3E0,3.25E2,5E0,1E0,4E0,4.2E1,9.8E1],"tree_param":{"num_deleted":"0","num_feature":"3","num_nodes":"31","size_leaf_vector":"1"}},{"base_weights":[-5.8594462E-3,8.629705E-1,-6.1216485E-2,9.97831E-2,1.1984692E0,4.5189774E-3,-3.364524E-1,3.0492556E-1,-1.9037071E-1,1.3931847E0,1.9627199E-2,-1.6920583E-1,8.3471544E-2,-4.977115E-1,-1.07185766E-1,1.4055574E-2,7.2606583E-4,-6.677321E-4,-8.065882E-3,1.8966788E-2,5.0872903E-2,-6.109058E-3,2.7132148E-2,7.060949E-3,-1.286274E-3,-8.883074E-3,-7.695768E-2,-1.8468795E-2,-1.4877102E-3],"categories":[],"categories_nodes":[],"categories_segments":[],"categories_sizes":[],"default_left":[0,0,0,0,0,0,0,0,0,0,0,0,0,0,0,0,0,0,0,0,0,0,0,0,0,0,0,0,0],"id":19,"left_children":[1,3,5,7,9,11,13,15,17,19,-1,21,23,25,27,-1,-1,-1,-1,-1,-1,-1,-1,-1,-1,-1,-1,-1,-1],"loss_changes":[3.1315132E1,9.866297E0,1.107429E1,8.318462E-1,1.949707E0,6.803553E0,4.30927E0,3.560571E-1,7.31889E-2,3.302639E0,0E0,5.9135633E0,6.554336E0,2.8002089E1,1.4336638E0,0E0,0E0,0E0,0E0,0E0,0E0,0E0,0E0,0E0,0E0,0E0,0E0,0E0,0E0],"parents":[2147483647,0,0,1,1,2,2,3,3,4,4,5,5,6,6,7,7,8,8,9,9,11,11,12,12,13,13,14,14],"right_children":[2,4,6,8,10,12,14,16,18,20,-1,22,24,26,28,-1,-1,-1,-1,-1,-1,-1,-1,-1,-1,-1,-1,-1,-1],"split_conditions":[-9.020256E-1,1.3861929E-1,8.643984E-1,-9.4273573E-1,1.5017778E0,-9.196873E-1,-5.9799564E-1,-1.0963717E0,-1.4798247E0,6.569278E-1,1.9627199E-2,-1.2284298E-3,-6.124075E-1,-6.578552E-1,8.898495E-1,1.4055574E-2,7.2606583E-4,-6.677321E-4,-8.065882E-3,1.8966788E-2,5.0872903E-2,-6.109058E-3,2.7132148E-2,7.060949E-3,-1.286274E-3,-8.883074E-3,-7.695768E-2,-1.8468795E-2,-1.4877102E-3],"split_indices":[2,1,1,2,1,1,2,1,1,1,0,2,2,2,1,0,0,0,0,0,0,0,0,0,0,0,0,0,0],"split_type":[0,0,0,0,0,0,0,0,0,0,0,0,0,0,0,0,0,0,0,0,0,0,0,0,0,0,0,0,0],"sum_hessian":[6.49E2,3.8E1,6.11E2,1.2E1,2.6E1,4.94E2,1.17E2,7E0,5E0,1.8E1,8E0,1.54E2,3.4E2,6.8E1,4.9E1,4E0,3E0,2E0,3E0,6E0,1.2E1,1.5E2,4E0,1.54E2,1.86E2,6.3E1,5E0,4E0,4.5E1],"tree_param":{"num_deleted":"0","num_feature":"3","num_nodes":"29","size_leaf_vector":"1"}},{"base_weights":[1.2196111E-2,6.7661315E-1,-3.6711156E-2,8.7717045E-3,1.096781E0,5.1483996E-2,-2.913224E-1,3.9457905E-1,-5.2280986E-1,1.3288157E0,1.915424E-2,3.4629516E-2,1.2788987E0,-4.3781066E-1,-8.937123E-2,1.3361648E-2,-1.7026963E-3,-5.5888956E-3,-1.8117946E-2,1.8479073E-2,4.984932E-2,-1.1395542E-3,6.599583E-3,6.573862E-2,8.2464805E-3,-8.1765335E-3,-5.148318E-2,3.3653704E-3,-5.780876E-3],"categories":[],"categories_nodes":[],"categories_segments":[],"categories_sizes":[],"default_left":[0,0,0,0,0,0,0,0,0,0,0,0,0,0,0,0,0,0,0,0,0,0,0,0,0,0,0,0,0],"id":20,"left_children":[1,3,5,7,9,11,13,15,17,19,-1,21,23,25,27,-1,-1,-1,-1,-1,-1,-1,-1,-1,-1,-1,-1,-1,-1],"loss_changes":[2.085402E1,1.2337021E1,1.3443374E1,3.897875E0,2.0228462E0,9.161623E0,4.5167284E0,2.775308E-1,1.0587788E-1,3.009821E0,0E0,5.9305825E0,4.8939705E0,1.833357E1,1.3960736E0,0E0,0E0,0E0,0E0,0E0,0E0,0E0,0E0,0E0,0E0,0E0,0E0,0E0,0E0],"parents":[2147483647,0,0,1,1,2,2,3,3,4,4,5,5,6,6,7,7,8,8,9,9,11,11,12,12,13,13,14,14],"right_children":[2,4,6,8,10,12,14,16,18,20,-1,22,24,26,28,-1,-1,-1,-1,-1,-1,-1,-1,-1,-1,-1,-1,-1,-1],"split_conditions":[-9.020256E-1,1.3861929E-1,6.844403E-1,-9.4273573E-1,1.5017778E0,6.6612786E-1,-5.6379807E-1,-7.225266E-2,-1.0626612E0,6.569278E-1,1.915424E-2,-4.487306E-1,-7.071514E-1,-6.51735E-1,-3.6290494E-1,1.3361648E-2,-1.7026963E-3,-5.5888956E-3,-1.8117946E-2,1.8479073E-2,4.984932E-2,-1.1395542E-3,6.599583E-3,6.573862E-2,8.2464805E-3,-8.1765335E-3,-5.148318E-2,3.3653704E-3,-5.780876E-3],"split_indices":[2,1,1,2,1,1,2,1,1,1,0,2,2,2,2,0,0,0,0,0,0,0,0,0,0,0,0,0,0],"split_type":[0,0,0,0,0,0,0,0,0,0,0,0,0,0,0,0,0,0,0,0,0,0,0,0,0,0,0,0,0],"sum_hessian":[6.4E2,4.3E1,5.97E2,1.7E1,2.6E1,4.44E2,1.53E2,1E1,7E0,1.6E1,1E1,4.39E2,5E0,8.8E1,6.5E1,9E0,1E0,2E0,5E0,6E0,1E1,3.16E2,1.23E2,2E0,3E0,7.9E1,9E0,2.2E1,4.3E1],"tree_param":{"num_deleted":"0","num_feature":"3","num_nodes":"29","size_leaf_vector":"1"}},{"base_weights":[1.91838E-2,6.40039E-2,-1.13114856E-1,4.7029458E-2,1.6094568E0,1.8347678E-1,-3.302415E-1,1.9313557E-2,4.7296658E-1,5.806902E-2,4.571223E-3,-1.3698931E-1,4.6323895E-1,-4.5929424E-2,-2.9988906E-1,1.5058288E-3,-1.6754176E-2,3.7891194E-2,-5.9558484E-3,1.40314475E-2,-1.4280338E-2,-2.1109714E-3,1.9311398E-2,-6.6284356E-3,-1.9535486E-2],"categories":[],"categories_nodes":[],"categories_segments":[],"categories_sizes":[],"default_left":[0,0,0,0,0,0,0,0,0,0,0,0,0,0,0,0,0,0,0,0,0,0,0,0,0],"id":21,"left_children":[1,3,5,7,9,11,13,15,17,-1,-1,19,21,-1,23,-1,-1,-1,-1,-1,-1,-1,-1,-1,-1],"loss_changes":[3.6776862E0,1.207028E1,1.017107E1,5.4094667E0,2.0813942E0,6.070297E0,2.8574038E0,7.7359753E0,1.5105593E1,0E0,0E0,6.7828946E0,3.5121655E0,0E0,2.351963E0,0E0,0E0,0E0,0E0,0E0,0E0,0E0,0E0,0E0,0E0],"parents":[2147483647,0,0,1,1,2,2,3,3,4,4,5,5,6,6,7,7,8,8,11,11,12,12,14,14],"right_children":[2,4,6,8,10,12,14,16,18,-1,-1,20,22,-1,24,-1,-1,-1,-1,-1,-1,-1,-1,-1,-1],"split_conditions":[6.844403E-1,6.6612786E-1,-7.001781E-1,-1.674419E-1,-2.7289936E-1,-8.272074E-1,7.094133E-1,-2.1568033E-1,-7.3709716E-3,5.806902E-2,4.571223E-3,-8.60854E-1,8.58514E-1,-4.5929424E-2,1.3957903E0,1.5058288E-3,-1.6754176E-2,3.7891194E-2,-5.9558484E-3,1.40314475E-2,-1.4280338E-2,-2.1109714E-3,1.9311398E-2,-6.6284356E-3,-1.9535486E-2],"split_indices":[1,1,0,0,0,0,1,0,0,0,0,0,1,0,1,0,0,0,0,0,0,0,0,0,0],"split_type":[0,0,0,0,0,0,0,0,0,0,0,0,0,0,0,0,0,0,0,0,0,0,0,0,0],"sum_hessian":[6.18E2,4.62E2,1.56E2,4.58E2,4E0,6.6E1,9E1,4.31E2,2.7E1,3E0,1E0,3.1E1,3.5E1,1E0,8.9E1,4.1E2,2.1E1,1.2E1,1.5E1,1.1E1,2E1,9E0,2.6E1,7.4E1,1.5E1],"tree_param":{"num_deleted":"0","num_feature":"3","num_nodes":"25","size_leaf_vector":"1"}},{"base_weights":[-6.5406845E-3,6.113048E-1,-5.073363E-2,-4.0598612E-2,1.208286E0,-8.056411E-2,2.954831E-1,4.0860182E-1,-6.204993E-1,7.978507E-1,6.097336E-2,-5.000266E-2,-4.7142562E-1,3.7754178E-2,-8.722072E-2,1.46429865E-2,-5.727163E-4,-2.7181709E-3,-2.0079272E-2,3.2306198E-2,1.7755555E-2,-3.248767E-3,8.029366E-3,-2.2374138E-2,-1.1128505E-2,-1.3760768E-2,3.5288173E-3],"categories":[],"categories_nodes":[],"categories_segments":[],"categories_sizes":[],"default_left":[0,0,0,0,0,0,0,0,0,0,0,0,0,0,0,0,0,0,0,0,0,0,0,0,0,0,0],"id":22,"left_children":[1,3,5,7,9,11,13,15,17,19,-1,21,23,-1,25,-1,-1,-1,-1,-1,-1,-1,-1,-1,-1,-1,-1],"loss_changes":[1.7997316E1,1.7172718E1,6.3754106E0,5.984354E0,6.158489E0,6.7494106E0,1.8168217E1,4.513259E-1,1.9799685E-1,3.397827E-1,0E0,9.786694E0,8.536463E-1,0E0,2.793382E0,0E0,0E0,0E0,0E0,0E0,0E0,0E0,0E0,0E0,0E0,0E0,0E0],"parents":[2147483647,0,0,1,1,2,2,3,3,4,4,5,5,6,6,7,7,8,8,9,9,11,11,12,12,14,14],"right_children":[2,4,6,8,10,12,14,16,18,20,-1,22,24,-1,26,-1,-1,-1,-1,-1,-1,-1,-1,-1,-1,-1,-1],"split_conditions":[-9.020256E-1,-9.545673E-1,-1.3480465E-1,-9.365818E-1,-9.2753273E-1,-2.0403211E-1,-7.3709716E-3,-9.4273573E-1,-9.860459E-1,-8.8795626E-1,6.097336E-2,-4.446832E-1,-2.1754003E-1,3.7754178E-2,-1.5486458E-2,1.46429865E-2,-5.727163E-4,-2.7181709E-3,-2.0079272E-2,3.2306198E-2,1.7755555E-2,-3.248767E-3,8.029366E-3,-2.2374138E-2,-1.1128505E-2,-1.3760768E-2,3.5288173E-3],"split_indices":[2,0,2,2,2,0,0,2,0,0,0,2,2,0,2,0,0,0,0,0,0,0,0,0,0,0,0],"split_type":[0,0,0,0,0,0,0,0,0,0,0,0,0,0,0,0,0,0,0,0,0,0,0,0,0,0,0],"sum_hessian":[6.57E2,4.3E1,6.14E2,2.1E1,2.2E1,5.66E2,4.8E1,1.2E1,9E0,1.6E1,6E0,5.26E2,4E1,1.3E1,3.5E1,1E1,2E0,1E0,8E0,5E0,1.1E1,4.45E2,8.1E1,9E0,3.1E1,1.2E1,2.3E1],"tree_param":{"num_deleted":"0","num_feature":"3","num_nodes":"27","size_leaf_vector":"1"}},{"base_weights":[1.0277703E-2,7.000175E-1,-3.4454662E-2,-3.6979347E-2,1.0982842E0,2.7143948E-2,-2.3882449E-1,2.904333E-1,-4.526557E-1,1.4340005E0,1.7613456E-2,-5.363648E-3,5.0951874E-1,-3.299135E-2,-1.99664E-1,1.0281971E-2,-1.9193881E-3,-2.6773985E-3,-1.4950482E-2,1.6845264E-2,4.815993E-2,3.9818604E-3,-4.8777433E-3,3.2605387E-2,7.505381E-3,-9.103689E-3,-2.4551456E-3],"categories":[],"categories_nodes":[],"categories_segments":[],"categories_sizes":[],"default_left":[0,0,0,0,0,0,0,0,0,0,0,0,0,0,0,0,0,0,0,0,0,0,0,0,0,0,0],"id":23,"left_children":[1,3,5,7,9,11,13,15,17,19,-1,21,23,-1,25,-1,-1,-1,-1,-1,-1,-1,-1,-1,-1,-1,-1],"loss_changes":[2.0264143E1,1.1781467E1,7.7738323E0,2.1729317E0,3.6198807E0,7.451134E0,4.6013536E0,1.8874699E-1,7.176268E-2,1.3408604E0,0E0,9.705112E0,4.219806E0,0E0,1.6628246E0,0E0,0E0,0E0,0E0,0E0,0E0,0E0,0E0,0E0,0E0,0E0,0E0],"parents":[2147483647,0,0,1,1,2,2,3,3,4,4,5,5,6,6,7,7,8,8,9,9,11,11,12,12,14,14],"right_children":[2,4,6,8,10,12,14,16,18,20,-1,22,24,-1,26,-1,-1,-1,-1,-1,-1,-1,-1,-1,-1,-1,-1],"split_conditions":[-9.020256E-1,1.3861929E-1,7.785836E-1,-9.4273573E-1,1.5017778E0,-1.466985E-1,-8.8088495E-1,-7.225266E-2,-1.0626612E0,5.0453156E-1,1.7613456E-2,-6.124075E-1,-9.713701E-2,-3.299135E-2,-6.069915E-1,1.0281971E-2,-1.9193881E-3,-2.6773985E-3,-1.4950482E-2,1.6845264E-2,4.815993E-2,3.9818604E-3,-4.8777433E-3,3.2605387E-2,7.505381E-3,-9.103689E-3,-2.4551456E-3],"split_indices":[2,1,1,2,1,2,2,1,1,1,0,2,2,0,2,0,0,0,0,0,0,0,0,0,0,0,0],"split_type":[0,0,0,0,0,0,0,0,0,0,0,0,0,0,0,0,0,0,0,0,0,0,0,0,0,0,0],"sum_hessian":[6.55E2,3.9E1,6.16E2,1.4E1,2.5E1,4.74E2,1.42E2,8E0,6E0,1.4E1,1.1E1,4.45E2,2.9E1,5E0,1.37E2,7E0,1E0,1E0,5E0,3E0,1.1E1,2.37E2,2.08E2,8E0,2.1E1,7.2E1,6.5E1],"tree_param":{"num_deleted":"0","num_feature":"3","num_nodes":"27","size_leaf_vector":"1"}},{"base_weights":[2.2238107E-2,5.9195596E-1,-1.3286805E-2,-9.938686E-2,9.7057444E-1,5.8492202E-2,-2.1519512E-1,3.0776688E-1,-4.4322303E-1,1.2253361E0,1.6742947E-2,-1.5392253E-1,1.4835575E-1,-2.8133428E-1,2.4861789E-1,1.140204E-2,-1.8905973E-3,-5.4207775E-3,-1.5018532E-2,1.7661707E-2,4.263326E-2,-8.3906045E-3,8.941955E-3,1.1518368E-2,-1.0269819E-3,-4.6318926E-2,-7.820926E-3,3.3146694E-2,-1.0351714E-3],"categories":[],"categories_nodes":[],"categories_segments":[],"categories_sizes":[],"default_left":[0,0,0,0,0,0,0,0,0,0,0,0,0,0,0,0,0,0,0,0,0,0,0,0,0,0,0,0,0],"id":24,"left_children":[1,3,5,7,9,11,13,15,17,19,-1,21,23,25,27,-1,-1,-1,-1,-1,-1,-1,-1,-1,-1,-1,-1,-1,-1],"loss_changes":[1.2758546E1,9.781404E0,8.621298E0,2.096328E0,1.8381367E0,8.402618E0,4.8554325E0,2.1160996E-1,3.0084968E-2,9.081974E-1,0E0,7.5299177E0,1.3305085E1,3.1672392E0,4.886741E0,0E0,0E0,0E0,0E0,0E0,0E0,0E0,0E0,0E0,0E0,0E0,0E0,0E0,0E0],"parents":[2147483647,0,0,1,1,2,2,3,3,4,4,5,5,6,6,7,7,8,8,9,9,11,11,12,12,13,13,14,14],"right_children":[2,4,6,8,10,12,14,16,18,20,-1,22,24,26,28,-1,-1,-1,-1,-1,-1,-1,-1,-1,-1,-1,-1,-1,-1],"split_conditions":[-9.090474E-1,1.3861929E-1,6.784307E-1,-9.4273573E-1,1.5017778E0,-9.592262E-1,-1.3480465E-1,-7.225266E-2,-1.0626612E0,5.0453156E-1,1.6742947E-2,-4.9764803E-1,-6.124075E-1,6.844403E-1,-9.713701E-2,1.140204E-2,-1.8905973E-3,-5.4207775E-3,-1.5018532E-2,1.7661707E-2,4.263326E-2,-8.3906045E-3,8.941955E-3,1.1518368E-2,-1.0269819E-3,-4.6318926E-2,-7.820926E-3,3.3146694E-2,-1.0351714E-3],"split_indices":[2,1,1,2,1,1,2,1,1,1,0,2,2,1,2,0,0,0,0,0,0,0,0,0,0,0,0,0,0],"split_type":[0,0,0,0,0,0,0,0,0,0,0,0,0,0,0,0,0,0,0,0,0,0,0,0,0,0,0,0,0],"sum_hessian":[6.29E2,3.6E1,5.93E2,1.3E1,2.3E1,4.38E2,1.55E2,6E0,7E0,1.3E1,1E1,1.3E2,3.08E2,1.36E2,1.9E1,5E0,1E0,2E0,5E0,4E0,9E0,1.02E2,2.8E1,1.34E2,1.74E2,1E0,1.35E2,4E0,1.5E1],"tree_param":{"num_deleted":"0","num_feature":"3","num_nodes":"29","size_leaf_vector":"1"}},{"base_weights":[4.1491717E-2,6.1973184E-1,4.4542444E-3,9.675606E-2,1.111721E0,-1.3457212E-1,8.836923E-2,3.930283E-1,-6.600505E-1,7.1481806E-1,5.240129E-2,-7.509102E-3,-9.499925E-1,8.884792E-1,-3.2395426E-2,9.087771E-3,1.95739E-2,-5.649729E-3,-2.1501925E-2,2.7834509E-2,1.6105104E-2,-1.510438E-3,3.5424337E-2,-3.3155665E-2,-1.0969633E-2,4.2367525E-2,6.366434E-3,-9.339019E-3,2.6749242E-3],"categories":[],"categories_nodes":[],"categories_segments":[],"categories_sizes":[],"default_left":[0,0,0,0,0,0,0,0,0,0,0,0,0,0,0,0,0,0,0,0,0,0,0,0,0,0,0,0,0],"id":25,"left_children":[1,3,5,7,9,11,13,15,17,19,-1,21,23,25,27,-1,-1,-1,-1,-1,-1,-1,-1,-1,-1,-1,-1,-1,-1],"loss_changes":[1.3875166E1,9.927073E0,7.128393E0,4.7438335E0,3.7919998E0,2.3823114E1,3.684291E1,1.5298867E-1,2.5447845E-2,3.2650948E-2,0E0,1.0240704E1,2.4071846E0,1.741072E1,1.1283751E1,0E0,0E0,0E0,0E0,0E0,0E0,0E0,0E0,0E0,0E0,0E0,0E0,0E0,0E0],"parents":[2147483647,0,0,1,1,2,2,3,3,4,4,5,5,6,6,7,7,8,8,9,9,11,11,12,12,13,13,14,14],"right_children":[2,4,6,8,10,12,14,16,18,20,-1,22,24,26,28,-1,-1,-1,-1,-1,-1,-1,-1,-1,-1,-1,-1,-1,-1],"split_conditions":[-9.020256E-1,6.569278E-1,-7.859379E-1,-9.365818E-1,-9.2753273E-1,-7.980841E-1,-6.999107E-1,1.3861929E-1,-4.4614413E-1,1.4887121E0,5.240129E-2,-7.99093E-1,5.590514E-1,6.844403E-1,-5.1080585E-1,9.087771E-3,1.95739E-2,-5.649729E-3,-2.1501925E-2,2.7834509E-2,1.6105104E-2,-1.510438E-3,3.5424337E-2,-3.3155665E-2,-1.0969633E-2,4.2367525E-2,6.366434E-3,-9.339019E-3,2.6749242E-3],"split_indices":[2,1,2,2,2,2,2,1,1,1,0,2,1,1,2,0,0,0,0,0,0,0,0,0,0,0,0,0,0],"split_type":[0,0,0,0,0,0,0,0,0,0,0,0,0,0,0,0,0,0,0,0,0,0,0,0,0,0,0,0,0],"sum_hessian":[6.47E2,3.8E1,6.09E2,1.9E1,1.9E1,2.29E2,3.8E2,1.4E1,5E0,1.3E1,6E0,1.99E2,3E1,4.9E1,3.31E2,1.2E1,2E0,1E0,4E0,4E0,9E0,1.93E2,6E0,2.3E1,7E0,2.7E1,2.2E1,1E2,2.31E2],"tree_param":{"num_deleted":"0","num_feature":"3","num_nodes":"29","size_leaf_vector":"1"}},{"base_weights":[1.9723205E-3,5.0127584E-1,-3.4769032E-2,-3.5701208E-2,9.108065E-1,3.241214E-2,-2.1888007E-1,2.3437591E-1,-4.7011387E-1,1.0875489E0,1.6108142E-2,-1.7611755E-1,1.2362314E-1,-5.837403E-1,-1.5955773E-1,8.46816E-3,-5.810538E-4,-2.47118E-3,-1.5412139E-2,1.6422883E-2,4.070632E-2,-6.750789E-3,3.392201E-2,1.0427313E-2,-1.1812521E-3,-8.879312E-3,-2.6983751E-2,1.8610463E-3,-7.6843374E-3],"categories":[],"categories_nodes":[],"categories_segments":[],"categories_sizes":[],"default_left":[0,0,0,0,0,0,0,0,0,0,0,0,0,0,0,0,0,0,0,0,0,0,0,0,0,0,0,0,0],"id":26,"left_children":[1,3,5,7,9,11,13,15,17,19,-1,21,23,25,27,-1,-1,-1,-1,-1,-1,-1,-1,-1,-1,-1,-1,-1,-1],"loss_changes":[1.1776629E1,9.708492E0,7.403633E0,2.456682E0,1.0680141E0,8.37164E0,3.369957E0,1.6346097E-1,9.300101E-2,1.5847187E0,0E0,8.819252E0,1.1183937E1,1.7325273E0,2.9908984E0,0E0,0E0,0E0,0E0,0E0,0E0,0E0,0E0,0E0,0E0,0E0,0E0,0E0,0E0],"parents":[2147483647,0,0,1,1,2,2,3,3,4,4,5,5,6,6,7,7,8,8,9,9,11,11,12,12,13,13,14,14],"right_children":[2,4,6,8,10,12,14,16,18,20,-1,22,24,26,28,-1,-1,-1,-1,-1,-1,-1,-1,-1,-1,-1,-1,-1,-1],"split_conditions":[-9.020256E-1,1.3861929E-1,6.844403E-1,-9.365818E-1,1.5017778E0,-9.4191736E-1,-8.734678E-1,-9.4273573E-1,-1.0626612E0,6.569278E-1,1.6108142E-2,-1.2284298E-3,-6.124075E-1,1.1581451E0,-7.5382173E-1,8.46816E-3,-5.810538E-4,-2.47118E-3,-1.5412139E-2,1.6422883E-2,4.070632E-2,-6.750789E-3,3.392201E-2,1.0427313E-2,-1.1812521E-3,-8.879312E-3,-2.6983751E-2,1.8610463E-3,-7.6843374E-3],"split_indices":[2,1,1,2,1,1,2,2,1,1,0,2,2,1,2,0,0,0,0,0,0,0,0,0,0,0,0,0,0],"split_type":[0,0,0,0,0,0,0,0,0,0,0,0,0,0,0,0,0,0,0,0,0,0,0,0,0,0,0,0,0],"sum_hessian":[6.4E2,4.3E1,5.97E2,1.9E1,2.4E1,4.38E2,1.59E2,1.2E1,7E0,1.5E1,9E0,1.33E2,3.05E2,2.1E1,1.38E2,1E1,2E0,1E0,6E0,6E0,9E0,1.29E2,4E0,1.28E2,1.77E2,1.2E1,9E0,4.2E1,9.6E1],"tree_param":{"num_deleted":"0","num_feature":"3","num_nodes":"29","size_leaf_vector":"1"}},{"base_weights":[-4.5904405E-3,3.6000818E-2,-2.3848641E-1,9.0617025E-3,3.8880655E-1,1.128123E-1,-5.1764137E-1,4.286944E-2,-4.5456967E-1,5.590005E-1,-6.1206126E-1,-2.415784E-1,3.4019035E-1,-1.1080939E0,-1.4410533E-1,-5.1409425E-3,3.978009E-3,-4.3349117E-3,-2.1664865E-2,1.9757573E-2,-3.911827E-3,-4.9365372E-3,-2.3840353E-2,1.8385148E-3,-1.7698765E-2,5.7159932E-3,1.3645754E-2,-1.8777294E-2,-5.742488E-2,6.4659165E-3,-7.4766004E-3],"categories":[],"categories_nodes":[],"categories_segments":[],"categories_sizes":[],"default_left":[0,0,0,0,0,0,0,0,0,0,0,0,0,0,0,0,0,0,0,0,0,0,0,0,0,0,0,0,0,0,0],"id":27,"left_children":[1,3,5,7,9,11,13,15,17,19,21,23,25,27,29,-1,-1,-1,-1,-1,-1,-1,-1,-1,-1,-1,-1,-1,-1,-1,-1],"loss_changes":[5.9709005E0,5.090768E0,9.178608E0,7.8409767E0,6.815125E0,3.4665709E0,1.1309194E1,8.980834E0,2.716735E0,2.3514433E0,3.5957265E-1,1.8298467E0,3.5951853E-1,6.5753784E0,1.301214E0,0E0,0E0,0E0,0E0,0E0,0E0,0E0,0E0,0E0,0E0,0E0,0E0,0E0,0E0,0E0,0E0],"parents":[2147483647,0,0,1,1,2,2,3,3,4,4,5,5,6,6,7,7,8,8,9,9,10,10,11,11,12,12,13,13,14,14],"right_children":[2,4,6,8,10,12,14,16,18,20,22,24,26,28,30,-1,-1,-1,-1,-1,-1,-1,-1,-1,-1,-1,-1,-1,-1,-1,-1],"split_conditions":[1.0560945E0,-1.6224024E-1,-7.001781E-1,-2.1568033E-1,2.3887472E-1,1.3291173E0,-3.200265E-1,-9.592262E-1,4.942776E-2,9.649155E-1,2.713266E-1,-8.2991093E-1,1.6507744E0,-4.0619963E-1,-2.1128051E-1,-5.1409425E-3,3.978009E-3,-4.3349117E-3,-2.1664865E-2,1.9757573E-2,-3.911827E-3,-4.9365372E-3,-2.3840353E-2,1.8385148E-3,-1.7698765E-2,5.7159932E-3,1.3645754E-2,-1.8777294E-2,-5.742488E-2,6.4659165E-3,-7.4766004E-3],"split_indices":[1,0,0,0,0,1,0,1,1,1,0,0,1,0,0,0,0,0,0,0,0,0,0,0,0,0,0,0,0,0,0],"split_type":[0,0,0,0,0,0,0,0,0,0,0,0,0,0,0,0,0,0,0,0,0,0,0,0,0,0,0,0,0,0,0],"sum_hessian":[6.27E2,5.35E2,9.2E1,4.98E2,3.7E1,4.1E1,5.1E1,4.65E2,3.3E1,3.2E1,5E0,1.6E1,2.5E1,1.9E1,3.2E1,1.37E2,3.28E2,1.6E1,1.7E1,2.8E1,4E0,2E0,3E0,9E0,7E0,1.2E1,1.3E1,1.3E1,6E0,7E0,2.5E1],"tree_param":{"num_deleted":"0","num_feature":"3","num_nodes":"31","size_leaf_vector":"1"}},{"base_weights":[1.655711E-2,7.832784E-1,8.1056105E-3,2.5414474E-2,6.000809E-3,-1.5040213E-1,5.470909E-2,-2.3888452E-1,7.6641023E-1,1.22798964E-1,-1.1785179E-1,-4.1839714E-5,-9.152827E-3,2.9450526E-2,1.5274602E-2,2.9798239E-3,5.2237317E-2,-4.5617044E-2,-6.395767E-4],"categories":[],"categories_nodes":[],"categories_segments":[],"categories_sizes":[],"default_left":[0,0,0,0,0,0,0,0,0,0,0,0,0,0,0,0,0,0,0],"id":28,"left_children":[1,3,5,-1,-1,7,9,11,13,15,17,-1,-1,-1,-1,-1,-1,-1,-1],"loss_changes":[4.1602564E0,9.131622E-2,4.7137556E0,0E0,0E0,1.1945739E1,5.807049E0,2.0908856E0,2.2012186E-1,1.3274561E1,1.8924677E1,0E0,0E0,0E0,0E0,0E0,0E0,0E0,0E0],"parents":[2147483647,0,0,1,1,2,2,5,5,6,6,7,7,8,8,9,9,10,10],"right_children":[2,4,6,-1,-1,8,10,12,14,16,18,-1,-1,-1,-1,-1,-1,-1,-1],"split_conditions":[-9.9931866E-1,-1.4294634E0,-9.592262E-1,2.5414474E-2,6.000809E-3,-2.5801092E-1,-4.227522E-1,-9.098388E-1,-1.5188439E0,-4.4933414E-1,-3.335866E-1,-4.1839714E-5,-9.152827E-3,2.9450526E-2,1.5274602E-2,2.9798239E-3,5.2237317E-2,-4.5617044E-2,-6.395767E-4],"split_indices":[0,1,1,0,0,0,0,0,1,0,0,0,0,0,0,0,0,0,0],"split_type":[0,0,0,0,0,0,0,0,0,0,0,0,0,0,0,0,0,0,0],"sum_hessian":[6.42E2,6E0,6.36E2,5E0,1E0,1.44E2,4.92E2,1.32E2,1.2E1,3.53E2,1.39E2,2.9E1,1.03E2,5E0,7E0,3.49E2,4E0,8E0,1.31E2],"tree_param":{"num_deleted":"0","num_feature":"3","num_nodes":"19","size_leaf_vector":"1"}},{"base_weights":[-3.1257833E-3,6.261559E-1,-1.5280783E-2,-4.131333E-3,2.1243528E-2,-1.708719E-1,2.7474318E-2,-2.4334623E-1,5.8622944E-1,1.2182879E-1,-1.465829E-1,-1.1697806E-3,-1.0027367E-2,2.1885462E-2,-2.60401E-3,2.9832886E-3,3.296985E-2,4.196394E-3,-9.921167E-3],"categories":[],"categories_nodes":[],"categories_segments":[],"categories_sizes":[],"default_left":[0,0,0,0,0,0,0,0,0,0,0,0,0,0,0,0,0,0,0],"id":29,"left_children":[1,3,5,-1,-1,7,9,11,13,15,17,-1,-1,-1,-1,-1,-1,-1,-1],"loss_changes":[4.8436847E0,8.4880924E-1,4.135782E0,0E0,0E0,7.4952936E0,8.032319E0,2.2717648E0,1.2205515E0,6.824987E0,9.118275E0,0E0,0E0,0E0,0E0,0E0,0E0,0E0,0E0],"parents":[2147483647,0,0,1,1,2,2,5,5,6,6,7,7,8,8,9,9,10,10],"right_children":[2,4,6,-1,-1,8,10,12,14,16,18,-1,-1,-1,-1,-1,-1,-1,-1],"split_conditions":[-9.860459E-1,-2.1061375E0,-9.4191736E-1,-4.131333E-3,2.1243528E-2,-2.5801092E-1,-4.8576802E-1,-1.7054096E0,6.4529553E-3,-4.8977292E-1,2.0226966E-1,-1.1697806E-3,-1.0027367E-2,2.1885462E-2,-2.60401E-3,2.9832886E-3,3.296985E-2,4.196394E-3,-9.921167E-3],"split_indices":[0,1,1,0,0,0,0,1,0,0,1,0,0,0,0,0,0,0,0],"split_type":[0,0,0,0,0,0,0,0,0,0,0,0,0,0,0,0,0,0,0],"sum_hessian":[6.31E2,1.1E1,6.2E2,1E0,1E1,1.33E2,4.87E2,1.22E2,1.1E1,3.16E2,1.71E2,3.8E1,8.4E1,9E0,2E0,3.1E2,6E0,6.7E1,1.04E2],"tree_param":{"num_deleted":"0","num_feature":"3","num_nodes":"19","size_leaf_vector":"1"}},{"base_weights":[4.586153E-3,5.759183E-1,-3.629882E-2,6.5254256E-2,1.1599193E0,-1.8785787E-1,5.2339092E-2,4.8827922E-1,-4.7907335E-1,6.7392397E-1,5.414015E-2,-6.1226897E-2,-8.1935793E-1,7.2576064E-1,-4.7209084E-2,2.9944753E-2,7.754387E-3,-3.7975654E-3,-1.987234E-2,3.1185431E-2,1.5388548E-2,-3.2420324E-3,3.4559965E-2,-3.935297E-2,-1.4939406E-2,1.5546665E-2,6.380247E-2,-9.2478115E-3,1.9031233E-3],"categories":[],"categories_nodes":[],"categories_segments":[],"categories_sizes":[],"default_left":[0,0,0,0,0,0,0,0,0,0,0,0,0,0,0,0,0,0,0,0,0,0,0,0,0,0,0,0,0],"id":30,"left_children":[1,3,5,7,9,11,13,15,17,19,-1,21,23,25,27,-1,-1,-1,-1,-1,-1,-1,-1,-1,-1,-1,-1,-1,-1],"loss_changes":[1.5040679E1,1.2748128E1,8.083592E0,5.7602615E0,5.050722E0,1.7702608E1,2.5508657E1,1.3823776E0,6.270168E-1,2.3182869E-1,0E0,1.06946E1,5.201975E0,1.3145065E1,9.609182E0,0E0,0E0,0E0,0E0,0E0,0E0,0E0,0E0,0E0,0E0,0E0,0E0,0E0,0E0],"parents":[2147483647,0,0,1,1,2,2,3,3,4,4,5,5,6,6,7,7,8,8,9,9,11,11,12,12,13,13,14,14],"right_children":[2,4,6,8,10,12,14,16,18,20,-1,22,24,26,28,-1,-1,-1,-1,-1,-1,-1,-1,-1,-1,-1,-1,-1,-1],"split_conditions":[-9.020256E-1,-9.545673E-1,-7.66396E-1,-9.4273573E-1,-9.2753273E-1,-7.980841E-1,-6.999107E-1,-9.718046E-1,-9.831952E-1,-9.718046E-1,5.414015E-2,-7.99093E-1,-8.2918566E-1,-6.174153E-1,-5.117192E-1,2.9944753E-2,7.754387E-3,-3.7975654E-3,-1.987234E-2,3.1185431E-2,1.5388548E-2,-3.2420324E-3,3.4559965E-2,-3.935297E-2,-1.4939406E-2,1.5546665E-2,6.380247E-2,-9.2478115E-3,1.9031233E-3],"split_indices":[2,0,2,2,2,2,2,2,0,2,0,2,0,0,2,0,0,0,0,0,0,0,0,0,0,0,0,0,0],"split_type":[0,0,0,0,0,0,0,0,0,0,0,0,0,0,0,0,0,0,0,0,0,0,0,0,0,0,0,0,0],"sum_hessian":[6.42E2,4.2E1,6E2,2.3E1,1.9E1,2.21E2,3.79E2,1.3E1,1E1,1.2E1,7E0,1.85E2,3.6E1,4.8E1,3.31E2,3E0,1E1,4E0,6E0,2E0,1E1,1.79E2,6E0,1.3E1,2.3E1,4.3E1,5E0,9.8E1,2.33E2],"tree_param":{"num_deleted":"0","num_feature":"3","num_nodes":"29","size_leaf_vector":"1"}},{"base_weights":[1.1584048E-2,5.3003514E-1,-2.3338905E-2,3.9833617E-1,4.9459994E-2,-1.4394957E-1,4.9723707E-2,3.5960726E-2,2.1081057E-1,-6.438324E-2,-8.242113E-1,8.482742E-1,-7.1053475E-2,1.0868464E-2,-1.1457418E-2,2.1936176E-2,-2.8765467E-3,-3.9036956E-2,-9.614511E-3,1.944391E-2,6.6239215E-2,-1.1285603E-2,1.9950052E-3],"categories":[],"categories_nodes":[],"categories_segments":[],"categories_sizes":[],"default_left":[0,0,0,0,0,0,0,0,0,0,0,0,0,0,0,0,0,0,0,0,0,0,0],"id":31,"left_children":[1,3,5,7,-1,9,11,-1,13,15,17,19,21,-1,-1,-1,-1,-1,-1,-1,-1,-1,-1],"loss_changes":[1.1763062E1,5.383501E0,5.373745E0,5.450609E0,0E0,1.2395901E1,3.671001E1,0E0,3.01135E0,5.2580223E0,5.349901E0,1.217572E1,1.3917814E1,0E0,0E0,0E0,0E0,0E0,0E0,0E0,0E0,0E0,0E0],"parents":[2147483647,0,0,1,1,2,2,3,3,5,5,6,6,8,8,9,9,10,10,11,11,12,12],"right_children":[2,4,6,8,-1,10,12,-1,14,16,18,20,22,-1,-1,-1,-1,-1,-1,-1,-1,-1,-1],"split_conditions":[-9.090474E-1,-8.1797266E-1,-7.859379E-1,-9.718046E-1,4.9459994E-2,-7.947688E-1,-6.9054693E-1,3.5960726E-2,-9.320381E-1,-9.831952E-1,-7.8823906E-1,-6.174153E-1,-5.117192E-1,1.0868464E-2,-1.1457418E-2,2.1936176E-2,-2.8765467E-3,-3.9036956E-2,-9.614511E-3,1.944391E-2,6.6239215E-2,-1.1285603E-2,1.9950052E-3],"split_indices":[2,0,2,2,0,2,2,0,2,0,2,0,2,0,0,0,0,0,0,0,0,0,0],"split_type":[0,0,0,0,0,0,0,0,0,0,0,0,0,0,0,0,0,0,0,0,0,0,0],"sum_hessian":[6.48E2,4E1,6.08E2,3.7E1,3E0,2.29E2,3.79E2,6E0,3.1E1,2.06E2,2.3E1,4.9E1,3.3E2,2.5E1,6E0,7E0,1.99E2,1.1E1,1.2E1,4.4E1,5E0,1.02E2,2.28E2],"tree_param":{"num_deleted":"0","num_feature":"3","num_nodes":"23","size_leaf_vector":"1"}},{"base_weights":[-1.9320294E-2,-1.8467894E-1,2.4835315E-2,-2.31972E-1,5.950946E-1,9.984757E-2,-9.4315946E-2,8.484059E-2,-3.2563266E-1,6.9474614E-1,5.922805E-3,-7.354983E-2,2.0337397E-1,1.6172044E-1,-2.9596004E-1,-6.8451124E-3,1.5351426E-2,-2.589963E-2,-8.066289E-3,2.2635328E-2,5.9388294E-3,3.683315E-3,-1.940972E-2,2.6458789E-2,2.2394867E-3,-9.0104534E-4,1.9154247E-2,-1.5863014E-2,-2.7942397E-3],"categories":[],"categories_nodes":[],"categories_segments":[],"categories_sizes":[],"default_left":[0,0,0,0,0,0,0,0,0,0,0,0,0,0,0,0,0,0,0,0,0,0,0,0,0,0,0,0,0],"id":32,"left_children":[1,3,5,7,9,11,13,15,17,19,-1,21,23,25,27,-1,-1,-1,-1,-1,-1,-1,-1,-1,-1,-1,-1,-1,-1],"loss_changes":[4.677554E0,5.1165576E0,4.5319467E0,3.8257551E0,1.7986417E-1,5.5977836E0,1.0166995E1,4.1252427E0,2.7890787E0,2.8777838E-2,0E0,1.325152E1,1.6967516E1,7.9727335E0,5.1446905E0,0E0,0E0,0E0,0E0,0E0,0E0,0E0,0E0,0E0,0E0,0E0,0E0,0E0,0E0],"parents":[2147483647,0,0,1,1,2,2,3,3,4,4,5,5,6,6,7,7,8,8,9,9,11,11,12,12,13,13,14,14],"right_children":[2,4,6,8,10,12,14,16,18,20,-1,22,24,26,28,-1,-1,-1,-1,-1,-1,-1,-1,-1,-1,-1,-1,-1,-1],"split_conditions":[-9.6957344E-1,-2.5801092E-1,6.361101E-1,-9.098388E-1,-1.1236081E0,-7.207835E-1,-7.001781E-1,-9.2192423E-1,-8.8675165E-1,-7.3709716E-3,5.922805E-3,-8.0520445E-1,-6.0008657E-1,-7.7756554E-1,-3.335866E-1,-6.8451124E-3,1.5351426E-2,-2.589963E-2,-8.066289E-3,2.2635328E-2,5.9388294E-3,3.683315E-3,-1.940972E-2,2.6458789E-2,2.2394867E-3,-9.0104534E-4,1.9154247E-2,-1.5863014E-2,-2.7942397E-3],"split_indices":[1,0,1,0,1,0,0,0,0,0,0,0,0,0,0,0,0,0,0,0,0,0,0,0,0,0,0,0,0],"split_type":[0,0,0,0,0,0,0,0,0,0,0,0,0,0,0,0,0,0,0,0,0,0,0,0,0,0,0,0,0],"sum_hessian":[6.39E2,1.34E2,5.05E2,1.27E2,7E0,3.1E2,1.95E2,2.9E1,9.8E1,5E0,2E0,1.16E2,1.94E2,8.6E1,1.09E2,1.7E1,1.2E1,8E0,9E1,4E0,1E0,8.7E1,2.9E1,3E1,1.64E2,6.2E1,2.4E1,5E1,5.9E1],"tree_param":{"num_deleted":"0","num_feature":"3","num_nodes":"29","size_leaf_vector":"1"}},{"base_weights":[1.1860576E-2,6.0129616E-2,-1.1069237E-1,2.9867293E-2,6.2378186E-1,1.2819374E-1,-2.5266957E-1,2.1482771E-2,5.679199E-2,1.1207188E0,1.1708754E-1,-5.3897448E-2,6.990602E-1,-3.4552252E-1,8.5605055E-2,1.39803E-3,-1.4744209E-2,3.607362E-2,1.4240846E-2,1.3457026E-2,-6.9335788E-3,-7.3723327E-3,1.1343223E-2,2.462767E-2,2.9333276E-3,-3.99538E-2,-9.264231E-3,1.4573226E-2,-1.2652203E-2],"categories":[],"categories_nodes":[],"categories_segments":[],"categories_sizes":[],"default_left":[0,0,0,0,0,0,0,0,0,0,0,0,0,0,0,0,0,0,0,0,0,0,0,0,0,0,0,0,0],"id":33,"left_children":[1,3,5,7,9,11,13,15,-1,17,19,21,23,25,27,-1,-1,-1,-1,-1,-1,-1,-1,-1,-1,-1,-1,-1,-1],"loss_changes":[3.8931477E0,8.0324745E0,6.340839E0,6.973624E0,5.9118614E0,7.3141594E0,3.704525E0,5.7951846E0,0E0,6.28376E-2,1.6041796E0,4.568375E0,1.1653833E0,2.920123E0,5.483492E0,0E0,0E0,0E0,0E0,0E0,0E0,0E0,0E0,0E0,0E0,0E0,0E0,0E0,0E0],"parents":[2147483647,0,0,1,1,2,2,3,3,4,4,5,5,6,6,7,7,9,9,10,10,11,11,12,12,13,13,14,14],"right_children":[2,4,6,8,10,12,14,16,-1,18,20,22,24,26,28,-1,-1,-1,-1,-1,-1,-1,-1,-1,-1,-1,-1,-1,-1],"split_conditions":[6.844403E-1,-1.674419E-1,-7.426488E-1,6.784307E-1,-1.9971155E-2,-7.900674E-1,-1.020982E-1,-2.1568033E-1,5.679199E-2,-4.576051E-2,1.5834336E-1,1.4245515E0,1.5017778E0,7.135192E-1,1.2018847E0,1.39803E-3,-1.4744209E-2,3.607362E-2,1.4240846E-2,1.3457026E-2,-6.9335788E-3,-7.3723327E-3,1.1343223E-2,2.462767E-2,2.9333276E-3,-3.99538E-2,-9.264231E-3,1.4573226E-2,-1.2652203E-2],"split_indices":[1,0,0,1,0,0,0,0,0,0,1,1,1,1,1,0,0,0,0,0,0,0,0,0,0,0,0,0,0],"split_type":[0,0,0,0,0,0,0,0,0,0,0,0,0,0,0,0,0,0,0,0,0,0,0,0,0,0,0,0,0],"sum_hessian":[6.56E2,4.71E2,1.85E2,4.48E2,2.3E1,6.9E1,1.16E2,4.47E2,1E0,1.1E1,1.2E1,5.3E1,1.6E1,9.1E1,2.5E1,4.27E2,2E1,9E0,2E0,6E0,6E0,3.7E1,1.6E1,1.3E1,3E0,2E0,8.9E1,1.4E1,1.1E1],"tree_param":{"num_deleted":"0","num_feature":"3","num_nodes":"29","size_leaf_vector":"1"}},{"base_weights":[9.53208E-3,-3.8384074E-1,2.6675107E-2,-1.3040987E-1,-2.4048965E-2,8.247493E-1,5.489906E-3,9.3760625E-2,-2.815875E-1,2.4731351E-1,1.0647371E0,3.774288E-2,-1.7213388E-1,-1.061736E-2,9.059104E-3,-1.4573292E-2,5.9156143E-3,1.780325E-2,1.7819867E-3,3.4006745E-2,5.6478917E-3,2.0474547E-3,-5.083056E-3,2.23773E-3,-1.1043041E-2],"categories":[],"categories_nodes":[],"categories_segments":[],"categories_sizes":[],"default_left":[0,0,0,0,0,0,0,0,0,0,0,0,0,0,0,0,0,0,0,0,0,0,0,0,0],"id":34,"left_children":[1,3,5,7,-1,9,11,13,15,17,19,21,23,-1,-1,-1,-1,-1,-1,-1,-1,-1,-1,-1,-1],"loss_changes":[4.359862E0,2.7542534E0,1.046113E1,6.3641405E-1,0E0,1.9539156E0,3.4667494E0,8.5254854E-1,1.1711541E0,3.5500368E-1,4.501114E-1,3.2474523E0,4.524013E0,0E0,0E0,0E0,0E0,0E0,0E0,0E0,0E0,0E0,0E0,0E0,0E0],"parents":[2147483647,0,0,1,1,2,2,3,3,5,5,6,6,7,7,8,8,9,9,10,10,11,11,12,12],"right_children":[2,4,6,8,-1,10,12,14,16,18,20,22,24,-1,-1,-1,-1,-1,-1,-1,-1,-1,-1,-1,-1],"split_conditions":[-1.9484278E0,-8.4170204E-1,-1.7597799E0,-9.098388E-1,-2.4048965E-2,-1.8623464E0,1.0620033E0,-9.925356E-1,-8.7852067E-1,-1.0032436E0,-4.576051E-2,-2.1568033E-1,-7.001781E-1,-1.061736E-2,9.059104E-3,-1.4573292E-2,5.9156143E-3,1.780325E-2,1.7819867E-3,3.4006745E-2,5.6478917E-3,2.0474547E-3,-5.083056E-3,2.23773E-3,-1.1043041E-2],"split_indices":[1,0,1,0,0,1,1,0,0,0,0,0,0,0,0,0,0,0,0,0,0,0,0,0,0],"split_type":[0,0,0,0,0,0,0,0,0,0,0,0,0,0,0,0,0,0,0,0,0,0,0,0,0],"sum_hessian":[6.44E2,2.6E1,6.18E2,1.7E1,9E0,1.5E1,6.03E2,7E0,1E1,5E0,1E1,5.11E2,9.2E1,2E0,5E0,7E0,3E0,1E0,4E0,9E0,1E0,4.46E2,6.5E1,4.1E1,5.1E1],"tree_param":{"num_deleted":"0","num_feature":"3","num_nodes":"25","size_leaf_vector":"1"}},{"base_weights":[-6.098622E-3,4.9684525E-1,-4.2787563E-2,9.844644E-3,9.410699E-1,-6.643693E-2,2.51941E-1,4.5517537E-1,-5.7006973E-1,5.918354E-1,4.964317E-2,-2.748662E-2,-4.7127718E-1,3.517319E-2,-1.1831429E-1,3.0811278E-2,9.657986E-3,-5.394079E-3,-1.9354835E-2,2.9357878E-2,1.3171751E-2,-2.5323676E-3,8.272599E-3,-2.2748295E-2,-1.073107E-2,-1.2546413E-2,3.7402655E-3],"categories":[],"categories_nodes":[],"categories_segments":[],"categories_sizes":[],"default_left":[0,0,0,0,0,0,0,0,0,0,0,0,0,0,0,0,0,0,0,0,0,0,0,0,0,0,0],"id":35,"left_children":[1,3,5,7,9,11,13,15,17,19,-1,21,23,-1,25,-1,-1,-1,-1,-1,-1,-1,-1,-1,-1,-1,-1],"loss_changes":[1.1941559E1,9.509593E0,4.2197356E0,5.9410634E0,4.7533875E0,8.8017235E0,1.5475594E1,6.599226E-1,1.770556E-1,5.748372E-1,0E0,8.844223E0,1.3259621E0,0E0,2.4569342E0,0E0,0E0,0E0,0E0,0E0,0E0,0E0,0E0,0E0,0E0,0E0,0E0],"parents":[2147483647,0,0,1,1,2,2,3,3,4,4,5,5,6,6,7,7,8,8,9,9,11,11,12,12,14,14],"right_children":[2,4,6,8,10,12,14,16,18,20,-1,22,24,-1,26,-1,-1,-1,-1,-1,-1,-1,-1,-1,-1,-1,-1],"split_conditions":[-9.020256E-1,-9.545673E-1,-1.3480465E-1,-9.365818E-1,-9.320381E-1,-2.0403211E-1,-7.3709716E-3,-9.731213E-1,-9.831952E-1,-9.718046E-1,4.964317E-2,-4.446832E-1,-2.1754003E-1,3.517319E-2,-1.5486458E-2,3.0811278E-2,9.657986E-3,-5.394079E-3,-1.9354835E-2,2.9357878E-2,1.3171751E-2,-2.5323676E-3,8.272599E-3,-2.2748295E-2,-1.073107E-2,-1.2546413E-2,3.7402655E-3],"split_indices":[2,0,2,2,2,0,0,2,0,2,0,2,2,0,2,0,0,0,0,0,0,0,0,0,0,0,0],"split_type":[0,0,0,0,0,0,0,0,0,0,0,0,0,0,0,0,0,0,0,0,0,0,0,0,0,0,0],"sum_hessian":[6.45E2,4.3E1,6.02E2,2.1E1,2.2E1,5.58E2,4.4E1,1.2E1,9E0,1.6E1,6E0,5.1E2,4.8E1,1.2E1,3.2E1,1E0,1.1E1,2E0,7E0,3E0,1.3E1,4.3E2,8E1,1.2E1,3.6E1,1.4E1,1.8E1],"tree_param":{"num_deleted":"0","num_feature":"3","num_nodes":"27","size_leaf_vector":"1"}},{"base_weights":[-3.2561373E-2,4.327213E-1,-6.518564E-2,-6.5435044E-2,9.83965E-1,-9.5079005E-2,2.6434726E-1,2.8924423E-1,-5.554426E-1,7.2923964E-1,4.3703526E-2,-6.444687E-2,-4.367268E-1,1.1032696E0,-9.2546664E-2,1.0412856E-2,-1.1572328E-3,-5.286197E-3,-1.884677E-2,3.196126E-2,1.3639027E-2,-3.7010794E-3,7.6454543E-3,1.4017988E-3,-1.455098E-2,1.7001458E-2,3.5705455E-2,1.5467516E-3,-1.5917717E-2],"categories":[],"categories_nodes":[],"categories_segments":[],"categories_sizes":[],"default_left":[0,0,0,0,0,0,0,0,0,0,0,0,0,0,0,0,0,0,0,0,0,0,0,0,0,0,0,0,0],"id":36,"left_children":[1,3,5,7,9,11,13,15,17,19,-1,21,23,25,27,-1,-1,-1,-1,-1,-1,-1,-1,-1,-1,-1,-1,-1,-1],"loss_changes":[9.72791E0,1.159782E1,5.915941E0,4.157955E0,1.3464375E0,5.717361E0,1.5072417E1,2.7889383E-1,1.653223E-1,9.002142E-1,0E0,9.532341E0,1.0735779E0,2.5003433E-2,2.299832E0,0E0,0E0,0E0,0E0,0E0,0E0,0E0,0E0,0E0,0E0,0E0,0E0,0E0,0E0],"parents":[2147483647,0,0,1,1,2,2,3,3,4,4,5,5,6,6,7,7,8,8,9,9,11,11,12,12,13,13,14,14],"right_children":[2,4,6,8,10,12,14,16,18,20,-1,22,24,26,28,-1,-1,-1,-1,-1,-1,-1,-1,-1,-1,-1,-1,-1,-1],"split_conditions":[-9.020256E-1,-9.545673E-1,-1.3480465E-1,-9.365818E-1,-8.1911767E-1,-2.1317264E-1,-7.3709716E-3,-9.465748E-1,-9.831952E-1,-8.8795626E-1,4.3703526E-2,-4.446832E-1,-3.6290494E-1,-1.2609987E-1,1.3103348E-1,1.0412856E-2,-1.1572328E-3,-5.286197E-3,-1.884677E-2,3.196126E-2,1.3639027E-2,-3.7010794E-3,7.6454543E-3,1.4017988E-3,-1.455098E-2,1.7001458E-2,3.5705455E-2,1.5467516E-3,-1.5917717E-2],"split_indices":[2,0,2,2,0,0,0,2,0,0,0,2,2,2,2,0,0,0,0,0,0,0,0,0,0,0,0,0,0],"split_type":[0,0,0,0,0,0,0,0,0,0,0,0,0,0,0,0,0,0,0,0,0,0,0,0,0,0,0,0,0],"sum_hessian":[6.38E2,4.1E1,5.97E2,2.2E1,1.9E1,5.48E2,4.9E1,1.3E1,9E0,1.4E1,5E0,5.04E2,4.4E1,1.4E1,3.5E1,1.1E1,2E0,2E0,7E0,5E0,9E0,4.26E2,7.8E1,4E0,4E1,3E0,1.1E1,2.7E1,8E0],"tree_param":{"num_deleted":"0","num_feature":"3","num_nodes":"29","size_leaf_vector":"1"}},{"base_weights":[7.4746255E-3,4.3165874E-2,-1.9435354E-1,-1.2677616E-1,1.05757296E-1,1.1561959E-1,-4.877083E-1,-1.9216152E-1,5.519183E-1,1.7683476E-1,-3.7747517E-2,-2.1658207E-1,3.2928208E-1,-8.174646E-1,-1.8874149E-1,1.9883957E-2,-6.922095E-3,2.0392077E-2,-3.021568E-3,4.549056E-3,3.6928296E-2,2.5568672E-3,-1.5437732E-2,9.5642474E-4,-1.6866108E-2,3.8220969E-3,1.2412721E-2,-1.1280736E-2,-4.794485E-2,2.3621898E-3,-1.2239271E-2],"categories":[],"categories_nodes":[],"categories_segments":[],"categories_sizes":[],"default_left":[0,0,0,0,0,0,0,0,0,0,0,0,0,0,0,0,0,0,0,0,0,0,0,0,0,0,0,0,0,0,0],"id":37,"left_children":[1,3,5,7,9,11,13,15,17,19,21,23,25,27,29,-1,-1,-1,-1,-1,-1,-1,-1,-1,-1,-1,-1,-1,-1,-1,-1],"loss_changes":[4.5537972E0,5.7254305E0,8.694937E0,6.540676E0,4.0152583E0,3.4073312E0,4.6764336E0,4.5392823E0,1.1529028E0,6.799432E0,7.725765E0,1.6495322E0,4.4184566E-1,7.3255653E0,1.6154315E0,0E0,0E0,0E0,0E0,0E0,0E0,0E0,0E0,0E0,0E0,0E0,0E0,0E0,0E0,0E0,0E0],"parents":[2147483647,0,0,1,1,2,2,3,3,4,4,5,5,6,6,7,7,8,8,9,9,10,10,11,11,12,12,13,13,14,14],"right_children":[2,4,6,8,10,12,14,16,18,20,22,24,26,28,30,-1,-1,-1,-1,-1,-1,-1,-1,-1,-1,-1,-1,-1,-1,-1,-1],"split_conditions":[1.0620033E0,-9.592262E-1,-7.001781E-1,-2.5801092E-1,-4.8576802E-1,1.3291173E0,-3.200265E-1,-9.9931866E-1,6.4529553E-3,-4.8977292E-1,6.784307E-1,1.2524154E0,-8.314041E-1,-4.0619963E-1,-1.5401538E-1,1.9883957E-2,-6.922095E-3,2.0392077E-2,-3.021568E-3,4.549056E-3,3.6928296E-2,2.5568672E-3,-1.5437732E-2,9.5642474E-4,-1.6866108E-2,3.8220969E-3,1.2412721E-2,-1.1280736E-2,-4.794485E-2,2.3621898E-3,-1.2239271E-2],"split_indices":[1,1,0,0,0,1,0,0,0,0,1,1,0,0,0,0,0,0,0,0,0,0,0,0,0,0,0,0,0,0,0],"split_type":[0,0,0,0,0,0,0,0,0,0,0,0,0,0,0,0,0,0,0,0,0,0,0,0,0,0,0,0,0,0,0],"sum_hessian":[6.3E2,5.36E2,9.4E1,1.44E2,3.92E2,4.6E1,4.8E1,1.32E2,1.2E1,2.62E2,1.3E2,1.8E1,2.8E1,2.2E1,2.6E1,5E0,1.27E2,1E1,2E0,2.57E2,5E0,1.04E2,2.6E1,1.1E1,7E0,9E0,1.9E1,1.5E1,7E0,1.2E1,1.4E1],"tree_param":{"num_deleted":"0","num_feature":"3","num_nodes":"31","size_leaf_vector":"1"}},{"base_weights":[2.6228486E-4,4.9654034E-1,-3.32594E-2,6.1026078E-2,9.0840983E-1,-6.470179E-2,3.3426136E-1,3.6203057E-1,-3.8053888E-1,4.1881684E-2,1.50279235E-2,9.214051E-3,-2.3432761E-1,3.156931E-2,6.568087E-2,6.745213E-3,3.012468E-2,-1.979763E-3,-1.5804406E-2,3.486627E-3,-3.103305E-3,-6.0012136E-3,-2.135242E-2,-1.5986333E-2,1.2814956E-2],"categories":[],"categories_nodes":[],"categories_segments":[],"categories_sizes":[],"default_left":[0,0,0,0,0,0,0,0,0,0,0,0,0,0,0,0,0,0,0,0,0,0,0,0,0],"id":38,"left_children":[1,3,5,7,9,11,13,15,17,-1,-1,19,21,-1,23,-1,-1,-1,-1,-1,-1,-1,-1,-1,-1],"loss_changes":[1.0780055E1,7.2989388E0,7.0359554E0,2.9289405E0,3.4734917E0,7.023459E0,9.187873E0,9.194374E-1,3.7932658E-1,0E0,0E0,4.7255783E0,2.6404142E0,0E0,8.016932E0,0E0,0E0,0E0,0E0,0E0,0E0,0E0,0E0,0E0,0E0],"parents":[2147483647,0,0,1,1,2,2,3,3,4,4,5,5,6,6,7,7,8,8,11,11,12,12,14,14],"right_children":[2,4,6,8,10,12,14,16,18,-1,-1,20,22,-1,24,-1,-1,-1,-1,-1,-1,-1,-1,-1,-1],"split_conditions":[-9.090474E-1,5.0453156E-1,-1.3480465E-1,-9.4273573E-1,1.2524154E0,5.1983076E-1,-9.713701E-2,1.3861929E-1,-1.0626612E0,4.1881684E-2,1.50279235E-2,-6.124075E-1,-2.0808601E-1,3.156931E-2,-1.5486458E-2,6.745213E-3,3.012468E-2,-1.979763E-3,-1.5804406E-2,3.486627E-3,-3.103305E-3,-6.0012136E-3,-2.135242E-2,-1.5986333E-2,1.2814956E-2],"split_indices":[2,1,2,2,1,1,2,1,1,0,0,2,2,0,2,0,0,0,0,0,0,0,0,0,0],"split_type":[0,0,0,0,0,0,0,0,0,0,0,0,0,0,0,0,0,0,0,0,0,0,0,0,0],"sum_hessian":[6.46E2,4E1,6.06E2,2E1,2E1,5.59E2,4.7E1,1.2E1,8E0,8E0,1.2E1,3.9E2,1.69E2,1.2E1,3.5E1,1.1E1,1E0,3E0,5E0,2E2,1.9E2,1.59E2,1E1,1.3E1,2.2E1],"tree_param":{"num_deleted":"0","num_feature":"3","num_nodes":"25","size_leaf_vector":"1"}},{"base_weights":[1.5341E-2,4.5566362E-1,-1.0850227E-2,5.7947837E-2,8.7336576E-1,-1.505741E-1,6.987492E-2,3.0214298E-1,-1.5644964E-2,6.1056036E-1,4.7245294E-2,-6.5150574E-2,-8.6455625E-1,7.9079074E-1,-5.4250836E-2,2.5349274E-2,4.2376854E-3,2.9156018E-2,1.4080608E-2,1.1158322E-3,-1.0819441E-2,-3.4751523E-2,-1.4960463E-2,1.6042106E-2,5.6686778E-2,-9.634092E-3,1.8468703E-3],"categories":[],"categories_nodes":[],"categories_segments":[],"categories_sizes":[],"default_left":[0,0,0,0,0,0,0,0,0,0,0,0,0,0,0,0,0,0,0,0,0,0,0,0,0,0,0],"id":39,"left_children":[1,3,5,7,9,11,13,15,-1,17,-1,19,21,23,25,-1,-1,-1,-1,-1,-1,-1,-1,-1,-1,-1,-1],"loss_changes":[7.189748E0,5.7638254E0,6.653988E0,2.84603E0,2.172449E0,1.31177025E1,3.351E1,1.103327E0,0E0,2.5811625E-1,0E0,5.8804946E0,1.8949261E0,1.4463501E1,9.910609E0,0E0,0E0,0E0,0E0,0E0,0E0,0E0,0E0,0E0,0E0,0E0,0E0],"parents":[2147483647,0,0,1,1,2,2,3,3,4,4,5,5,6,6,7,7,9,9,11,11,12,12,13,13,14,14],"right_children":[2,4,6,8,10,12,14,16,-1,18,-1,20,22,24,26,-1,-1,-1,-1,-1,-1,-1,-1,-1,-1,-1,-1],"split_conditions":[-9.090474E-1,-9.545673E-1,-7.66396E-1,-9.365818E-1,-9.2753273E-1,-7.9386145E-1,-6.8059605E-1,-9.718046E-1,-1.5644964E-2,-9.476133E-1,4.7245294E-2,-8.3434767E-1,-7.8823906E-1,-6.174153E-1,-5.1080585E-1,2.5349274E-2,4.2376854E-3,2.9156018E-2,1.4080608E-2,1.1158322E-3,-1.0819441E-2,-3.4751523E-2,-1.4960463E-2,1.6042106E-2,5.6686778E-2,-9.634092E-3,1.8468703E-3],"split_indices":[2,0,2,2,2,2,2,2,0,0,0,0,2,0,2,0,0,0,0,0,0,0,0,0,0,0,0],"split_type":[0,0,0,0,0,0,0,0,0,0,0,0,0,0,0,0,0,0,0,0,0,0,0,0,0,0,0],"sum_hessian":[6.22E2,3.4E1,5.88E2,1.8E1,1.6E1,2.15E2,3.73E2,1.3E1,5E0,1.3E1,3E0,1.93E2,2.2E1,5.4E1,3.19E2,2E0,1.1E1,2E0,1.1E1,1.44E2,4.9E1,1.1E1,1.1E1,4.5E1,9E0,9.6E1,2.23E2],"tree_param":{"num_deleted":"0","num_feature":"3","num_nodes":"27","size_leaf_vector":"1"}},{"base_weights":[-6.548947E-3,5.259572E-1,-4.3649785E-2,2.0533133E-2,9.645637E-1,-1.6557986E-1,3.231104E-2,4.1791207E-1,-3.7871245E-1,6.0005593E-1,4.7190268E-2,-7.242077E-2,-7.6011705E-1,5.9688103E-1,-5.6749415E-2,2.929257E-2,7.932584E-3,-1.8814462E-3,-1.4681164E-2,2.9810702E-2,1.2983386E-2,-4.1681672E-3,3.0436015E-2,-3.269405E-2,-1.6065896E-2,1.1071171E-2,6.0265787E-2,-1.0692399E-2,1.5099159E-3],"categories":[],"categories_nodes":[],"categories_segments":[],"categories_sizes":[],"default_left":[0,0,0,0,0,0,0,0,0,0,0,0,0,0,0,0,0,0,0,0,0,0,0,0,0,0,0,0,0],"id":40,"left_children":[1,3,5,7,9,11,13,15,17,19,-1,21,23,25,27,-1,-1,-1,-1,-1,-1,-1,-1,-1,-1,-1,-1,-1,-1],"loss_changes":[1.3042443E1,9.512535E0,5.719948E0,3.489956E0,4.157118E0,1.3071562E1,1.919088E1,6.848092E-1,3.5395944E-1,6.234822E-1,0E0,1.5035211E1,1.7857533E0,1.5987469E1,1.0606976E1,0E0,0E0,0E0,0E0,0E0,0E0,0E0,0E0,0E0,0E0,0E0,0E0,0E0,0E0],"parents":[2147483647,0,0,1,1,2,2,3,3,4,4,5,5,6,6,7,7,8,8,9,9,11,11,12,12,13,13,14,14],"right_children":[2,4,6,8,10,12,14,16,18,20,-1,22,24,26,28,-1,-1,-1,-1,-1,-1,-1,-1,-1,-1,-1,-1,-1,-1],"split_conditions":[-9.020256E-1,-9.545673E-1,-7.859379E-1,-9.465748E-1,-9.320381E-1,-7.980841E-1,-6.999107E-1,-9.731213E-1,-9.860459E-1,-9.476133E-1,4.7190268E-2,-8.0008906E-1,-8.2918566E-1,-6.174153E-1,-5.1816636E-1,2.929257E-2,7.932584E-3,-1.8814462E-3,-1.4681164E-2,2.9810702E-2,1.2983386E-2,-4.1681672E-3,3.0436015E-2,-3.269405E-2,-1.6065896E-2,1.1071171E-2,6.0265787E-2,-1.0692399E-2,1.5099159E-3],"split_indices":[2,0,2,2,2,2,2,2,0,0,0,2,0,0,2,0,0,0,0,0,0,0,0,0,0,0,0,0,0],"split_type":[0,0,0,0,0,0,0,0,0,0,0,0,0,0,0,0,0,0,0,0,0,0,0,0,0,0,0,0,0],"sum_hessian":[6.58E2,4.2E1,6.16E2,2E1,2.2E1,2.36E2,3.8E2,1E1,1E1,1.5E1,7E0,2.05E2,3.1E1,5.1E1,3.29E2,1E0,9E0,3E0,7E0,3E0,1.2E1,1.94E2,1.1E1,1.1E1,2E1,4.5E1,6E0,8.6E1,2.43E2],"tree_param":{"num_deleted":"0","num_feature":"3","num_nodes":"29","size_leaf_vector":"1"}},{"base_weights":[1.7006764E-2,6.6563827E-1,1.002755E-2,2.1803759E-2,4.480742E-3,-1.3842472E-1,4.4395916E-2,-2.1616371E-1,3.270617E-1,1.16385594E-1,-1.23257555E-1,-4.515467E-3,-1.4241448E-2,1.9274186E-2,-1.7920606E-3,5.9001436E-3,5.635141E-4,-4.3953724E-2,-1.5686698E-3],"categories":[],"categories_nodes":[],"categories_segments":[],"categories_sizes":[],"default_left":[0,0,0,0,0,0,0,0,0,0,0,0,0,0,0,0,0,0,0],"id":41,"left_children":[1,3,5,-1,-1,7,9,11,13,15,17,-1,-1,-1,-1,-1,-1,-1,-1],"loss_changes":[2.976578E0,1.1245513E-1,3.3377926E0,0E0,0E0,4.521631E0,6.423154E0,1.7277293E0,2.2343807E0,2.9113145E0,1.5160244E1,0E0,0E0,0E0,0E0,0E0,0E0,0E0,0E0],"parents":[2147483647,0,0,1,1,2,2,5,5,6,6,7,7,8,8,9,9,10,10],"right_children":[2,4,6,-1,-1,8,10,12,14,16,18,-1,-1,-1,-1,-1,-1,-1,-1],"split_conditions":[-9.9931866E-1,-1.4294634E0,-9.951014E-1,2.1803759E-2,4.480742E-3,-5.408153E-1,-4.227522E-1,-7.426488E-1,-1.1959713E0,3.8420582E-1,-3.335866E-1,-4.515467E-3,-1.4241448E-2,1.9274186E-2,-1.7920606E-3,5.9001436E-3,5.635141E-4,-4.3953724E-2,-1.5686698E-3],"split_indices":[0,1,1,0,0,0,0,0,1,1,0,0,0,0,0,0,0,0,0],"split_type":[0,0,0,0,0,0,0,0,0,0,0,0,0,0,0,0,0,0,0],"sum_hessian":[6.58E2,6E0,6.52E2,5E0,1E0,1.22E2,5.3E2,1.05E2,1.7E1,3.71E2,1.59E2,8.5E1,2E1,9E0,8E0,2.03E2,1.68E2,7E0,1.52E2],"tree_param":{"num_deleted":"0","num_feature":"3","num_nodes":"19","size_leaf_vector":"1"}},{"base_weights":[-1.6613405E-3,4.0133798E-1,-3.0201493E-2,1.8926826E-3,8.4063315E-1,-8.977617E-2,1.2487572E-1,3.3067152E-1,-5.4628235E-1,5.004971E-1,4.2024445E-2,-4.1187257E-2,-1.9324107E0,1.8036553E0,2.7844561E-2,2.8891666E-2,4.7790147E-3,-4.5142225E-3,-1.9136224E-2,2.3573503E-2,1.1624021E-2,-4.2511164E-3,2.0560732E-3,-6.512335E-2,-1.719512E-2,2.021338E-3,6.870327E-2,1.1940152E-2,-5.0946616E-4],"categories":[],"categories_nodes":[],"categories_segments":[],"categories_sizes":[],"default_left":[0,0,0,0,0,0,0,0,0,0,0,0,0,0,0,0,0,0,0,0,0,0,0,0,0,0,0,0,0],"id":42,"left_children":[1,3,5,7,9,11,13,15,17,19,-1,21,23,25,27,-1,-1,-1,-1,-1,-1,-1,-1,-1,-1,-1,-1,-1,-1],"loss_changes":[7.3041744E0,7.3683333E0,5.4897456E0,4.3258924E0,3.1096563E0,3.8329475E1,2.6827274E1,1.4721693E0,2.302916E-1,1.4697623E-1,0E0,4.630859E0,2.3197632E0,7.4472675E0,2.6118758E0,0E0,0E0,0E0,0E0,0E0,0E0,0E0,0E0,0E0,0E0,0E0,0E0,0E0,0E0],"parents":[2147483647,0,0,1,1,2,2,3,3,4,4,5,5,6,6,7,7,8,8,9,9,11,11,12,12,13,13,14,14],"right_children":[2,4,6,8,10,12,14,16,18,20,-1,22,24,26,28,-1,-1,-1,-1,-1,-1,-1,-1,-1,-1,-1,-1,-1,-1],"split_conditions":[-9.020256E-1,-9.545673E-1,-4.487306E-1,-9.365818E-1,-9.2753273E-1,-4.431298E-1,-4.2947948E-1,-9.731213E-1,-9.831952E-1,-9.718046E-1,4.2024445E-2,-7.859379E-1,-3.335866E-1,-4.446832E-1,-2.8410316E-1,2.8891666E-2,4.7790147E-3,-4.5142225E-3,-1.9136224E-2,2.3573503E-2,1.1624021E-2,-4.2511164E-3,2.0560732E-3,-6.512335E-2,-1.719512E-2,2.021338E-3,6.870327E-2,1.1940152E-2,-5.0946616E-4],"split_indices":[2,0,2,2,2,0,2,2,0,2,0,2,0,2,0,0,0,0,0,0,0,0,0,0,0,0,0,0,0],"split_type":[0,0,0,0,0,0,0,0,0,0,0,0,0,0,0,0,0,0,0,0,0,0,0,0,0,0,0,0,0],"sum_hessian":[6.33E2,4.1E1,5.92E2,2.2E1,1.9E1,4.28E2,1.64E2,1.4E1,8E0,1.3E1,6E0,4.18E2,1E1,8E0,1.56E2,2E0,1.2E1,2E0,6E0,2E0,1.1E1,2.18E2,2E2,8E0,2E0,2E0,6E0,1.6E1,1.4E2],"tree_param":{"num_deleted":"0","num_feature":"3","num_nodes":"29","size_leaf_vector":"1"}},{"base_weights":[-4.116517E-3,-2.6484879E-2,2.2683045E-1,-1.026961E-3,-3.208889E-1,6.304644E-1,-3.3363186E-2,3.02477E-2,-2.117761E-1,-4.558605E-1,5.6797437E-2,3.174121E-2,1.85981E-1,-2.2884576E-1,2.1307522E-1,-1.3871068E-3,4.295591E-3,1.4740393E-4,-2.9765582E-2,-7.243699E-3,-2.0459212E-2,5.413908E-3,-2.2494795E-3,-8.457532E-3,2.1025982E-2,2.1352419E-3,-1.4423625E-2,1.6425617E-2,-8.854295E-3],"categories":[],"categories_nodes":[],"categories_segments":[],"categories_sizes":[],"default_left":[0,0,0,0,0,0,0,0,0,0,0,0,0,0,0,0,0,0,0,0,0,0,0,0,0,0,0,0,0],"id":43,"left_children":[1,3,5,7,9,11,13,15,17,19,21,-1,23,25,27,-1,-1,-1,-1,-1,-1,-1,-1,-1,-1,-1,-1,-1,-1],"loss_changes":[3.2760258E0,4.331731E0,5.9023213E0,3.519466E0,2.37083E0,3.984334E0,1.7348659E0,4.0233216E0,1.1673237E1,1.4836373E0,2.2538926E-1,0E0,3.0885556E0,1.5459735E0,2.8811378E0,0E0,0E0,0E0,0E0,0E0,0E0,0E0,0E0,0E0,0E0,0E0,0E0,0E0,0E0],"parents":[2147483647,0,0,1,1,2,2,3,3,4,4,5,5,6,6,7,7,8,8,9,9,10,10,12,12,13,13,14,14],"right_children":[2,4,6,8,10,12,14,16,18,20,22,-1,24,26,28,-1,-1,-1,-1,-1,-1,-1,-1,-1,-1,-1,-1,-1,-1],"split_conditions":[-1.643741E-1,-2.2483878E-1,-7.3709716E-3,1.0560945E0,1.0717201E0,6.0270554E-1,9.483485E-2,-6.324469E-1,-6.174153E-1,7.828607E-2,-1.9830003E-1,3.174121E-2,-1.020982E-1,4.747106E-2,2.3887472E-1,-1.3871068E-3,4.295591E-3,1.4740393E-4,-2.9765582E-2,-7.243699E-3,-2.0459212E-2,5.413908E-3,-2.2494795E-3,-8.457532E-3,2.1025982E-2,2.1352419E-3,-1.4423625E-2,1.6425617E-2,-8.854295E-3],"split_indices":[0,0,0,1,1,1,0,0,0,1,0,0,0,0,0,0,0,0,0,0,0,0,0,0,0,0,0,0,0],"split_type":[0,0,0,0,0,0,0,0,0,0,0,0,0,0,0,0,0,0,0,0,0,0,0,0,0,0,0,0,0],"sum_hessian":[6.32E2,5.77E2,5.5E1,5.32E2,4.5E1,2.1E1,3.4E1,4.64E2,6.8E1,3.3E1,1.2E1,1E1,1.1E1,1.9E1,1.5E1,2.77E2,1.87E2,5.4E1,1.4E1,1.8E1,1.5E1,6E0,6E0,6E0,5E0,9E0,1E1,9E0,6E0],"tree_param":{"num_deleted":"0","num_feature":"3","num_nodes":"29","size_leaf_vector":"1"}},{"base_weights":[-1.1309169E-2,4.9310833E-1,-4.684793E-2,-2.3029398E-2,7.9982066E-1,-1.149793E-2,-3.1504723E-1,1.8187015E-1,-3.417245E-1,3.2666042E-2,1.3609293E-2,-3.8087152E-2,3.7323475E-1,-8.9263666E-1,-2.4799843E-1,6.9954735E-3,-9.807047E-4,-2.017212E-3,-1.1287953E-2,-7.14862E-4,-1.6123999E-2,2.9947918E-2,1.11894115E-4,-3.2227855E-2,2.956723E-3,-1.5527007E-2,-3.7621039E-3],"categories":[],"categories_nodes":[],"categories_segments":[],"categories_sizes":[],"default_left":[0,0,0,0,0,0,0,0,0,0,0,0,0,0,0,0,0,0,0,0,0,0,0,0,0,0,0],"id":44,"left_children":[1,3,5,7,9,11,13,15,17,-1,-1,19,21,23,25,-1,-1,-1,-1,-1,-1,-1,-1,-1,-1,-1,-1],"loss_changes":[1.1711096E1,6.82557E0,5.7796936E0,1.1722577E0,2.2077122E0,5.5382767E0,2.528222E0,1.2872818E-1,4.1065812E-2,0E0,0E0,3.590096E0,8.079576E0,1.3660579E0,2.0831983E0,0E0,0E0,0E0,0E0,0E0,0E0,0E0,0E0,0E0,0E0,0E0,0E0],"parents":[2147483647,0,0,1,1,2,2,3,3,4,4,5,5,6,6,7,7,8,8,11,11,12,12,13,13,14,14],"right_children":[2,4,6,8,10,12,14,16,18,-1,-1,20,22,24,26,-1,-1,-1,-1,-1,-1,-1,-1,-1,-1,-1,-1],"split_conditions":[-9.020256E-1,1.08332515E-1,1.1117754E0,-9.365818E-1,1.2524154E0,-1.3480465E-1,1.136255E0,-9.4273573E-1,-1.0626612E0,3.2666042E-2,1.3609293E-2,-1.637563E-1,-9.713701E-2,-2.1754003E-1,-8.488698E-1,6.9954735E-3,-9.807047E-4,-2.017212E-3,-1.1287953E-2,-7.14862E-4,-1.6123999E-2,2.9947918E-2,1.11894115E-4,-3.2227855E-2,2.956723E-3,-1.5527007E-2,-3.7621039E-3],"split_indices":[2,1,1,2,1,2,1,2,1,0,0,2,2,2,2,0,0,0,0,0,0,0,0,0,0,0,0],"split_type":[0,0,0,0,0,0,0,0,0,0,0,0,0,0,0,0,0,0,0,0,0,0,0,0,0,0,0],"sum_hessian":[6.51E2,4.2E1,6.09E2,1.6E1,2.6E1,5.39E2,7E1,1E1,6E0,1.3E1,1.3E1,5.05E2,3.4E1,6E0,6.4E1,8E0,2E0,1E0,5E0,4.92E2,1.3E1,1.2E1,2.2E1,5E0,1E0,1.9E1,4.5E1],"tree_param":{"num_deleted":"0","num_feature":"3","num_nodes":"27","size_leaf_vector":"1"}},{"base_weights":[-2.442582E-2,4.3438014E-1,-5.4559052E-2,-6.23953E-2,8.210882E-1,-8.7583417E-1,-4.4672366E-2,1.9473404E-1,-4.0814874E-1,5.518489E-1,4.3412548E-2,-6.5487307E-3,-2.8471285E-2,3.3005103E-1,-7.194292E-2,7.214898E-3,-3.943371E-3,-1.986954E-3,-1.34259695E-2,2.8700659E-2,1.0610741E-2,1.676111E-2,-1.9631922E-2,-7.4985516E-3,3.673016E-4],"categories":[],"categories_nodes":[],"categories_segments":[],"categories_sizes":[],"default_left":[0,0,0,0,0,0,0,0,0,0,0,0,0,0,0,0,0,0,0,0,0,0,0,0,0],"id":45,"left_children":[1,3,5,7,9,11,13,15,17,19,-1,-1,-1,21,23,-1,-1,-1,-1,-1,-1,-1,-1,-1,-1],"loss_changes":[8.747467E0,7.5434074E0,4.775851E0,1.6797407E0,2.9093742E0,1.2979794E-1,6.022248E0,1.9580722E-1,7.8086615E-2,1.0254025E0,0E0,0E0,0E0,9.369482E0,8.215337E0,0E0,0E0,0E0,0E0,0E0,0E0,0E0,0E0,0E0,0E0],"parents":[2147483647,0,0,1,1,2,2,3,3,4,4,5,5,6,6,7,7,8,8,9,9,13,13,14,14],"right_children":[2,4,6,8,10,12,14,16,18,20,-1,-1,-1,22,24,-1,-1,-1,-1,-1,-1,-1,-1,-1,-1],"split_conditions":[-9.020256E-1,-9.545673E-1,-8.8088495E-1,-9.365818E-1,-9.320381E-1,-9.545673E-1,-8.9650846E-1,-9.661283E-1,-9.860459E-1,-9.718046E-1,4.3412548E-2,-6.5487307E-3,-2.8471285E-2,-8.291367E-1,-7.859379E-1,7.214898E-3,-3.943371E-3,-1.986954E-3,-1.34259695E-2,2.8700659E-2,1.0610741E-2,1.676111E-2,-1.9631922E-2,-7.4985516E-3,3.673016E-4],"split_indices":[2,0,2,2,2,0,0,0,0,2,0,0,0,2,2,0,0,0,0,0,0,0,0,0,0],"split_type":[0,0,0,0,0,0,0,0,0,0,0,0,0,0,0,0,0,0,0,0,0,0,0,0,0],"sum_hessian":[6.3E2,3.8E1,5.92E2,1.7E1,2.1E1,6E0,5.86E2,1E1,7E0,1.6E1,5E0,1E0,5E0,3.9E1,5.47E2,9E0,1E0,1E0,6E0,4E0,1.2E1,3.2E1,7E0,1.75E2,3.72E2],"tree_param":{"num_deleted":"0","num_feature":"3","num_nodes":"25","size_leaf_vector":"1"}},{"base_weights":[-1.6757086E-2,6.7929316E-1,-2.4215756E-2,2.2392094E-2,4.1494966E-3,1.1027104E-3,-1.8410431E-1,7.911504E-3,-2.281023E-2,-2.9526362E-1,2.4097025E-1,-5.4180465E-4,1.0639901E-2,-1.4446505E-2,-7.386102E-4,1.2435758E-2,-6.1245947E-3],"categories":[],"categories_nodes":[],"categories_segments":[],"categories_sizes":[],"default_left":[0,0,0,0,0,0,0,0,0,0,0,0,0,0,0,0,0],"id":46,"left_children":[1,3,5,-1,-1,7,9,11,-1,13,15,-1,-1,-1,-1,-1,-1],"loss_changes":[3.4273372E0,1.5089488E-1,2.6355376E0,0E0,0E0,2.9248967E0,4.2764893E0,5.040604E0,0E0,3.5677657E0,1.5524415E0,0E0,0E0,0E0,0E0,0E0,0E0],"parents":[2147483647,0,0,1,1,2,2,5,5,6,6,7,7,9,9,10,10],"right_children":[2,4,6,-1,-1,8,10,12,-1,14,16,-1,-1,-1,-1,-1,-1],"split_conditions":[-9.9931866E-1,-1.4294634E0,1.1117754E0,2.2392094E-2,4.1494966E-3,2.3887472E-1,1.6507744E0,-1.643741E-1,-2.281023E-2,-3.335866E-1,-7.1583486E-1,-5.4180465E-4,1.0639901E-2,-1.4446505E-2,-7.386102E-4,1.2435758E-2,-6.1245947E-3],"split_indices":[0,1,1,0,0,0,1,0,0,0,0,0,0,0,0,0,0],"split_type":[0,0,0,0,0,0,0,0,0,0,0,0,0,0,0,0,0],"sum_hessian":[6.56E2,6E0,6.5E2,5E0,1E0,5.62E2,8.8E1,5.58E2,4E0,7E1,1.8E1,5.2E2,3.8E1,4.1E1,2.9E1,1.3E1,5E0],"tree_param":{"num_deleted":"0","num_feature":"3","num_nodes":"17","size_leaf_vector":"1"}},{"base_weights":[1.779391E-2,4.5961094E-1,-1.6741535E-2,3.1005514E-3,8.779496E-1,-8.60003E-1,-5.121546E-3,2.7742353E-1,-4.5444894E-1,5.641422E-1,4.3051396E-2,-6.4423727E-3,-2.7645139E-2,7.1549034E-1,-1.6411416E-2,2.7762026E-2,4.9511814E-3,-4.098179E-3,-1.5772382E-2,2.8024845E-2,1.1352946E-2,2.4352854E-2,7.570804E-3,7.393962E-3,-1.258963E-3],"categories":[],"categories_nodes":[],"categories_segments":[],"categories_sizes":[],"default_left":[0,0,0,0,0,0,0,0,0,0,0,0,0,0,0,0,0,0,0,0,0,0,0,0,0],"id":47,"left_children":[1,3,5,7,9,11,13,15,17,19,-1,-1,-1,21,23,-1,-1,-1,-1,-1,-1,-1,-1,-1,-1],"loss_changes":[9.681487E0,8.782172E0,5.767023E0,3.0129507E0,3.386135E0,1.1958599E-1,4.7466702E0,9.396082E-1,1.3213158E-1,8.1466484E-1,0E0,0E0,0E0,1.9641972E-1,3.8662221E0,0E0,0E0,0E0,0E0,0E0,0E0,0E0,0E0,0E0,0E0],"parents":[2147483647,0,0,1,1,2,2,3,3,4,4,5,5,6,6,7,7,8,8,9,9,13,13,14,14],"right_children":[2,4,6,8,10,12,14,16,18,20,-1,-1,-1,22,24,-1,-1,-1,-1,-1,-1,-1,-1,-1,-1],"split_conditions":[-9.020256E-1,-9.545673E-1,-8.8088495E-1,-9.365818E-1,-9.2753273E-1,-9.545673E-1,-8.7896776E-1,-9.731213E-1,-9.831952E-1,-9.2192423E-1,4.3051396E-2,-6.4423727E-3,-2.7645139E-2,-8.595694E-1,-8.9823496E-1,2.7762026E-2,4.9511814E-3,-4.098179E-3,-1.5772382E-2,2.8024845E-2,1.1352946E-2,2.4352854E-2,7.570804E-3,7.393962E-3,-1.258963E-3],"split_indices":[2,0,2,2,2,0,2,2,0,0,0,0,0,0,0,0,0,0,0,0,0,0,0,0,0],"split_type":[0,0,0,0,0,0,0,0,0,0,0,0,0,0,0,0,0,0,0,0,0,0,0,0,0],"sum_hessian":[6.33E2,4.5E1,5.88E2,2.2E1,2.3E1,7E0,5.81E2,1.4E1,8E0,1.6E1,7E0,1E0,6E0,8E0,5.73E2,1E0,1.3E1,2E0,6E0,4E0,1.2E1,6E0,2E0,5E1,5.23E2],"tree_param":{"num_deleted":"0","num_feature":"3","num_nodes":"25","size_leaf_vector":"1"}},{"base_weights":[-3.5882165E-4,3.9937004E-1,-2.6962476E-2,2.4364712E-2,6.7548853E-1,-6.504496E-1,-1.4235682E-2,2.2774032E-1,-2.5832233E-1,9.633529E-1,1.2648659E-2,-4.5487785E-1,-2.7836205E-2,6.2236303E-1,-2.516813E-2,8.305502E-3,-3.9503607E-3,-1.838957E-3,-1.0928307E-2,1.2171064E-2,3.8025092E-2,-1.9119354E-2,1.5068904E-2,2.3726638E-2,5.1556113E-3,-2.3211183E-3,3.0765762E-3],"categories":[],"categories_nodes":[],"categories_segments":[],"categories_sizes":[],"default_left":[0,0,0,0,0,0,0,0,0,0,0,0,0,0,0,0,0,0,0,0,0,0,0,0,0,0,0],"id":48,"left_children":[1,3,5,7,9,11,13,15,17,19,-1,21,-1,23,25,-1,-1,-1,-1,-1,-1,-1,-1,-1,-1,-1,-1],"loss_changes":[6.816687E0,4.1253786E0,4.7596703E0,1.09368E0,1.2746496E0,2.2900629E-1,4.121817E0,2.306161E-1,1.446749E-1,1.1818676E0,0E0,1.89171E0,0E0,6.233039E-1,3.881657E0,0E0,0E0,0E0,0E0,0E0,0E0,0E0,0E0,0E0,0E0,0E0,0E0],"parents":[2147483647,0,0,1,1,2,2,3,3,4,4,5,5,6,6,7,7,8,8,9,9,11,11,13,13,14,14],"right_children":[2,4,6,8,10,12,14,16,18,20,-1,22,-1,24,26,-1,-1,-1,-1,-1,-1,-1,-1,-1,-1,-1,-1],"split_conditions":[-9.090474E-1,1.3861929E-1,-8.8088495E-1,-9.4273573E-1,9.9313444E-1,1.293211E0,-8.7896776E-1,-7.225266E-2,-1.0626612E0,5.0453156E-1,1.2648659E-2,1.282079E0,-2.7836205E-2,8.7899256E-1,-4.487306E-1,8.305502E-3,-3.9503607E-3,-1.838957E-3,-1.0928307E-2,1.2171064E-2,3.8025092E-2,-1.9119354E-2,1.5068904E-2,2.3726638E-2,5.1556113E-3,-2.3211183E-3,3.0765762E-3],"split_indices":[2,1,2,2,1,1,2,1,1,1,0,1,0,1,2,0,0,0,0,0,0,0,0,0,0,0,0],"split_type":[0,0,0,0,0,0,0,0,0,0,0,0,0,0,0,0,0,0,0,0,0,0,0,0,0,0,0],"sum_hessian":[6.39E2,3.9E1,6E2,1.7E1,2.2E1,1.1E1,5.89E2,1E1,7E0,9E0,1.3E1,8E0,3E0,9E0,5.8E2,9E0,1E0,3E0,4E0,4E0,5E0,7E0,1E0,6E0,3E0,4.12E2,1.68E2],"tree_param":{"num_deleted":"0","num_feature":"3","num_nodes":"27","size_leaf_vector":"1"}},{"base_weights":[-9.096731E-3,1.6459489E-1,-3.315382E-2,3.979181E-2,3.286051E-1,-4.8329234E-1,-1.759986E-2,1.8493299E-1,-3.428691E-1,-1.207462E-1,4.29207E-1,-1.495912E-1,-2.3059929E-2,-7.851161E-1,-1.1975699E-2,2.1885326E-3,2.0860702E-2,-1.6710067E-2,8.345429E-3,-2.3289693E-4,-6.1062784E-3,1.8542755E-2,4.9115214E-3,2.0840259E-4,-1.15840435E-2,-4.847335E-3,-2.8173085E-2,1.0584957E-3,-2.8385662E-3],"categories":[],"categories_nodes":[],"categories_segments":[],"categories_sizes":[],"default_left":[0,0,0,0,0,0,0,0,0,0,0,0,0,0,0,0,0,0,0,0,0,0,0,0,0,0,0,0,0],"id":49,"left_children":[1,3,5,7,9,11,13,15,17,19,21,23,-1,25,27,-1,-1,-1,-1,-1,-1,-1,-1,-1,-1,-1,-1,-1,-1],"loss_changes":[2.7131348E0,1.6039734E0,3.9823132E0,2.6182413E0,1.5888155E0,1.694365E0,2.3733802E0,1.8926528E0,1.8837836E0,6.3901946E-2,1.3029227E0,3.7296286E-1,0E0,2.3232865E-1,2.1475267E0,0E0,0E0,0E0,0E0,0E0,0E0,0E0,0E0,0E0,0E0,0E0,0E0,0E0,0E0],"parents":[2147483647,0,0,1,1,2,2,3,3,4,4,5,5,6,6,7,7,8,8,9,9,10,10,11,11,13,13,14,14],"right_children":[2,4,6,8,10,12,14,16,18,20,22,24,-1,26,28,-1,-1,-1,-1,-1,-1,-1,-1,-1,-1,-1,-1,-1,-1],"split_conditions":[-8.9650846E-1,-9.4526696E-1,-1.8623464E0,-9.661283E-1,-2.3633993E0,-2.1354957E0,-8.9076674E-1,7.222053E-2,5.0453156E-1,-9.098388E-1,-9.0775084E-1,-7.0853966E-1,-2.3059929E-2,-8.9426005E-1,-4.881883E-1,2.1885326E-3,2.0860702E-2,-1.6710067E-2,8.345429E-3,-2.3289693E-4,-6.1062784E-3,1.8542755E-2,4.9115214E-3,2.0840259E-4,-1.15840435E-2,-4.847335E-3,-2.8173085E-2,1.0584957E-3,-2.8385662E-3],"split_indices":[0,0,1,0,1,1,0,1,1,0,0,0,0,0,0,0,0,0,0,0,0,0,0,0,0,0,0,0,0],"split_type":[0,0,0,0,0,0,0,0,0,0,0,0,0,0,0,0,0,0,0,0,0,0,0,0,0,0,0,0,0],"sum_hessian":[6.47E2,7.8E1,5.69E2,4.5E1,3.3E1,1.8E1,5.51E2,3.3E1,1.2E1,6E0,2.7E1,9E0,9E0,3E0,5.48E2,2.8E1,5E0,9E0,3E0,3E0,3E0,1.5E1,1.2E1,6E0,3E0,1E0,2E0,3.49E2,1.99E2],"tree_param":{"num_deleted":"0","num_feature":"3","num_nodes":"29","size_leaf_vector":"1"}},{"base_weights":[-1.4507541E-2,5.986045E-1,-2.113898E-2,1.9665966E-2,3.855576E-3,-9.7206816E-2,3.2505486E-2,-1.5192541E-2,-3.6813802E-1,2.1085556E-1,-3.3049233E-2,-1.9990297E-3,1.25423E-2,-1.5088357E-2,-3.0051856E-3,2.386822E-3,3.8693666E-2,3.2570213E-3,-5.4513575E-3],"categories":[],"categories_nodes":[],"categories_segments":[],"categories_sizes":[],"default_left":[0,0,0,0,0,0,0,0,0,0,0,0,0,0,0,0,0,0,0],"id":50,"left_children":[1,3,5,-1,-1,7,9,11,13,15,17,-1,-1,-1,-1,-1,-1,-1,-1],"loss_changes":[2.6594985E0,1.0307765E-1,2.635159E0,0E0,0E0,5.927207E0,4.4381185E0,4.6192155E0,2.1892843E0,1.4346538E1,5.8724914E0,0E0,0E0,0E0,0E0,0E0,0E0,0E0,0E0],"parents":[2147483647,0,0,1,1,2,2,5,5,6,6,7,7,8,8,9,9,10,10],"right_children":[2,4,6,-1,-1,8,10,12,14,16,18,-1,-1,-1,-1,-1,-1,-1,-1],"split_conditions":[-9.9931866E-1,-1.4294634E0,-7.7756554E-1,1.9665966E-2,3.855576E-3,-8.2918566E-1,-5.925182E-1,-8.4170204E-1,4.405861E-1,-6.174153E-1,2.0226966E-1,-1.9990297E-3,1.25423E-2,-1.5088357E-2,-3.0051856E-3,2.386822E-3,3.8693666E-2,3.2570213E-3,-5.4513575E-3],"split_indices":[0,1,0,0,0,0,0,0,1,0,1,0,0,0,0,0,0,0,0],"split_type":[0,0,0,0,0,0,0,0,0,0,0,0,0,0,0,0,0,0,0],"sum_hessian":[6.5E2,6E0,6.44E2,5E0,1E0,2.66E2,3.78E2,2.05E2,6.1E1,1.01E2,2.77E2,1.84E2,2.1E1,4E1,2.1E1,9.1E1,1E1,1.42E2,1.35E2],"tree_param":{"num_deleted":"0","num_feature":"3","num_nodes":"19","size_leaf_vector":"1"}},{"base_weights":[4.836123E-3,4.0622348E-1,-2.2283675E-2,-2.9712211E-2,7.162493E-1,-5.992483E-1,-1.3577557E-2,2.4453701E-1,-4.9560913E-1,4.6180764E-1,4.2078186E-2,-2.0115891E-1,-7.647665E-1,6.7689127E-1,-2.2885282E-2,2.6880102E-2,3.115738E-3,-3.9756913E-3,-1.6021088E-2,2.5630608E-2,1.0044245E-2,-1.790715E-2,1.479119E-2,-5.7783104E-3,-2.522027E-2,2.3480814E-2,7.189674E-3,6.5931734E-3,-1.3410075E-3],"categories":[],"categories_nodes":[],"categories_segments":[],"categories_sizes":[],"default_left":[0,0,0,0,0,0,0,0,0,0,0,0,0,0,0,0,0,0,0,0,0,0,0,0,0,0,0,0,0],"id":51,"left_children":[1,3,5,7,9,11,13,15,17,19,-1,21,23,25,27,-1,-1,-1,-1,-1,-1,-1,-1,-1,-1,-1,-1,-1,-1],"loss_changes":[7.051999E0,5.5624857E0,3.040899E0,2.4210887E0,3.5435734E0,4.3917966E-1,3.86508E0,1.0067152E0,2.689445E-2,6.6116524E-1,0E0,1.3932034E0,9.8668575E-2,1.8250775E-1,3.1436183E0,0E0,0E0,0E0,0E0,0E0,0E0,0E0,0E0,0E0,0E0,0E0,0E0,0E0,0E0],"parents":[2147483647,0,0,1,1,2,2,3,3,4,4,5,5,6,6,7,7,8,8,9,9,11,11,12,12,13,13,14,14],"right_children":[2,4,6,8,10,12,14,16,18,20,-1,22,24,26,28,-1,-1,-1,-1,-1,-1,-1,-1,-1,-1,-1,-1,-1,-1],"split_conditions":[-9.020256E-1,-9.545673E-1,-8.8088495E-1,-9.365818E-1,-9.2753273E-1,-8.947273E-1,-8.7896776E-1,-9.731213E-1,-9.831952E-1,-9.476133E-1,4.2078186E-2,-9.4526696E-1,-9.545673E-1,-8.60854E-1,-8.9650846E-1,2.6880102E-2,3.115738E-3,-3.9756913E-3,-1.6021088E-2,2.5630608E-2,1.0044245E-2,-1.790715E-2,1.479119E-2,-5.7783104E-3,-2.522027E-2,2.3480814E-2,7.189674E-3,6.5931734E-3,-1.3410075E-3],"split_indices":[2,0,2,2,2,2,2,2,0,0,0,0,0,0,0,0,0,0,0,0,0,0,0,0,0,0,0,0,0],"split_type":[0,0,0,0,0,0,0,0,0,0,0,0,0,0,0,0,0,0,0,0,0,0,0,0,0,0,0,0,0],"sum_hessian":[6.46E2,4E1,6.06E2,1.7E1,2.3E1,8E0,5.98E2,1.1E1,6E0,1.8E1,5E0,3E0,5E0,7E0,5.91E2,1E0,1E1,1E0,5E0,3E0,1.5E1,2E0,1E0,1E0,4E0,5E0,2E0,4.8E1,5.43E2],"tree_param":{"num_deleted":"0","num_feature":"3","num_nodes":"29","size_leaf_vector":"1"}},{"base_weights":[3.6840586E-3,3.9239118E-1,-2.178028E-2,2.4315384E-1,3.6672503E-2,-7.85674E-1,-1.0620371E-2,3.207259E-1,-4.576041E-1,-5.691636E-3,-2.5093589E-2,-6.307919E-2,1.2148121E-1,-7.290462E-4,1.4153833E-2,-2.1393192E-3,-1.6877951E-2,-4.8649218E-4,-4.8357256E-2,4.9119573E-2,1.1865752E-3],"categories":[],"categories_nodes":[],"categories_segments":[],"categories_sizes":[],"default_left":[0,0,0,0,0,0,0,0,0,0,0,0,0,0,0,0,0,0,0,0,0],"id":52,"left_children":[1,3,5,7,-1,9,11,13,15,-1,-1,17,19,-1,-1,-1,-1,-1,-1,-1,-1],"loss_changes":[6.6007276E0,4.781468E0,5.3282957E0,2.103698E0,0E0,1.1366367E-1,4.290337E0,1.7315176E0,1.22115195E-1,0E0,0E0,3.212789E1,2.1792793E1,0E0,0E0,0E0,0E0,0E0,0E0,0E0,0E0],"parents":[2147483647,0,0,1,1,2,2,3,3,5,5,6,6,7,7,8,8,11,11,12,12],"right_children":[2,4,6,8,-1,10,12,14,16,-1,-1,18,20,-1,-1,-1,-1,-1,-1,-1,-1],"split_conditions":[-9.020256E-1,-8.1911767E-1,-8.8088495E-1,-9.20848E-1,3.6672503E-2,-9.545673E-1,-4.487306E-1,-9.7726285E-1,-9.7568434E-1,-5.691636E-3,-2.5093589E-2,-4.431298E-1,-4.2947948E-1,-7.290462E-4,1.4153833E-2,-2.1393192E-3,-1.6877951E-2,-4.8649218E-4,-4.8357256E-2,4.9119573E-2,1.1865752E-3],"split_indices":[2,0,2,2,0,0,2,0,0,0,0,0,2,0,0,0,0,0,0,0,0],"split_type":[0,0,0,0,0,0,0,0,0,0,0,0,0,0,0,0,0,0,0,0,0],"sum_hessian":[6.65E2,4E1,6.25E2,3.5E1,5E0,8E0,6.17E2,3.2E1,3E0,1E0,7E0,4.42E2,1.75E2,1E1,2.2E1,1E0,2E0,4.3E2,1.2E1,8E0,1.67E2],"tree_param":{"num_deleted":"0","num_feature":"3","num_nodes":"21","size_leaf_vector":"1"}},{"base_weights":[2.9241154E-2,2.1929631E-2,2.378973E-2,-9.833505E-2,5.5160727E-2,-1.5065855E-1,3.962402E-1,1.18442304E-1,-5.2573413E-2,7.1000354E-4,-6.0294745E-3,1.51573615E-2,-1.3677327E-2,3.1223902E-3,4.8903752E-2,3.6392077E-3,-5.843716E-3],"categories":[],"categories_nodes":[],"categories_segments":[],"categories_sizes":[],"default_left":[0,0,0,0,0,0,0,0,0,0,0,0,0,0,0,0,0],"id":53,"left_children":[1,-1,3,5,7,9,11,13,15,-1,-1,-1,-1,-1,-1,-1,-1],"loss_changes":[2.4806736E0,0E0,2.4918578E0,3.5014584E0,3.530919E0,1.066258E0,1.4379025E0,6.908362E0,4.771552E0,0E0,0E0,0E0,0E0,0E0,0E0,0E0,0E0],"parents":[2147483647,0,0,2,2,3,3,4,4,5,5,6,6,7,7,8,8],"right_children":[2,-1,4,6,8,10,12,14,16,-1,-1,-1,-1,-1,-1,-1,-1],"split_conditions":[-9.9931866E-1,2.1929631E-2,-9.6957344E-1,-2.7289936E-1,-4.881883E-1,-9.098388E-1,6.4529553E-3,-4.8977292E-1,2.0226966E-1,7.1000354E-4,-6.0294745E-3,1.51573615E-2,-1.3677327E-2,3.1223902E-3,4.8903752E-2,3.6392077E-3,-5.843716E-3],"split_indices":[0,0,1,0,0,0,0,0,1,0,0,0,0,0,0,0,0],"split_type":[0,0,0,0,0,0,0,0,0,0,0,0,0,0,0,0,0],"sum_hessian":[6.52E2,4E0,6.48E2,1.32E2,5.16E2,1.2E2,1.2E1,3.25E2,1.91E2,2.7E1,9.3E1,1.1E1,1E0,3.23E2,2E0,8.6E1,1.05E2],"tree_param":{"num_deleted":"0","num_feature":"3","num_nodes":"17","size_leaf_vector":"1"}},{"base_weights":[8.745627E-3,4.7276017E-1,-2.3968058E-2,3.0174017E-1,3.8542636E-2,-9.258376E-2,1.457159E-1,2.745712E-2,1.485328E-1,-5.478908E-2,-1.8334502E0,1.9614097E0,3.3429693E-2,-2.3165855E-3,1.1382991E-2,8.062599E-3,-2.8102638E-3,-6.0458034E-2,-5.6836447E-3,3.0662766E-2,6.653883E-2,-1.7047304E-3,8.140758E-3],"categories":[],"categories_nodes":[],"categories_segments":[],"categories_sizes":[],"default_left":[0,0,0,0,0,0,0,0,0,0,0,0,0,0,0,0,0,0,0,0,0,0,0],"id":54,"left_children":[1,3,5,7,-1,9,11,-1,13,15,17,19,21,-1,-1,-1,-1,-1,-1,-1,-1,-1,-1],"loss_changes":[9.680753E0,5.444764E0,6.9527106E0,3.24778E0,0E0,2.786263E1,3.5001343E1,0E0,1.5930877E0,5.271617E0,2.308363E0,1.4287567E-1,3.5156896E0,0E0,0E0,0E0,0E0,0E0,0E0,0E0,0E0,0E0,0E0],"parents":[2147483647,0,0,1,1,2,2,3,3,5,5,6,6,8,8,9,9,10,10,11,11,12,12],"right_children":[2,4,6,8,-1,10,12,-1,14,16,18,20,22,-1,-1,-1,-1,-1,-1,-1,-1,-1,-1],"split_conditions":[-8.947273E-1,-8.1797266E-1,-4.446832E-1,-9.718046E-1,3.8542636E-2,-4.431298E-1,-4.2947948E-1,2.745712E-2,-9.545673E-1,-8.9650846E-1,-5.9025097E-1,-4.437803E-1,-1.3480465E-1,-2.3165855E-3,1.1382991E-2,8.062599E-3,-2.8102638E-3,-6.0458034E-2,-5.6836447E-3,3.0662766E-2,6.653883E-2,-1.7047304E-3,8.140758E-3],"split_indices":[2,0,2,2,0,0,2,0,0,0,2,2,2,0,0,0,0,0,0,0,0,0,0],"split_type":[0,0,0,0,0,0,0,0,0,0,0,0,0,0,0,0,0,0,0,0,0,0,0],"sum_hessian":[6.36E2,4.1E1,5.95E2,3.5E1,6E0,4.24E2,1.71E2,6E0,2.9E1,4.16E2,8E0,9E0,1.62E2,1.5E1,1.4E1,4.4E1,3.72E2,7E0,1E0,3E0,